<?xml version="1.0"?>
<MethodSetup Method="BDT::BDT">
  <Variables NVar="8">
    <Variable Expression="f0" Internal="f0" Label="f0" Max="0.0e+00" Min="0.0e+00" Title="f0" Type="F" Unit="" VarIndex="0"/>
    <Variable Expression="f1" Internal="f1" Label="f1" Max="0.0e+00" Min="0.0e+00" Title="f1" Type="F" Unit="" VarIndex="1"/>
    <Variable Expression="f2" Internal="f2" Label="f2" Max="0.0e+00" Min="0.0e+00" Title="f2" Type="F" Unit="" VarIndex="2"/>
    <Variable Expression="f3" Internal="f3" Label="f3" Max="0.0e+00" Min="0.0e+00" Title="f3" Type="F" Unit="" VarIndex="3"/>
    <Variable Expression="f4" Internal="f4" Label="f4" Max="0.0e+00" Min="0.0e+00" Title="f4" Type="F" Unit="" VarIndex="4"/>
    <Variable Expression="f5" Internal="f5" Label="f5" Max="0.0e+00" Min="0.0e+00" Title="f5" Type="F" Unit="" VarIndex="5"/>
    <Variable Expression="f6" Internal="f6" Label="f6" Max="0.0e+00" Min="0.0e+00" Title="f6" Type="F" Unit="" VarIndex="6"/>
    <Variable Expression="f7" Internal="f7" Label="f7" Max="0.0e+00" Min="0.0e+00" Title="f7" Type="F" Unit="" VarIndex="7"/>
  </Variables>
  <GeneralInfo>
    <Info name="Creator" value="xgboost2TMVA"/>
    <Info name="AnalysisType" value="Classification"/>
  </GeneralInfo>
  <Options>
    <Option modified="No" name="NodePurityLimit">5.00e-01</Option>
    <Option modified="Yes" name="BoostType">Grad</Option>
  </Options>
  <Weights AnalysisType="1" NTrees="500">
    <BinaryTree boostWeight="1.0e+00" itree="0" type="DecisionTree">
      <Node Cut="-0.598511934" IVar="6" NCoef="0" cType="1" depth="0" nType="0" pos="s" purity="0.0e+00" res="0.0e+00" rms="0.0e+00">
        <Node Cut="-0.132647067" IVar="2" NCoef="0" cType="1" depth="1" nType="0" pos="l" purity="0.0e+00" res="0.0e+00" rms="0.0e+00">
          <Node Cut="0.0e+00" IVar="-1" NCoef="0" cType="1" depth="2" nType="-99" pos="l" purity="0.0e+00" res="-0.0556233525" rms="0.0e+00"/>
          <Node Cut="0.0e+00" IVar="-1" NCoef="0" cType="1" depth="2" nType="-99" pos="r" purity="0.0e+00" res="-0.0122216651" rms="0.0e+00"/>
        </Node>
        <Node Cut="-0.296502769" IVar="1" NCoef="0" cType="1" depth="1" nType="0" pos="r" purity="0.0e+00" res="0.0e+00" rms="0.0e+00">
          <Node Cut="-0.385821164" IVar="0" NCoef="0" cType="1" depth="2" nType="0" pos="l" purity="0.0e+00" res="0.0e+00" rms="0.0e+00">
            <Node Cut="-0.658185303" IVar="1" NCoef="0" cType="1" depth="3" nType="0" pos="l" purity="0.0e+00" res="0.0e+00" rms="0.0e+00">
              <Node Cut="0.0e+00" IVar="-1" NCoef="0" cType="1" depth="4" nType="-99" pos="l" purity="0.0e+00" res="0.0474931337" rms="0.0e+00"/>
              <Node Cut="0.0e+00" IVar="-1" NCoef="0" cType="1" depth="4" nType="-99" pos="r" purity="0.0e+00" res="-0.00344410329" rms="0.0e+00"/>
            </Node>
            <Node Cut="0.0e+00" IVar="-1" NCoef="0" cType="1" depth="3" nType="-99" pos="r" purity="0.0e+00" res="0.0738447234" rms="0.0e+00"/>
          </Node>
          <Node Cut="0.33694458" IVar="0" NCoef="0" cType="1" depth="2" nType="0" pos="r" purity="0.0e+00" res="0.0e+00" rms="0.0e+00">
            <Node Cut="0.0772705451" IVar="1" NCoef="0" cType="1" depth="3" nType="0" pos="l" purity="0.0e+00" res="0.0e+00" rms="0.0e+00">
              <Node Cut="0.0e+00" IVar="-1" NCoef="0" cType="1" depth="4" nType="-99" pos="l" purity="0.0e+00" res="-0.0262245983" rms="0.0e+00"/>
              <Node Cut="0.0e+00" IVar="-1" NCoef="0" cType="1" depth="4" nType="-99" pos="r" purity="0.0e+00" res="-0.0524033867" rms="0.0e+00"/>
            </Node>
            <Node Cut="0.0e+00" IVar="-1" NCoef="0" cType="1" depth="3" nType="-99" pos="r" purity="0.0e+00" res="0.0114164678" rms="0.0e+00"/>
          </Node>
        </Node>
      </Node>
    </BinaryTree>
    <BinaryTree boostWeight="1.0e+00" itree="1" type="DecisionTree">
      <Node Cut="-0.656588793" IVar="6" NCoef="0" cType="1" depth="0" nType="0" pos="s" purity="0.0e+00" res="0.0e+00" rms="0.0e+00">
        <Node Cut="0.0e+00" IVar="-1" NCoef="0" cType="1" depth="1" nType="-99" pos="l" purity="0.0e+00" res="-0.047702726" rms="0.0e+00"/>
        <Node Cut="-0.242111176" IVar="1" NCoef="0" cType="1" depth="1" nType="0" pos="r" purity="0.0e+00" res="0.0e+00" rms="0.0e+00">
          <Node Cut="-0.416366816" IVar="0" NCoef="0" cType="1" depth="2" nType="0" pos="l" purity="0.0e+00" res="0.0e+00" rms="0.0e+00">
            <Node Cut="-0.657102466" IVar="1" NCoef="0" cType="1" depth="3" nType="0" pos="l" purity="0.0e+00" res="0.0e+00" rms="0.0e+00">
              <Node Cut="0.0e+00" IVar="-1" NCoef="0" cType="1" depth="4" nType="-99" pos="l" purity="0.0e+00" res="0.0286131296" rms="0.0e+00"/>
              <Node Cut="0.0e+00" IVar="-1" NCoef="0" cType="1" depth="4" nType="-99" pos="r" purity="0.0e+00" res="-0.0106054312" rms="0.0e+00"/>
            </Node>
            <Node Cut="0.0e+00" IVar="-1" NCoef="0" cType="1" depth="3" nType="-99" pos="r" purity="0.0e+00" res="0.057597395" rms="0.0e+00"/>
          </Node>
          <Node Cut="0.33694458" IVar="0" NCoef="0" cType="1" depth="2" nType="0" pos="r" purity="0.0e+00" res="0.0e+00" rms="0.0e+00">
            <Node Cut="0.0e+00" IVar="-1" NCoef="0" cType="1" depth="3" nType="-99" pos="l" purity="0.0e+00" res="-0.0413966179" rms="0.0e+00"/>
            <Node Cut="0.0e+00" IVar="-1" NCoef="0" cType="1" depth="3" nType="-99" pos="r" purity="0.0e+00" res="0.00152779371" rms="0.0e+00"/>
          </Node>
        </Node>
      </Node>
    </BinaryTree>
    <BinaryTree boostWeight="1.0e+00" itree="2" type="DecisionTree">
      <Node Cut="-0.617398977" IVar="6" NCoef="0" cType="1" depth="0" nType="0" pos="s" purity="0.0e+00" res="0.0e+00" rms="0.0e+00">
        <Node Cut="-0.136382133" IVar="2" NCoef="0" cType="1" depth="1" nType="0" pos="l" purity="0.0e+00" res="0.0e+00" rms="0.0e+00">
          <Node Cut="0.0e+00" IVar="-1" NCoef="0" cType="1" depth="2" nType="-99" pos="l" purity="0.0e+00" res="-0.057189066" rms="0.0e+00"/>
          <Node Cut="0.0e+00" IVar="-1" NCoef="0" cType="1" depth="2" nType="-99" pos="r" purity="0.0e+00" res="-0.0157401692" rms="0.0e+00"/>
        </Node>
        <Node Cut="-0.296626717" IVar="1" NCoef="0" cType="1" depth="1" nType="0" pos="r" purity="0.0e+00" res="0.0e+00" rms="0.0e+00">
          <Node Cut="-0.297927797" IVar="0" NCoef="0" cType="1" depth="2" nType="0" pos="l" purity="0.0e+00" res="0.0e+00" rms="0.0e+00">
            <Node Cut="-0.620675087" IVar="1" NCoef="0" cType="1" depth="3" nType="0" pos="l" purity="0.0e+00" res="0.0e+00" rms="0.0e+00">
              <Node Cut="-0.625769258" IVar="0" NCoef="0" cType="1" depth="4" nType="0" pos="l" purity="0.0e+00" res="0.0e+00" rms="0.0e+00">
                <Node Cut="0.0e+00" IVar="-1" NCoef="0" cType="1" depth="5" nType="-99" pos="l" purity="0.0e+00" res="0.0142931296" rms="0.0e+00"/>
                <Node Cut="0.0e+00" IVar="-1" NCoef="0" cType="1" depth="5" nType="-99" pos="r" purity="0.0e+00" res="0.060012579" rms="0.0e+00"/>
              </Node>
              <Node Cut="0.0e+00" IVar="-1" NCoef="0" cType="1" depth="4" nType="-99" pos="r" purity="0.0e+00" res="-0.00478178216" rms="0.0e+00"/>
            </Node>
            <Node Cut="0.0e+00" IVar="-1" NCoef="0" cType="1" depth="3" nType="-99" pos="r" purity="0.0e+00" res="0.0606183223" rms="0.0e+00"/>
          </Node>
          <Node Cut="0.341909289" IVar="0" NCoef="0" cType="1" depth="2" nType="0" pos="r" purity="0.0e+00" res="0.0e+00" rms="0.0e+00">
            <Node Cut="0.0e+00" IVar="-1" NCoef="0" cType="1" depth="3" nType="-99" pos="l" purity="0.0e+00" res="-0.0368175469" rms="0.0e+00"/>
            <Node Cut="0.0e+00" IVar="-1" NCoef="0" cType="1" depth="3" nType="-99" pos="r" purity="0.0e+00" res="0.0100225611" rms="0.0e+00"/>
          </Node>
        </Node>
      </Node>
    </BinaryTree>
    <BinaryTree boostWeight="1.0e+00" itree="3" type="DecisionTree">
      <Node Cut="-0.668379903" IVar="6" NCoef="0" cType="1" depth="0" nType="0" pos="s" purity="0.0e+00" res="0.0e+00" rms="0.0e+00">
        <Node Cut="0.0e+00" IVar="-1" NCoef="0" cType="1" depth="1" nType="-99" pos="l" purity="0.0e+00" res="-0.0420507304" rms="0.0e+00"/>
        <Node Cut="-0.1978724" IVar="1" NCoef="0" cType="1" depth="1" nType="0" pos="r" purity="0.0e+00" res="0.0e+00" rms="0.0e+00">
          <Node Cut="-0.384236574" IVar="0" NCoef="0" cType="1" depth="2" nType="0" pos="l" purity="0.0e+00" res="0.0e+00" rms="0.0e+00">
            <Node Cut="-0.657102466" IVar="1" NCoef="0" cType="1" depth="3" nType="0" pos="l" purity="0.0e+00" res="0.0e+00" rms="0.0e+00">
              <Node Cut="-0.130989939" IVar="2" NCoef="0" cType="1" depth="4" nType="0" pos="l" purity="0.0e+00" res="0.0e+00" rms="0.0e+00">
                <Node Cut="0.0e+00" IVar="-1" NCoef="0" cType="1" depth="5" nType="-99" pos="l" purity="0.0e+00" res="0.000507716613" rms="0.0e+00"/>
                <Node Cut="0.0e+00" IVar="-1" NCoef="0" cType="1" depth="5" nType="-99" pos="r" purity="0.0e+00" res="0.0412316918" rms="0.0e+00"/>
              </Node>
              <Node Cut="0.0e+00" IVar="-1" NCoef="0" cType="1" depth="4" nType="-99" pos="r" purity="0.0e+00" res="-0.00894254074" rms="0.0e+00"/>
            </Node>
            <Node Cut="0.0e+00" IVar="-1" NCoef="0" cType="1" depth="3" nType="-99" pos="r" purity="0.0e+00" res="0.0476788506" rms="0.0e+00"/>
          </Node>
          <Node Cut="0.150703818" IVar="0" NCoef="0" cType="1" depth="2" nType="0" pos="r" purity="0.0e+00" res="0.0e+00" rms="0.0e+00">
            <Node Cut="0.0e+00" IVar="-1" NCoef="0" cType="1" depth="3" nType="-99" pos="l" purity="0.0e+00" res="-0.0437752977" rms="0.0e+00"/>
            <Node Cut="0.0e+00" IVar="-1" NCoef="0" cType="1" depth="3" nType="-99" pos="r" purity="0.0e+00" res="-0.00261850888" rms="0.0e+00"/>
          </Node>
        </Node>
      </Node>
    </BinaryTree>
    <BinaryTree boostWeight="1.0e+00" itree="4" type="DecisionTree">
      <Node Cut="-0.60625577" IVar="6" NCoef="0" cType="1" depth="0" nType="0" pos="s" purity="0.0e+00" res="0.0e+00" rms="0.0e+00">
        <Node Cut="-0.136053368" IVar="2" NCoef="0" cType="1" depth="1" nType="0" pos="l" purity="0.0e+00" res="0.0e+00" rms="0.0e+00">
          <Node Cut="0.0e+00" IVar="-1" NCoef="0" cType="1" depth="2" nType="-99" pos="l" purity="0.0e+00" res="-0.0507072806" rms="0.0e+00"/>
          <Node Cut="0.0e+00" IVar="-1" NCoef="0" cType="1" depth="2" nType="-99" pos="r" purity="0.0e+00" res="-0.0160147529" rms="0.0e+00"/>
        </Node>
        <Node Cut="-0.296502531" IVar="1" NCoef="0" cType="1" depth="1" nType="0" pos="r" purity="0.0e+00" res="0.0e+00" rms="0.0e+00">
          <Node Cut="-0.582587361" IVar="0" NCoef="0" cType="1" depth="2" nType="0" pos="l" purity="0.0e+00" res="0.0e+00" rms="0.0e+00">
            <Node Cut="0.0e+00" IVar="-1" NCoef="0" cType="1" depth="3" nType="-99" pos="l" purity="0.0e+00" res="0.0135161476" rms="0.0e+00"/>
            <Node Cut="-0.093255952" IVar="2" NCoef="0" cType="1" depth="3" nType="0" pos="r" purity="0.0e+00" res="0.0e+00" rms="0.0e+00">
              <Node Cut="0.0e+00" IVar="-1" NCoef="0" cType="1" depth="4" nType="-99" pos="l" purity="0.0e+00" res="0.0260182675" rms="0.0e+00"/>
              <Node Cut="0.0e+00" IVar="-1" NCoef="0" cType="1" depth="4" nType="-99" pos="r" purity="0.0e+00" res="0.0567597821" rms="0.0e+00"/>
            </Node>
          </Node>
          <Node Cut="0.329229414" IVar="0" NCoef="0" cType="1" depth="2" nType="0" pos="r" purity="0.0e+00" res="0.0e+00" rms="0.0e+00">
            <Node Cut="0.0e+00" IVar="-1" NCoef="0" cType="1" depth="3" nType="-99" pos="l" purity="0.0e+00" res="-0.0360058472" rms="0.0e+00"/>
            <Node Cut="0.0e+00" IVar="-1" NCoef="0" cType="1" depth="3" nType="-99" pos="r" purity="0.0e+00" res="0.00769309793" rms="0.0e+00"/>
          </Node>
        </Node>
      </Node>
    </BinaryTree>
    <BinaryTree boostWeight="1.0e+00" itree="5" type="DecisionTree">
      <Node Cut="-0.594329417" IVar="6" NCoef="0" cType="1" depth="0" nType="0" pos="s" purity="0.0e+00" res="0.0e+00" rms="0.0e+00">
        <Node Cut="-0.133651361" IVar="2" NCoef="0" cType="1" depth="1" nType="0" pos="l" purity="0.0e+00" res="0.0e+00" rms="0.0e+00">
          <Node Cut="0.0e+00" IVar="-1" NCoef="0" cType="1" depth="2" nType="-99" pos="l" purity="0.0e+00" res="-0.051401943" rms="0.0e+00"/>
          <Node Cut="0.0e+00" IVar="-1" NCoef="0" cType="1" depth="2" nType="-99" pos="r" purity="0.0e+00" res="-0.00573710864" rms="0.0e+00"/>
        </Node>
        <Node Cut="-0.408560932" IVar="1" NCoef="0" cType="1" depth="1" nType="0" pos="r" purity="0.0e+00" res="0.0e+00" rms="0.0e+00">
          <Node Cut="-0.499780178" IVar="0" NCoef="0" cType="1" depth="2" nType="0" pos="l" purity="0.0e+00" res="0.0e+00" rms="0.0e+00">
            <Node Cut="-0.747508049" IVar="1" NCoef="0" cType="1" depth="3" nType="0" pos="l" purity="0.0e+00" res="0.0e+00" rms="0.0e+00">
              <Node Cut="0.0e+00" IVar="-1" NCoef="0" cType="1" depth="4" nType="-99" pos="l" purity="0.0e+00" res="0.0295927059" rms="0.0e+00"/>
              <Node Cut="0.0e+00" IVar="-1" NCoef="0" cType="1" depth="4" nType="-99" pos="r" purity="0.0e+00" res="0.00558476662" rms="0.0e+00"/>
            </Node>
            <Node Cut="0.0e+00" IVar="-1" NCoef="0" cType="1" depth="3" nType="-99" pos="r" purity="0.0e+00" res="0.05698172" rms="0.0e+00"/>
          </Node>
          <Node Cut="0.0870029181" IVar="0" NCoef="0" cType="1" depth="2" nType="0" pos="r" purity="0.0e+00" res="0.0e+00" rms="0.0e+00">
            <Node Cut="0.0e+00" IVar="-1" NCoef="0" cType="1" depth="3" nType="-99" pos="l" purity="0.0e+00" res="-0.0300627258" rms="0.0e+00"/>
            <Node Cut="0.0e+00" IVar="-1" NCoef="0" cType="1" depth="3" nType="-99" pos="r" purity="0.0e+00" res="0.0090935966" rms="0.0e+00"/>
          </Node>
        </Node>
      </Node>
    </BinaryTree>
    <BinaryTree boostWeight="1.0e+00" itree="6" type="DecisionTree">
      <Node Cut="-0.206513777" IVar="1" NCoef="0" cType="1" depth="0" nType="0" pos="s" purity="0.0e+00" res="0.0e+00" rms="0.0e+00">
        <Node Cut="-0.583649874" IVar="6" NCoef="0" cType="1" depth="1" nType="0" pos="l" purity="0.0e+00" res="0.0e+00" rms="0.0e+00">
          <Node Cut="0.0e+00" IVar="-1" NCoef="0" cType="1" depth="2" nType="-99" pos="l" purity="0.0e+00" res="-0.0278377663" rms="0.0e+00"/>
          <Node Cut="-0.263463199" IVar="0" NCoef="0" cType="1" depth="2" nType="0" pos="r" purity="0.0e+00" res="0.0e+00" rms="0.0e+00">
            <Node Cut="-0.555330336" IVar="1" NCoef="0" cType="1" depth="3" nType="0" pos="l" purity="0.0e+00" res="0.0e+00" rms="0.0e+00">
              <Node Cut="-0.643690646" IVar="0" NCoef="0" cType="1" depth="4" nType="0" pos="l" purity="0.0e+00" res="0.0e+00" rms="0.0e+00">
                <Node Cut="0.0e+00" IVar="-1" NCoef="0" cType="1" depth="5" nType="-99" pos="l" purity="0.0e+00" res="0.0116642294" rms="0.0e+00"/>
                <Node Cut="0.0e+00" IVar="-1" NCoef="0" cType="1" depth="5" nType="-99" pos="r" purity="0.0e+00" res="0.0427402258" rms="0.0e+00"/>
              </Node>
              <Node Cut="0.0e+00" IVar="-1" NCoef="0" cType="1" depth="4" nType="-99" pos="r" purity="0.0e+00" res="-0.00969682075" rms="0.0e+00"/>
            </Node>
            <Node Cut="0.0e+00" IVar="-1" NCoef="0" cType="1" depth="3" nType="-99" pos="r" purity="0.0e+00" res="0.0567956455" rms="0.0e+00"/>
          </Node>
        </Node>
        <Node Cut="0.141465962" IVar="0" NCoef="0" cType="1" depth="1" nType="0" pos="r" purity="0.0e+00" res="0.0e+00" rms="0.0e+00">
          <Node Cut="0.0e+00" IVar="-1" NCoef="0" cType="1" depth="2" nType="-99" pos="l" purity="0.0e+00" res="-0.0425544679" rms="0.0e+00"/>
          <Node Cut="0.0e+00" IVar="-1" NCoef="0" cType="1" depth="2" nType="-99" pos="r" purity="0.0e+00" res="-0.00250775716" rms="0.0e+00"/>
        </Node>
      </Node>
    </BinaryTree>
    <BinaryTree boostWeight="1.0e+00" itree="7" type="DecisionTree">
      <Node Cut="0.145416409" IVar="5" NCoef="0" cType="1" depth="0" nType="0" pos="s" purity="0.0e+00" res="0.0e+00" rms="0.0e+00">
        <Node Cut="-0.131007373" IVar="5" NCoef="0" cType="1" depth="1" nType="0" pos="l" purity="0.0e+00" res="0.0e+00" rms="0.0e+00">
          <Node Cut="-0.296626717" IVar="1" NCoef="0" cType="1" depth="2" nType="0" pos="l" purity="0.0e+00" res="0.0e+00" rms="0.0e+00">
            <Node Cut="-0.642157555" IVar="1" NCoef="0" cType="1" depth="3" nType="0" pos="l" purity="0.0e+00" res="0.0e+00" rms="0.0e+00">
              <Node Cut="0.0e+00" IVar="-1" NCoef="0" cType="1" depth="4" nType="-99" pos="l" purity="0.0e+00" res="0.0449219011" rms="0.0e+00"/>
              <Node Cut="0.0e+00" IVar="-1" NCoef="0" cType="1" depth="4" nType="-99" pos="r" purity="0.0e+00" res="0.018985888" rms="0.0e+00"/>
            </Node>
            <Node Cut="0.0e+00" IVar="-1" NCoef="0" cType="1" depth="3" nType="-99" pos="r" purity="0.0e+00" res="-0.0151818683" rms="0.0e+00"/>
          </Node>
          <Node Cut="-0.654588461" IVar="6" NCoef="0" cType="1" depth="2" nType="0" pos="r" purity="0.0e+00" res="0.0e+00" rms="0.0e+00">
            <Node Cut="0.0e+00" IVar="-1" NCoef="0" cType="1" depth="3" nType="-99" pos="l" purity="0.0e+00" res="-0.0583303757" rms="0.0e+00"/>
            <Node Cut="0.0e+00" IVar="-1" NCoef="0" cType="1" depth="3" nType="-99" pos="r" purity="0.0e+00" res="-0.0408519432" rms="0.0e+00"/>
          </Node>
        </Node>
        <Node Cut="-0.643118382" IVar="1" NCoef="0" cType="1" depth="1" nType="0" pos="r" purity="0.0e+00" res="0.0e+00" rms="0.0e+00">
          <Node Cut="0.0e+00" IVar="-1" NCoef="0" cType="1" depth="2" nType="-99" pos="l" purity="0.0e+00" res="0.060690023" rms="0.0e+00"/>
          <Node Cut="-0.012656169" IVar="1" NCoef="0" cType="1" depth="2" nType="0" pos="r" purity="0.0e+00" res="0.0e+00" rms="0.0e+00">
            <Node Cut="0.0e+00" IVar="-1" NCoef="0" cType="1" depth="3" nType="-99" pos="l" purity="0.0e+00" res="0.0185641423" rms="0.0e+00"/>
            <Node Cut="0.0e+00" IVar="-1" NCoef="0" cType="1" depth="3" nType="-99" pos="r" purity="0.0e+00" res="-0.0145248016" rms="0.0e+00"/>
          </Node>
        </Node>
      </Node>
    </BinaryTree>
    <BinaryTree boostWeight="1.0e+00" itree="8" type="DecisionTree">
      <Node Cut="0.163521439" IVar="5" NCoef="0" cType="1" depth="0" nType="0" pos="s" purity="0.0e+00" res="0.0e+00" rms="0.0e+00">
        <Node Cut="-0.159768686" IVar="5" NCoef="0" cType="1" depth="1" nType="0" pos="l" purity="0.0e+00" res="0.0e+00" rms="0.0e+00">
          <Node Cut="-0.516062975" IVar="1" NCoef="0" cType="1" depth="2" nType="0" pos="l" purity="0.0e+00" res="0.0e+00" rms="0.0e+00">
            <Node Cut="0.0e+00" IVar="-1" NCoef="0" cType="1" depth="3" nType="-99" pos="l" purity="0.0e+00" res="0.0378360562" rms="0.0e+00"/>
            <Node Cut="-0.0354940295" IVar="0" NCoef="0" cType="1" depth="3" nType="0" pos="r" purity="0.0e+00" res="0.0e+00" rms="0.0e+00">
              <Node Cut="0.0e+00" IVar="-1" NCoef="0" cType="1" depth="4" nType="-99" pos="l" purity="0.0e+00" res="-0.025626719" rms="0.0e+00"/>
              <Node Cut="0.0e+00" IVar="-1" NCoef="0" cType="1" depth="4" nType="-99" pos="r" purity="0.0e+00" res="0.00987180695" rms="0.0e+00"/>
            </Node>
          </Node>
          <Node Cut="-0.645426512" IVar="6" NCoef="0" cType="1" depth="2" nType="0" pos="r" purity="0.0e+00" res="0.0e+00" rms="0.0e+00">
            <Node Cut="0.0e+00" IVar="-1" NCoef="0" cType="1" depth="3" nType="-99" pos="l" purity="0.0e+00" res="-0.0538204089" rms="0.0e+00"/>
            <Node Cut="0.0e+00" IVar="-1" NCoef="0" cType="1" depth="3" nType="-99" pos="r" purity="0.0e+00" res="-0.0356964283" rms="0.0e+00"/>
          </Node>
        </Node>
        <Node Cut="-0.438061655" IVar="1" NCoef="0" cType="1" depth="1" nType="0" pos="r" purity="0.0e+00" res="0.0e+00" rms="0.0e+00">
          <Node Cut="0.0e+00" IVar="-1" NCoef="0" cType="1" depth="2" nType="-99" pos="l" purity="0.0e+00" res="0.0408760533" rms="0.0e+00"/>
          <Node Cut="0.0e+00" IVar="-1" NCoef="0" cType="1" depth="2" nType="-99" pos="r" purity="0.0e+00" res="-0.000494897075" rms="0.0e+00"/>
        </Node>
      </Node>
    </BinaryTree>
    <BinaryTree boostWeight="1.0e+00" itree="9" type="DecisionTree">
      <Node Cut="-0.257230431" IVar="1" NCoef="0" cType="1" depth="0" nType="0" pos="s" purity="0.0e+00" res="0.0e+00" rms="0.0e+00">
        <Node Cut="-0.650468946" IVar="6" NCoef="0" cType="1" depth="1" nType="0" pos="l" purity="0.0e+00" res="0.0e+00" rms="0.0e+00">
          <Node Cut="0.0e+00" IVar="-1" NCoef="0" cType="1" depth="2" nType="-99" pos="l" purity="0.0e+00" res="-0.0266608745" rms="0.0e+00"/>
          <Node Cut="-0.347087979" IVar="0" NCoef="0" cType="1" depth="2" nType="0" pos="r" purity="0.0e+00" res="0.0e+00" rms="0.0e+00">
            <Node Cut="-0.606470823" IVar="1" NCoef="0" cType="1" depth="3" nType="0" pos="l" purity="0.0e+00" res="0.0e+00" rms="0.0e+00">
              <Node Cut="-0.650550902" IVar="0" NCoef="0" cType="1" depth="4" nType="0" pos="l" purity="0.0e+00" res="0.0e+00" rms="0.0e+00">
                <Node Cut="0.0e+00" IVar="-1" NCoef="0" cType="1" depth="5" nType="-99" pos="l" purity="0.0e+00" res="0.00125849969" rms="0.0e+00"/>
                <Node Cut="0.0e+00" IVar="-1" NCoef="0" cType="1" depth="5" nType="-99" pos="r" purity="0.0e+00" res="0.0320788324" rms="0.0e+00"/>
              </Node>
              <Node Cut="0.0e+00" IVar="-1" NCoef="0" cType="1" depth="4" nType="-99" pos="r" purity="0.0e+00" res="-0.00726540387" rms="0.0e+00"/>
            </Node>
            <Node Cut="0.0e+00" IVar="-1" NCoef="0" cType="1" depth="3" nType="-99" pos="r" purity="0.0e+00" res="0.0413071327" rms="0.0e+00"/>
          </Node>
        </Node>
        <Node Cut="-0.0379566662" IVar="0" NCoef="0" cType="1" depth="1" nType="0" pos="r" purity="0.0e+00" res="0.0e+00" rms="0.0e+00">
          <Node Cut="0.0e+00" IVar="-1" NCoef="0" cType="1" depth="2" nType="-99" pos="l" purity="0.0e+00" res="-0.0393388011" rms="0.0e+00"/>
          <Node Cut="0.0e+00" IVar="-1" NCoef="0" cType="1" depth="2" nType="-99" pos="r" purity="0.0e+00" res="-0.0127715841" rms="0.0e+00"/>
        </Node>
      </Node>
    </BinaryTree>
    <BinaryTree boostWeight="1.0e+00" itree="10" type="DecisionTree">
      <Node Cut="0.145402223" IVar="5" NCoef="0" cType="1" depth="0" nType="0" pos="s" purity="0.0e+00" res="0.0e+00" rms="0.0e+00">
        <Node Cut="-0.141681805" IVar="5" NCoef="0" cType="1" depth="1" nType="0" pos="l" purity="0.0e+00" res="0.0e+00" rms="0.0e+00">
          <Node Cut="-0.344958961" IVar="1" NCoef="0" cType="1" depth="2" nType="0" pos="l" purity="0.0e+00" res="0.0e+00" rms="0.0e+00">
            <Node Cut="0.0e+00" IVar="-1" NCoef="0" cType="1" depth="3" nType="-99" pos="l" purity="0.0e+00" res="0.0248853713" rms="0.0e+00"/>
            <Node Cut="0.0e+00" IVar="-1" NCoef="0" cType="1" depth="3" nType="-99" pos="r" purity="0.0e+00" res="-0.021519335" rms="0.0e+00"/>
          </Node>
          <Node Cut="0.0e+00" IVar="-1" NCoef="0" cType="1" depth="2" nType="-99" pos="r" purity="0.0e+00" res="-0.0454842672" rms="0.0e+00"/>
        </Node>
        <Node Cut="-0.367705554" IVar="1" NCoef="0" cType="1" depth="1" nType="0" pos="r" purity="0.0e+00" res="0.0e+00" rms="0.0e+00">
          <Node Cut="-0.305609792" IVar="6" NCoef="0" cType="1" depth="2" nType="0" pos="l" purity="0.0e+00" res="0.0e+00" rms="0.0e+00">
            <Node Cut="0.0e+00" IVar="-1" NCoef="0" cType="1" depth="3" nType="-99" pos="l" purity="0.0e+00" res="0.0520641021" rms="0.0e+00"/>
            <Node Cut="0.0e+00" IVar="-1" NCoef="0" cType="1" depth="3" nType="-99" pos="r" purity="0.0e+00" res="0.0265167151" rms="0.0e+00"/>
          </Node>
          <Node Cut="0.0e+00" IVar="-1" NCoef="0" cType="1" depth="2" nType="-99" pos="r" purity="0.0e+00" res="-0.00485671079" rms="0.0e+00"/>
        </Node>
      </Node>
    </BinaryTree>
    <BinaryTree boostWeight="1.0e+00" itree="11" type="DecisionTree">
      <Node Cut="0.163520843" IVar="5" NCoef="0" cType="1" depth="0" nType="0" pos="s" purity="0.0e+00" res="0.0e+00" rms="0.0e+00">
        <Node Cut="-0.134810418" IVar="5" NCoef="0" cType="1" depth="1" nType="0" pos="l" purity="0.0e+00" res="0.0e+00" rms="0.0e+00">
          <Node Cut="-0.0837180167" IVar="1" NCoef="0" cType="1" depth="2" nType="0" pos="l" purity="0.0e+00" res="0.0e+00" rms="0.0e+00">
            <Node Cut="-0.522072911" IVar="0" NCoef="0" cType="1" depth="3" nType="0" pos="l" purity="0.0e+00" res="0.0e+00" rms="0.0e+00">
              <Node Cut="0.0e+00" IVar="-1" NCoef="0" cType="1" depth="4" nType="-99" pos="l" purity="0.0e+00" res="0.0089249881" rms="0.0e+00"/>
              <Node Cut="0.0e+00" IVar="-1" NCoef="0" cType="1" depth="4" nType="-99" pos="r" purity="0.0e+00" res="0.0312072616" rms="0.0e+00"/>
            </Node>
            <Node Cut="0.0e+00" IVar="-1" NCoef="0" cType="1" depth="3" nType="-99" pos="r" purity="0.0e+00" res="-0.0165133644" rms="0.0e+00"/>
          </Node>
          <Node Cut="0.0e+00" IVar="-1" NCoef="0" cType="1" depth="2" nType="-99" pos="r" purity="0.0e+00" res="-0.0430201627" rms="0.0e+00"/>
        </Node>
        <Node Cut="-0.227850944" IVar="1" NCoef="0" cType="1" depth="1" nType="0" pos="r" purity="0.0e+00" res="0.0e+00" rms="0.0e+00">
          <Node Cut="-0.477836907" IVar="0" NCoef="0" cType="1" depth="2" nType="0" pos="l" purity="0.0e+00" res="0.0e+00" rms="0.0e+00">
            <Node Cut="0.0e+00" IVar="-1" NCoef="0" cType="1" depth="3" nType="-99" pos="l" purity="0.0e+00" res="0.0187068339" rms="0.0e+00"/>
            <Node Cut="0.0e+00" IVar="-1" NCoef="0" cType="1" depth="3" nType="-99" pos="r" purity="0.0e+00" res="0.042551443" rms="0.0e+00"/>
          </Node>
          <Node Cut="0.0e+00" IVar="-1" NCoef="0" cType="1" depth="2" nType="-99" pos="r" purity="0.0e+00" res="-0.0129217459" rms="0.0e+00"/>
        </Node>
      </Node>
    </BinaryTree>
    <BinaryTree boostWeight="1.0e+00" itree="12" type="DecisionTree">
      <Node Cut="-0.132592365" IVar="1" NCoef="0" cType="1" depth="0" nType="0" pos="s" purity="0.0e+00" res="0.0e+00" rms="0.0e+00">
        <Node Cut="0.151486695" IVar="5" NCoef="0" cType="1" depth="1" nType="0" pos="l" purity="0.0e+00" res="0.0e+00" rms="0.0e+00">
          <Node Cut="-0.131009102" IVar="5" NCoef="0" cType="1" depth="2" nType="0" pos="l" purity="0.0e+00" res="0.0e+00" rms="0.0e+00">
            <Node Cut="-0.303501427" IVar="6" NCoef="0" cType="1" depth="3" nType="0" pos="l" purity="0.0e+00" res="0.0e+00" rms="0.0e+00">
              <Node Cut="0.0e+00" IVar="-1" NCoef="0" cType="1" depth="4" nType="-99" pos="l" purity="0.0e+00" res="0.0319428891" rms="0.0e+00"/>
              <Node Cut="0.0e+00" IVar="-1" NCoef="0" cType="1" depth="4" nType="-99" pos="r" purity="0.0e+00" res="0.0107878521" rms="0.0e+00"/>
            </Node>
            <Node Cut="0.0e+00" IVar="-1" NCoef="0" cType="1" depth="3" nType="-99" pos="r" purity="0.0e+00" res="-0.0419148207" rms="0.0e+00"/>
          </Node>
          <Node Cut="-0.653636336" IVar="1" NCoef="0" cType="1" depth="2" nType="0" pos="r" purity="0.0e+00" res="0.0e+00" rms="0.0e+00">
            <Node Cut="0.0e+00" IVar="-1" NCoef="0" cType="1" depth="3" nType="-99" pos="l" purity="0.0e+00" res="0.0422118269" rms="0.0e+00"/>
            <Node Cut="0.0e+00" IVar="-1" NCoef="0" cType="1" depth="3" nType="-99" pos="r" purity="0.0e+00" res="0.0180242863" rms="0.0e+00"/>
          </Node>
        </Node>
        <Node Cut="0.528930724" IVar="0" NCoef="0" cType="1" depth="1" nType="0" pos="r" purity="0.0e+00" res="0.0e+00" rms="0.0e+00">
          <Node Cut="0.0e+00" IVar="-1" NCoef="0" cType="1" depth="2" nType="-99" pos="l" purity="0.0e+00" res="-0.0349639393" rms="0.0e+00"/>
          <Node Cut="0.0e+00" IVar="-1" NCoef="0" cType="1" depth="2" nType="-99" pos="r" purity="0.0e+00" res="0.00722616119" rms="0.0e+00"/>
        </Node>
      </Node>
    </BinaryTree>
    <BinaryTree boostWeight="1.0e+00" itree="13" type="DecisionTree">
      <Node Cut="0.0649369955" IVar="1" NCoef="0" cType="1" depth="0" nType="0" pos="s" purity="0.0e+00" res="0.0e+00" rms="0.0e+00">
        <Node Cut="0.18100746" IVar="5" NCoef="0" cType="1" depth="1" nType="0" pos="l" purity="0.0e+00" res="0.0e+00" rms="0.0e+00">
          <Node Cut="-0.202621132" IVar="5" NCoef="0" cType="1" depth="2" nType="0" pos="l" purity="0.0e+00" res="0.0e+00" rms="0.0e+00">
            <Node Cut="-0.516915798" IVar="1" NCoef="0" cType="1" depth="3" nType="0" pos="l" purity="0.0e+00" res="0.0e+00" rms="0.0e+00">
              <Node Cut="0.0e+00" IVar="-1" NCoef="0" cType="1" depth="4" nType="-99" pos="l" purity="0.0e+00" res="0.0297246184" rms="0.0e+00"/>
              <Node Cut="0.0e+00" IVar="-1" NCoef="0" cType="1" depth="4" nType="-99" pos="r" purity="0.0e+00" res="0.00227304432" rms="0.0e+00"/>
            </Node>
            <Node Cut="0.0e+00" IVar="-1" NCoef="0" cType="1" depth="3" nType="-99" pos="r" purity="0.0e+00" res="-0.0375158899" rms="0.0e+00"/>
          </Node>
          <Node Cut="-0.226489022" IVar="4" NCoef="0" cType="1" depth="2" nType="0" pos="r" purity="0.0e+00" res="0.0e+00" rms="0.0e+00">
            <Node Cut="0.0e+00" IVar="-1" NCoef="0" cType="1" depth="3" nType="-99" pos="l" purity="0.0e+00" res="0.00418066513" rms="0.0e+00"/>
            <Node Cut="0.0e+00" IVar="-1" NCoef="0" cType="1" depth="3" nType="-99" pos="r" purity="0.0e+00" res="0.0309945326" rms="0.0e+00"/>
          </Node>
        </Node>
        <Node Cut="0.0e+00" IVar="-1" NCoef="0" cType="1" depth="1" nType="-99" pos="r" purity="0.0e+00" res="-0.0229972433" rms="0.0e+00"/>
      </Node>
    </BinaryTree>
    <BinaryTree boostWeight="1.0e+00" itree="14" type="DecisionTree">
      <Node Cut="-0.136826366" IVar="1" NCoef="0" cType="1" depth="0" nType="0" pos="s" purity="0.0e+00" res="0.0e+00" rms="0.0e+00">
        <Node Cut="-0.173873395" IVar="0" NCoef="0" cType="1" depth="1" nType="0" pos="l" purity="0.0e+00" res="0.0e+00" rms="0.0e+00">
          <Node Cut="-0.197228521" IVar="5" NCoef="0" cType="1" depth="2" nType="0" pos="l" purity="0.0e+00" res="0.0e+00" rms="0.0e+00">
            <Node Cut="0.0e+00" IVar="-1" NCoef="0" cType="1" depth="3" nType="-99" pos="l" purity="0.0e+00" res="0.0132112643" rms="0.0e+00"/>
            <Node Cut="0.148203969" IVar="5" NCoef="0" cType="1" depth="3" nType="0" pos="r" purity="0.0e+00" res="0.0e+00" rms="0.0e+00">
              <Node Cut="0.0e+00" IVar="-1" NCoef="0" cType="1" depth="4" nType="-99" pos="l" purity="0.0e+00" res="-0.0399442017" rms="0.0e+00"/>
              <Node Cut="0.0e+00" IVar="-1" NCoef="0" cType="1" depth="4" nType="-99" pos="r" purity="0.0e+00" res="0.0101847006" rms="0.0e+00"/>
            </Node>
          </Node>
          <Node Cut="0.0e+00" IVar="-1" NCoef="0" cType="1" depth="2" nType="-99" pos="r" purity="0.0e+00" res="0.0326245464" rms="0.0e+00"/>
        </Node>
        <Node Cut="0.1380831" IVar="0" NCoef="0" cType="1" depth="1" nType="0" pos="r" purity="0.0e+00" res="0.0e+00" rms="0.0e+00">
          <Node Cut="0.0e+00" IVar="-1" NCoef="0" cType="1" depth="2" nType="-99" pos="l" purity="0.0e+00" res="-0.0410760827" rms="0.0e+00"/>
          <Node Cut="0.0e+00" IVar="-1" NCoef="0" cType="1" depth="2" nType="-99" pos="r" purity="0.0e+00" res="0.000699925295" rms="0.0e+00"/>
        </Node>
      </Node>
    </BinaryTree>
    <BinaryTree boostWeight="1.0e+00" itree="15" type="DecisionTree">
      <Node Cut="-0.14052619" IVar="2" NCoef="0" cType="1" depth="0" nType="0" pos="s" purity="0.0e+00" res="0.0e+00" rms="0.0e+00">
        <Node Cut="0.0e+00" IVar="-1" NCoef="0" cType="1" depth="1" nType="-99" pos="l" purity="0.0e+00" res="-0.0245342627" rms="0.0e+00"/>
        <Node Cut="-0.0150522273" IVar="1" NCoef="0" cType="1" depth="1" nType="0" pos="r" purity="0.0e+00" res="0.0e+00" rms="0.0e+00">
          <Node Cut="-0.126782939" IVar="0" NCoef="0" cType="1" depth="2" nType="0" pos="l" purity="0.0e+00" res="0.0e+00" rms="0.0e+00">
            <Node Cut="-0.516062975" IVar="1" NCoef="0" cType="1" depth="3" nType="0" pos="l" purity="0.0e+00" res="0.0e+00" rms="0.0e+00">
              <Node Cut="-0.550921559" IVar="0" NCoef="0" cType="1" depth="4" nType="0" pos="l" purity="0.0e+00" res="0.0e+00" rms="0.0e+00">
                <Node Cut="0.0e+00" IVar="-1" NCoef="0" cType="1" depth="5" nType="-99" pos="l" purity="0.0e+00" res="-0.00331904227" rms="0.0e+00"/>
                <Node Cut="0.0e+00" IVar="-1" NCoef="0" cType="1" depth="5" nType="-99" pos="r" purity="0.0e+00" res="0.0265597738" rms="0.0e+00"/>
              </Node>
              <Node Cut="0.0e+00" IVar="-1" NCoef="0" cType="1" depth="4" nType="-99" pos="r" purity="0.0e+00" res="-0.0138242021" rms="0.0e+00"/>
            </Node>
            <Node Cut="0.0e+00" IVar="-1" NCoef="0" cType="1" depth="3" nType="-99" pos="r" purity="0.0e+00" res="0.0357808433" rms="0.0e+00"/>
          </Node>
          <Node Cut="0.0e+00" IVar="-1" NCoef="0" cType="1" depth="2" nType="-99" pos="r" purity="0.0e+00" res="-0.0139367012" rms="0.0e+00"/>
        </Node>
      </Node>
    </BinaryTree>
    <BinaryTree boostWeight="1.0e+00" itree="16" type="DecisionTree">
      <Node Cut="0.151509434" IVar="5" NCoef="0" cType="1" depth="0" nType="0" pos="s" purity="0.0e+00" res="0.0e+00" rms="0.0e+00">
        <Node Cut="-0.131943107" IVar="5" NCoef="0" cType="1" depth="1" nType="0" pos="l" purity="0.0e+00" res="0.0e+00" rms="0.0e+00">
          <Node Cut="-0.247314513" IVar="1" NCoef="0" cType="1" depth="2" nType="0" pos="l" purity="0.0e+00" res="0.0e+00" rms="0.0e+00">
            <Node Cut="0.0192029197" IVar="7" NCoef="0" cType="1" depth="3" nType="0" pos="l" purity="0.0e+00" res="0.0e+00" rms="0.0e+00">
              <Node Cut="0.0e+00" IVar="-1" NCoef="0" cType="1" depth="4" nType="-99" pos="l" purity="0.0e+00" res="0.0319667906" rms="0.0e+00"/>
              <Node Cut="0.0e+00" IVar="-1" NCoef="0" cType="1" depth="4" nType="-99" pos="r" purity="0.0e+00" res="0.00374416611" rms="0.0e+00"/>
            </Node>
            <Node Cut="0.0e+00" IVar="-1" NCoef="0" cType="1" depth="3" nType="-99" pos="r" purity="0.0e+00" res="-0.0118052205" rms="0.0e+00"/>
          </Node>
          <Node Cut="0.0e+00" IVar="-1" NCoef="0" cType="1" depth="2" nType="-99" pos="r" purity="0.0e+00" res="-0.0369614474" rms="0.0e+00"/>
        </Node>
        <Node Cut="-0.653636336" IVar="1" NCoef="0" cType="1" depth="1" nType="0" pos="r" purity="0.0e+00" res="0.0e+00" rms="0.0e+00">
          <Node Cut="0.0e+00" IVar="-1" NCoef="0" cType="1" depth="2" nType="-99" pos="l" purity="0.0e+00" res="0.0352261029" rms="0.0e+00"/>
          <Node Cut="-0.251400471" IVar="0" NCoef="0" cType="1" depth="2" nType="0" pos="r" purity="0.0e+00" res="0.0e+00" rms="0.0e+00">
            <Node Cut="0.0e+00" IVar="-1" NCoef="0" cType="1" depth="3" nType="-99" pos="l" purity="0.0e+00" res="-0.0125947567" rms="0.0e+00"/>
            <Node Cut="0.0e+00" IVar="-1" NCoef="0" cType="1" depth="3" nType="-99" pos="r" purity="0.0e+00" res="0.0165378135" rms="0.0e+00"/>
          </Node>
        </Node>
      </Node>
    </BinaryTree>
    <BinaryTree boostWeight="1.0e+00" itree="17" type="DecisionTree">
      <Node Cut="-0.206513777" IVar="1" NCoef="0" cType="1" depth="0" nType="0" pos="s" purity="0.0e+00" res="0.0e+00" rms="0.0e+00">
        <Node Cut="-0.263463199" IVar="0" NCoef="0" cType="1" depth="1" nType="0" pos="l" purity="0.0e+00" res="0.0e+00" rms="0.0e+00">
          <Node Cut="-0.531226516" IVar="1" NCoef="0" cType="1" depth="2" nType="0" pos="l" purity="0.0e+00" res="0.0e+00" rms="0.0e+00">
            <Node Cut="0.214720666" IVar="5" NCoef="0" cType="1" depth="3" nType="0" pos="l" purity="0.0e+00" res="0.0e+00" rms="0.0e+00">
              <Node Cut="-0.159773767" IVar="5" NCoef="0" cType="1" depth="4" nType="0" pos="l" purity="0.0e+00" res="0.0e+00" rms="0.0e+00">
                <Node Cut="0.0e+00" IVar="-1" NCoef="0" cType="1" depth="5" nType="-99" pos="l" purity="0.0e+00" res="0.0225313995" rms="0.0e+00"/>
                <Node Cut="0.0e+00" IVar="-1" NCoef="0" cType="1" depth="5" nType="-99" pos="r" purity="0.0e+00" res="-0.033729028" rms="0.0e+00"/>
              </Node>
              <Node Cut="0.0e+00" IVar="-1" NCoef="0" cType="1" depth="4" nType="-99" pos="r" purity="0.0e+00" res="0.024774259" rms="0.0e+00"/>
            </Node>
            <Node Cut="0.0e+00" IVar="-1" NCoef="0" cType="1" depth="3" nType="-99" pos="r" purity="0.0e+00" res="-0.0215809382" rms="0.0e+00"/>
          </Node>
          <Node Cut="0.0e+00" IVar="-1" NCoef="0" cType="1" depth="2" nType="-99" pos="r" purity="0.0e+00" res="0.0256298911" rms="0.0e+00"/>
        </Node>
        <Node Cut="0.33694458" IVar="0" NCoef="0" cType="1" depth="1" nType="0" pos="r" purity="0.0e+00" res="0.0e+00" rms="0.0e+00">
          <Node Cut="0.0e+00" IVar="-1" NCoef="0" cType="1" depth="2" nType="-99" pos="l" purity="0.0e+00" res="-0.0342569537" rms="0.0e+00"/>
          <Node Cut="0.0e+00" IVar="-1" NCoef="0" cType="1" depth="2" nType="-99" pos="r" purity="0.0e+00" res="0.0096551897" rms="0.0e+00"/>
        </Node>
      </Node>
    </BinaryTree>
    <BinaryTree boostWeight="1.0e+00" itree="18" type="DecisionTree">
      <Node Cut="0.168937877" IVar="5" NCoef="0" cType="1" depth="0" nType="0" pos="s" purity="0.0e+00" res="0.0e+00" rms="0.0e+00">
        <Node Cut="-0.18040362" IVar="5" NCoef="0" cType="1" depth="1" nType="0" pos="l" purity="0.0e+00" res="0.0e+00" rms="0.0e+00">
          <Node Cut="-0.410323203" IVar="1" NCoef="0" cType="1" depth="2" nType="0" pos="l" purity="0.0e+00" res="0.0e+00" rms="0.0e+00">
            <Node Cut="0.0e+00" IVar="-1" NCoef="0" cType="1" depth="3" nType="-99" pos="l" purity="0.0e+00" res="0.0135111576" rms="0.0e+00"/>
            <Node Cut="0.0e+00" IVar="-1" NCoef="0" cType="1" depth="3" nType="-99" pos="r" purity="0.0e+00" res="-0.00772250909" rms="0.0e+00"/>
          </Node>
          <Node Cut="0.0e+00" IVar="-1" NCoef="0" cType="1" depth="2" nType="-99" pos="r" purity="0.0e+00" res="-0.0336023159" rms="0.0e+00"/>
        </Node>
        <Node Cut="-0.331219226" IVar="1" NCoef="0" cType="1" depth="1" nType="0" pos="r" purity="0.0e+00" res="0.0e+00" rms="0.0e+00">
          <Node Cut="-0.484899879" IVar="0" NCoef="0" cType="1" depth="2" nType="0" pos="l" purity="0.0e+00" res="0.0e+00" rms="0.0e+00">
            <Node Cut="0.0e+00" IVar="-1" NCoef="0" cType="1" depth="3" nType="-99" pos="l" purity="0.0e+00" res="0.00662332913" rms="0.0e+00"/>
            <Node Cut="0.0e+00" IVar="-1" NCoef="0" cType="1" depth="3" nType="-99" pos="r" purity="0.0e+00" res="0.0314999036" rms="0.0e+00"/>
          </Node>
          <Node Cut="0.0e+00" IVar="-1" NCoef="0" cType="1" depth="2" nType="-99" pos="r" purity="0.0e+00" res="-0.00682230759" rms="0.0e+00"/>
        </Node>
      </Node>
    </BinaryTree>
    <BinaryTree boostWeight="1.0e+00" itree="19" type="DecisionTree">
      <Node Cut="0.347498834" IVar="1" NCoef="0" cType="1" depth="0" nType="0" pos="s" purity="0.0e+00" res="0.0e+00" rms="0.0e+00">
        <Node Cut="0.00358355744" IVar="0" NCoef="0" cType="1" depth="1" nType="0" pos="l" purity="0.0e+00" res="0.0e+00" rms="0.0e+00">
          <Node Cut="-0.325991213" IVar="1" NCoef="0" cType="1" depth="2" nType="0" pos="l" purity="0.0e+00" res="0.0e+00" rms="0.0e+00">
            <Node Cut="0.113497972" IVar="5" NCoef="0" cType="1" depth="3" nType="0" pos="l" purity="0.0e+00" res="0.0e+00" rms="0.0e+00">
              <Node Cut="-0.188291028" IVar="5" NCoef="0" cType="1" depth="4" nType="0" pos="l" purity="0.0e+00" res="0.0e+00" rms="0.0e+00">
                <Node Cut="0.0e+00" IVar="-1" NCoef="0" cType="1" depth="5" nType="-99" pos="l" purity="0.0e+00" res="0.0118401134" rms="0.0e+00"/>
                <Node Cut="0.0e+00" IVar="-1" NCoef="0" cType="1" depth="5" nType="-99" pos="r" purity="0.0e+00" res="-0.0364629328" rms="0.0e+00"/>
              </Node>
              <Node Cut="0.0453338176" IVar="7" NCoef="0" cType="1" depth="4" nType="0" pos="r" purity="0.0e+00" res="0.0e+00" rms="0.0e+00">
                <Node Cut="0.0e+00" IVar="-1" NCoef="0" cType="1" depth="5" nType="-99" pos="l" purity="0.0e+00" res="0.00118940172" rms="0.0e+00"/>
                <Node Cut="0.0e+00" IVar="-1" NCoef="0" cType="1" depth="5" nType="-99" pos="r" purity="0.0e+00" res="0.0280267149" rms="0.0e+00"/>
              </Node>
            </Node>
            <Node Cut="0.0e+00" IVar="-1" NCoef="0" cType="1" depth="3" nType="-99" pos="r" purity="0.0e+00" res="-0.0228776354" rms="0.0e+00"/>
          </Node>
          <Node Cut="0.0e+00" IVar="-1" NCoef="0" cType="1" depth="2" nType="-99" pos="r" purity="0.0e+00" res="0.0231821593" rms="0.0e+00"/>
        </Node>
        <Node Cut="0.0e+00" IVar="-1" NCoef="0" cType="1" depth="1" nType="-99" pos="r" purity="0.0e+00" res="-0.0231195707" rms="0.0e+00"/>
      </Node>
    </BinaryTree>
    <BinaryTree boostWeight="1.0e+00" itree="20" type="DecisionTree">
      <Node Cut="0.0870928019" IVar="1" NCoef="0" cType="1" depth="0" nType="0" pos="s" purity="0.0e+00" res="0.0e+00" rms="0.0e+00">
        <Node Cut="-0.123722762" IVar="0" NCoef="0" cType="1" depth="1" nType="0" pos="l" purity="0.0e+00" res="0.0e+00" rms="0.0e+00">
          <Node Cut="-0.484709829" IVar="1" NCoef="0" cType="1" depth="2" nType="0" pos="l" purity="0.0e+00" res="0.0e+00" rms="0.0e+00">
            <Node Cut="0.166799426" IVar="5" NCoef="0" cType="1" depth="3" nType="0" pos="l" purity="0.0e+00" res="0.0e+00" rms="0.0e+00">
              <Node Cut="-0.177816302" IVar="5" NCoef="0" cType="1" depth="4" nType="0" pos="l" purity="0.0e+00" res="0.0e+00" rms="0.0e+00">
                <Node Cut="0.0e+00" IVar="-1" NCoef="0" cType="1" depth="5" nType="-99" pos="l" purity="0.0e+00" res="0.0219894312" rms="0.0e+00"/>
                <Node Cut="0.0e+00" IVar="-1" NCoef="0" cType="1" depth="5" nType="-99" pos="r" purity="0.0e+00" res="-0.0292137899" rms="0.0e+00"/>
              </Node>
              <Node Cut="0.0e+00" IVar="-1" NCoef="0" cType="1" depth="4" nType="-99" pos="r" purity="0.0e+00" res="0.0228081979" rms="0.0e+00"/>
            </Node>
            <Node Cut="0.0e+00" IVar="-1" NCoef="0" cType="1" depth="3" nType="-99" pos="r" purity="0.0e+00" res="-0.0193945076" rms="0.0e+00"/>
          </Node>
          <Node Cut="0.0e+00" IVar="-1" NCoef="0" cType="1" depth="2" nType="-99" pos="r" purity="0.0e+00" res="0.0279296245" rms="0.0e+00"/>
        </Node>
        <Node Cut="0.0e+00" IVar="-1" NCoef="0" cType="1" depth="1" nType="-99" pos="r" purity="0.0e+00" res="-0.0147340642" rms="0.0e+00"/>
      </Node>
    </BinaryTree>
    <BinaryTree boostWeight="1.0e+00" itree="21" type="DecisionTree">
      <Node Cut="-0.187134922" IVar="1" NCoef="0" cType="1" depth="0" nType="0" pos="s" purity="0.0e+00" res="0.0e+00" rms="0.0e+00">
        <Node Cut="-0.522200406" IVar="0" NCoef="0" cType="1" depth="1" nType="0" pos="l" purity="0.0e+00" res="0.0e+00" rms="0.0e+00">
          <Node Cut="-0.720617175" IVar="1" NCoef="0" cType="1" depth="2" nType="0" pos="l" purity="0.0e+00" res="0.0e+00" rms="0.0e+00">
            <Node Cut="0.0e+00" IVar="-1" NCoef="0" cType="1" depth="3" nType="-99" pos="l" purity="0.0e+00" res="0.00340032578" rms="0.0e+00"/>
            <Node Cut="0.0e+00" IVar="-1" NCoef="0" cType="1" depth="3" nType="-99" pos="r" purity="0.0e+00" res="-0.0194214191" rms="0.0e+00"/>
          </Node>
          <Node Cut="-0.0953877643" IVar="2" NCoef="0" cType="1" depth="2" nType="0" pos="r" purity="0.0e+00" res="0.0e+00" rms="0.0e+00">
            <Node Cut="0.0e+00" IVar="-1" NCoef="0" cType="1" depth="3" nType="-99" pos="l" purity="0.0e+00" res="-4.12026839e-06" rms="0.0e+00"/>
            <Node Cut="0.0e+00" IVar="-1" NCoef="0" cType="1" depth="3" nType="-99" pos="r" purity="0.0e+00" res="0.024476463" rms="0.0e+00"/>
          </Node>
        </Node>
        <Node Cut="0.451536477" IVar="0" NCoef="0" cType="1" depth="1" nType="0" pos="r" purity="0.0e+00" res="0.0e+00" rms="0.0e+00">
          <Node Cut="0.0e+00" IVar="-1" NCoef="0" cType="1" depth="2" nType="-99" pos="l" purity="0.0e+00" res="-0.029253453" rms="0.0e+00"/>
          <Node Cut="0.0e+00" IVar="-1" NCoef="0" cType="1" depth="2" nType="-99" pos="r" purity="0.0e+00" res="0.00845416263" rms="0.0e+00"/>
        </Node>
      </Node>
    </BinaryTree>
    <BinaryTree boostWeight="1.0e+00" itree="22" type="DecisionTree">
      <Node Cut="-0.0110932253" IVar="1" NCoef="0" cType="1" depth="0" nType="0" pos="s" purity="0.0e+00" res="0.0e+00" rms="0.0e+00">
        <Node Cut="0.130849838" IVar="5" NCoef="0" cType="1" depth="1" nType="0" pos="l" purity="0.0e+00" res="0.0e+00" rms="0.0e+00">
          <Node Cut="-0.131938517" IVar="5" NCoef="0" cType="1" depth="2" nType="0" pos="l" purity="0.0e+00" res="0.0e+00" rms="0.0e+00">
            <Node Cut="0.0582324602" IVar="7" NCoef="0" cType="1" depth="3" nType="0" pos="l" purity="0.0e+00" res="0.0e+00" rms="0.0e+00">
              <Node Cut="0.0e+00" IVar="-1" NCoef="0" cType="1" depth="4" nType="-99" pos="l" purity="0.0e+00" res="0.0154935541" rms="0.0e+00"/>
              <Node Cut="0.0e+00" IVar="-1" NCoef="0" cType="1" depth="4" nType="-99" pos="r" purity="0.0e+00" res="-0.000979545992" rms="0.0e+00"/>
            </Node>
            <Node Cut="0.0e+00" IVar="-1" NCoef="0" cType="1" depth="3" nType="-99" pos="r" purity="0.0e+00" res="-0.0282455385" rms="0.0e+00"/>
          </Node>
          <Node Cut="-0.312367767" IVar="6" NCoef="0" cType="1" depth="2" nType="0" pos="r" purity="0.0e+00" res="0.0e+00" rms="0.0e+00">
            <Node Cut="0.0e+00" IVar="-1" NCoef="0" cType="1" depth="3" nType="-99" pos="l" purity="0.0e+00" res="0.0298426189" rms="0.0e+00"/>
            <Node Cut="0.0e+00" IVar="-1" NCoef="0" cType="1" depth="3" nType="-99" pos="r" purity="0.0e+00" res="0.00906046014" rms="0.0e+00"/>
          </Node>
        </Node>
        <Node Cut="0.0e+00" IVar="-1" NCoef="0" cType="1" depth="1" nType="-99" pos="r" purity="0.0e+00" res="-0.01374391" rms="0.0e+00"/>
      </Node>
    </BinaryTree>
    <BinaryTree boostWeight="1.0e+00" itree="23" type="DecisionTree">
      <Node Cut="-0.0126891751" IVar="1" NCoef="0" cType="1" depth="0" nType="0" pos="s" purity="0.0e+00" res="0.0e+00" rms="0.0e+00">
        <Node Cut="-0.098736003" IVar="0" NCoef="0" cType="1" depth="1" nType="0" pos="l" purity="0.0e+00" res="0.0e+00" rms="0.0e+00">
          <Node Cut="-0.43781364" IVar="1" NCoef="0" cType="1" depth="2" nType="0" pos="l" purity="0.0e+00" res="0.0e+00" rms="0.0e+00">
            <Node Cut="-0.631526887" IVar="0" NCoef="0" cType="1" depth="3" nType="0" pos="l" purity="0.0e+00" res="0.0e+00" rms="0.0e+00">
              <Node Cut="0.0e+00" IVar="-1" NCoef="0" cType="1" depth="4" nType="-99" pos="l" purity="0.0e+00" res="-0.00948697422" rms="0.0e+00"/>
              <Node Cut="0.171318084" IVar="5" NCoef="0" cType="1" depth="4" nType="0" pos="r" purity="0.0e+00" res="0.0e+00" rms="0.0e+00">
                <Node Cut="0.0e+00" IVar="-1" NCoef="0" cType="1" depth="5" nType="-99" pos="l" purity="0.0e+00" res="0.00312332809" rms="0.0e+00"/>
                <Node Cut="0.0e+00" IVar="-1" NCoef="0" cType="1" depth="5" nType="-99" pos="r" purity="0.0e+00" res="0.02239573" rms="0.0e+00"/>
              </Node>
            </Node>
            <Node Cut="0.0e+00" IVar="-1" NCoef="0" cType="1" depth="3" nType="-99" pos="r" purity="0.0e+00" res="-0.0173013937" rms="0.0e+00"/>
          </Node>
          <Node Cut="0.0e+00" IVar="-1" NCoef="0" cType="1" depth="2" nType="-99" pos="r" purity="0.0e+00" res="0.0280296039" rms="0.0e+00"/>
        </Node>
        <Node Cut="0.0e+00" IVar="-1" NCoef="0" cType="1" depth="1" nType="-99" pos="r" purity="0.0e+00" res="-0.0133281602" rms="0.0e+00"/>
      </Node>
    </BinaryTree>
    <BinaryTree boostWeight="1.0e+00" itree="24" type="DecisionTree">
      <Node Cut="-0.206514359" IVar="1" NCoef="0" cType="1" depth="0" nType="0" pos="s" purity="0.0e+00" res="0.0e+00" rms="0.0e+00">
        <Node Cut="-0.574574709" IVar="0" NCoef="0" cType="1" depth="1" nType="0" pos="l" purity="0.0e+00" res="0.0e+00" rms="0.0e+00">
          <Node Cut="-0.780190647" IVar="1" NCoef="0" cType="1" depth="2" nType="0" pos="l" purity="0.0e+00" res="0.0e+00" rms="0.0e+00">
            <Node Cut="0.0e+00" IVar="-1" NCoef="0" cType="1" depth="3" nType="-99" pos="l" purity="0.0e+00" res="0.0121267112" rms="0.0e+00"/>
            <Node Cut="0.0e+00" IVar="-1" NCoef="0" cType="1" depth="3" nType="-99" pos="r" purity="0.0e+00" res="-0.0139148552" rms="0.0e+00"/>
          </Node>
          <Node Cut="-0.0908337981" IVar="2" NCoef="0" cType="1" depth="2" nType="0" pos="r" purity="0.0e+00" res="0.0e+00" rms="0.0e+00">
            <Node Cut="0.0e+00" IVar="-1" NCoef="0" cType="1" depth="3" nType="-99" pos="l" purity="0.0e+00" res="0.00191206008" rms="0.0e+00"/>
            <Node Cut="-0.456190407" IVar="1" NCoef="0" cType="1" depth="3" nType="0" pos="r" purity="0.0e+00" res="0.0e+00" rms="0.0e+00">
              <Node Cut="0.0e+00" IVar="-1" NCoef="0" cType="1" depth="4" nType="-99" pos="l" purity="0.0e+00" res="0.0301255584" rms="0.0e+00"/>
              <Node Cut="0.0e+00" IVar="-1" NCoef="0" cType="1" depth="4" nType="-99" pos="r" purity="0.0e+00" res="0.0169349257" rms="0.0e+00"/>
            </Node>
          </Node>
        </Node>
        <Node Cut="0.43762061" IVar="0" NCoef="0" cType="1" depth="1" nType="0" pos="r" purity="0.0e+00" res="0.0e+00" rms="0.0e+00">
          <Node Cut="0.0e+00" IVar="-1" NCoef="0" cType="1" depth="2" nType="-99" pos="l" purity="0.0e+00" res="-0.0270601641" rms="0.0e+00"/>
          <Node Cut="0.0e+00" IVar="-1" NCoef="0" cType="1" depth="2" nType="-99" pos="r" purity="0.0e+00" res="0.0105305575" rms="0.0e+00"/>
        </Node>
      </Node>
    </BinaryTree>
    <BinaryTree boostWeight="1.0e+00" itree="25" type="DecisionTree">
      <Node Cut="0.130859926" IVar="5" NCoef="0" cType="1" depth="0" nType="0" pos="s" purity="0.0e+00" res="0.0e+00" rms="0.0e+00">
        <Node Cut="-0.125136286" IVar="5" NCoef="0" cType="1" depth="1" nType="0" pos="l" purity="0.0e+00" res="0.0e+00" rms="0.0e+00">
          <Node Cut="0.103403561" IVar="7" NCoef="0" cType="1" depth="2" nType="0" pos="l" purity="0.0e+00" res="0.0e+00" rms="0.0e+00">
            <Node Cut="-0.228857726" IVar="4" NCoef="0" cType="1" depth="3" nType="0" pos="l" purity="0.0e+00" res="0.0e+00" rms="0.0e+00">
              <Node Cut="0.0e+00" IVar="-1" NCoef="0" cType="1" depth="4" nType="-99" pos="l" purity="0.0e+00" res="0.0215343069" rms="0.0e+00"/>
              <Node Cut="0.0e+00" IVar="-1" NCoef="0" cType="1" depth="4" nType="-99" pos="r" purity="0.0e+00" res="0.00311766099" rms="0.0e+00"/>
            </Node>
            <Node Cut="0.0e+00" IVar="-1" NCoef="0" cType="1" depth="3" nType="-99" pos="r" purity="0.0e+00" res="-0.0127286008" rms="0.0e+00"/>
          </Node>
          <Node Cut="0.0e+00" IVar="-1" NCoef="0" cType="1" depth="2" nType="-99" pos="r" purity="0.0e+00" res="-0.0375063978" rms="0.0e+00"/>
        </Node>
        <Node Cut="0.497071743" IVar="5" NCoef="0" cType="1" depth="1" nType="0" pos="r" purity="0.0e+00" res="0.0e+00" rms="0.0e+00">
          <Node Cut="0.0e+00" IVar="-1" NCoef="0" cType="1" depth="2" nType="-99" pos="l" purity="0.0e+00" res="0.0290945601" rms="0.0e+00"/>
          <Node Cut="-0.167825893" IVar="0" NCoef="0" cType="1" depth="2" nType="0" pos="r" purity="0.0e+00" res="0.0e+00" rms="0.0e+00">
            <Node Cut="0.0e+00" IVar="-1" NCoef="0" cType="1" depth="3" nType="-99" pos="l" purity="0.0e+00" res="-0.00792704802" rms="0.0e+00"/>
            <Node Cut="0.0e+00" IVar="-1" NCoef="0" cType="1" depth="3" nType="-99" pos="r" purity="0.0e+00" res="0.0114084398" rms="0.0e+00"/>
          </Node>
        </Node>
      </Node>
    </BinaryTree>
    <BinaryTree boostWeight="1.0e+00" itree="26" type="DecisionTree">
      <Node Cut="0.0349010974" IVar="0" NCoef="0" cType="1" depth="0" nType="0" pos="s" purity="0.0e+00" res="0.0e+00" rms="0.0e+00">
        <Node Cut="-0.303682148" IVar="1" NCoef="0" cType="1" depth="1" nType="0" pos="l" purity="0.0e+00" res="0.0e+00" rms="0.0e+00">
          <Node Cut="-0.522188008" IVar="0" NCoef="0" cType="1" depth="2" nType="0" pos="l" purity="0.0e+00" res="0.0e+00" rms="0.0e+00">
            <Node Cut="-0.735321879" IVar="1" NCoef="0" cType="1" depth="3" nType="0" pos="l" purity="0.0e+00" res="0.0e+00" rms="0.0e+00">
              <Node Cut="0.0e+00" IVar="-1" NCoef="0" cType="1" depth="4" nType="-99" pos="l" purity="0.0e+00" res="0.00215192582" rms="0.0e+00"/>
              <Node Cut="0.0e+00" IVar="-1" NCoef="0" cType="1" depth="4" nType="-99" pos="r" purity="0.0e+00" res="-0.0203960072" rms="0.0e+00"/>
            </Node>
            <Node Cut="-0.0874284357" IVar="2" NCoef="0" cType="1" depth="3" nType="0" pos="r" purity="0.0e+00" res="0.0e+00" rms="0.0e+00">
              <Node Cut="0.0e+00" IVar="-1" NCoef="0" cType="1" depth="4" nType="-99" pos="l" purity="0.0e+00" res="-0.00241536763" rms="0.0e+00"/>
              <Node Cut="0.0e+00" IVar="-1" NCoef="0" cType="1" depth="4" nType="-99" pos="r" purity="0.0e+00" res="0.0249836128" rms="0.0e+00"/>
            </Node>
          </Node>
          <Node Cut="0.0e+00" IVar="-1" NCoef="0" cType="1" depth="2" nType="-99" pos="r" purity="0.0e+00" res="-0.0305209942" rms="0.0e+00"/>
        </Node>
        <Node Cut="0.343707085" IVar="1" NCoef="0" cType="1" depth="1" nType="0" pos="r" purity="0.0e+00" res="0.0e+00" rms="0.0e+00">
          <Node Cut="0.0e+00" IVar="-1" NCoef="0" cType="1" depth="2" nType="-99" pos="l" purity="0.0e+00" res="0.0228217002" rms="0.0e+00"/>
          <Node Cut="0.0e+00" IVar="-1" NCoef="0" cType="1" depth="2" nType="-99" pos="r" purity="0.0e+00" res="-0.00663054734" rms="0.0e+00"/>
        </Node>
      </Node>
    </BinaryTree>
    <BinaryTree boostWeight="1.0e+00" itree="27" type="DecisionTree">
      <Node Cut="0.140122876" IVar="5" NCoef="0" cType="1" depth="0" nType="0" pos="s" purity="0.0e+00" res="0.0e+00" rms="0.0e+00">
        <Node Cut="-0.177865028" IVar="5" NCoef="0" cType="1" depth="1" nType="0" pos="l" purity="0.0e+00" res="0.0e+00" rms="0.0e+00">
          <Node Cut="-0.404289544" IVar="6" NCoef="0" cType="1" depth="2" nType="0" pos="l" purity="0.0e+00" res="0.0e+00" rms="0.0e+00">
            <Node Cut="0.0e+00" IVar="-1" NCoef="0" cType="1" depth="3" nType="-99" pos="l" purity="0.0e+00" res="0.0169980321" rms="0.0e+00"/>
            <Node Cut="-0.0406426638" IVar="6" NCoef="0" cType="1" depth="3" nType="0" pos="r" purity="0.0e+00" res="0.0e+00" rms="0.0e+00">
              <Node Cut="0.0e+00" IVar="-1" NCoef="0" cType="1" depth="4" nType="-99" pos="l" purity="0.0e+00" res="-0.010847169" rms="0.0e+00"/>
              <Node Cut="0.0e+00" IVar="-1" NCoef="0" cType="1" depth="4" nType="-99" pos="r" purity="0.0e+00" res="0.00836837478" rms="0.0e+00"/>
            </Node>
          </Node>
          <Node Cut="0.0e+00" IVar="-1" NCoef="0" cType="1" depth="2" nType="-99" pos="r" purity="0.0e+00" res="-0.0294785891" rms="0.0e+00"/>
        </Node>
        <Node Cut="-0.666396141" IVar="1" NCoef="0" cType="1" depth="1" nType="0" pos="r" purity="0.0e+00" res="0.0e+00" rms="0.0e+00">
          <Node Cut="0.0e+00" IVar="-1" NCoef="0" cType="1" depth="2" nType="-99" pos="l" purity="0.0e+00" res="0.0175778195" rms="0.0e+00"/>
          <Node Cut="-0.108298987" IVar="0" NCoef="0" cType="1" depth="2" nType="0" pos="r" purity="0.0e+00" res="0.0e+00" rms="0.0e+00">
            <Node Cut="0.0e+00" IVar="-1" NCoef="0" cType="1" depth="3" nType="-99" pos="l" purity="0.0e+00" res="-0.00823493488" rms="0.0e+00"/>
            <Node Cut="0.0e+00" IVar="-1" NCoef="0" cType="1" depth="3" nType="-99" pos="r" purity="0.0e+00" res="0.0119829318" rms="0.0e+00"/>
          </Node>
        </Node>
      </Node>
    </BinaryTree>
    <BinaryTree boostWeight="1.0e+00" itree="28" type="DecisionTree">
      <Node Cut="0.347058326" IVar="1" NCoef="0" cType="1" depth="0" nType="0" pos="s" purity="0.0e+00" res="0.0e+00" rms="0.0e+00">
        <Node Cut="0.0525930524" IVar="0" NCoef="0" cType="1" depth="1" nType="0" pos="l" purity="0.0e+00" res="0.0e+00" rms="0.0e+00">
          <Node Cut="-0.329231948" IVar="1" NCoef="0" cType="1" depth="2" nType="0" pos="l" purity="0.0e+00" res="0.0e+00" rms="0.0e+00">
            <Node Cut="-0.0947913229" IVar="2" NCoef="0" cType="1" depth="3" nType="0" pos="l" purity="0.0e+00" res="0.0e+00" rms="0.0e+00">
              <Node Cut="-0.126012206" IVar="2" NCoef="0" cType="1" depth="4" nType="0" pos="l" purity="0.0e+00" res="0.0e+00" rms="0.0e+00">
                <Node Cut="0.0e+00" IVar="-1" NCoef="0" cType="1" depth="5" nType="-99" pos="l" purity="0.0e+00" res="0.00510091754" rms="0.0e+00"/>
                <Node Cut="0.0e+00" IVar="-1" NCoef="0" cType="1" depth="5" nType="-99" pos="r" purity="0.0e+00" res="-0.0167242121" rms="0.0e+00"/>
              </Node>
              <Node Cut="0.0e+00" IVar="-1" NCoef="0" cType="1" depth="4" nType="-99" pos="r" purity="0.0e+00" res="0.0127875479" rms="0.0e+00"/>
            </Node>
            <Node Cut="0.0e+00" IVar="-1" NCoef="0" cType="1" depth="3" nType="-99" pos="r" purity="0.0e+00" res="-0.0142299999" rms="0.0e+00"/>
          </Node>
          <Node Cut="0.0e+00" IVar="-1" NCoef="0" cType="1" depth="2" nType="-99" pos="r" purity="0.0e+00" res="0.0205757339" rms="0.0e+00"/>
        </Node>
        <Node Cut="0.0e+00" IVar="-1" NCoef="0" cType="1" depth="1" nType="-99" pos="r" purity="0.0e+00" res="-0.0173481461" rms="0.0e+00"/>
      </Node>
    </BinaryTree>
    <BinaryTree boostWeight="1.0e+00" itree="29" type="DecisionTree">
      <Node Cut="0.0651512295" IVar="1" NCoef="0" cType="1" depth="0" nType="0" pos="s" purity="0.0e+00" res="0.0e+00" rms="0.0e+00">
        <Node Cut="-0.131477207" IVar="0" NCoef="0" cType="1" depth="1" nType="0" pos="l" purity="0.0e+00" res="0.0e+00" rms="0.0e+00">
          <Node Cut="-0.426241308" IVar="1" NCoef="0" cType="1" depth="2" nType="0" pos="l" purity="0.0e+00" res="0.0e+00" rms="0.0e+00">
            <Node Cut="-0.661168575" IVar="0" NCoef="0" cType="1" depth="3" nType="0" pos="l" purity="0.0e+00" res="0.0e+00" rms="0.0e+00">
              <Node Cut="0.0e+00" IVar="-1" NCoef="0" cType="1" depth="4" nType="-99" pos="l" purity="0.0e+00" res="-0.00905445591" rms="0.0e+00"/>
              <Node Cut="-0.153591722" IVar="5" NCoef="0" cType="1" depth="4" nType="0" pos="r" purity="0.0e+00" res="0.0e+00" rms="0.0e+00">
                <Node Cut="0.0e+00" IVar="-1" NCoef="0" cType="1" depth="5" nType="-99" pos="l" purity="0.0e+00" res="0.0171788242" rms="0.0e+00"/>
                <Node Cut="0.0e+00" IVar="-1" NCoef="0" cType="1" depth="5" nType="-99" pos="r" purity="0.0e+00" res="0.00396313192" rms="0.0e+00"/>
              </Node>
            </Node>
            <Node Cut="0.0e+00" IVar="-1" NCoef="0" cType="1" depth="3" nType="-99" pos="r" purity="0.0e+00" res="-0.0138686849" rms="0.0e+00"/>
          </Node>
          <Node Cut="0.0e+00" IVar="-1" NCoef="0" cType="1" depth="2" nType="-99" pos="r" purity="0.0e+00" res="0.0204225462" rms="0.0e+00"/>
        </Node>
        <Node Cut="0.0e+00" IVar="-1" NCoef="0" cType="1" depth="1" nType="-99" pos="r" purity="0.0e+00" res="-0.00922012981" rms="0.0e+00"/>
      </Node>
    </BinaryTree>
    <BinaryTree boostWeight="1.0e+00" itree="30" type="DecisionTree">
      <Node Cut="0.606551945" IVar="0" NCoef="0" cType="1" depth="0" nType="0" pos="s" purity="0.0e+00" res="0.0e+00" rms="0.0e+00">
        <Node Cut="-0.069814384" IVar="1" NCoef="0" cType="1" depth="1" nType="0" pos="l" purity="0.0e+00" res="0.0e+00" rms="0.0e+00">
          <Node Cut="1.00275862" IVar="4" NCoef="0" cType="1" depth="2" nType="0" pos="l" purity="0.0e+00" res="0.0e+00" rms="0.0e+00">
            <Node Cut="-0.33865419" IVar="6" NCoef="0" cType="1" depth="3" nType="0" pos="l" purity="0.0e+00" res="0.0e+00" rms="0.0e+00">
              <Node Cut="-0.0540606715" IVar="5" NCoef="0" cType="1" depth="4" nType="0" pos="l" purity="0.0e+00" res="0.0e+00" rms="0.0e+00">
                <Node Cut="0.0e+00" IVar="-1" NCoef="0" cType="1" depth="5" nType="-99" pos="l" purity="0.0e+00" res="0.0128118815" rms="0.0e+00"/>
                <Node Cut="0.0e+00" IVar="-1" NCoef="0" cType="1" depth="5" nType="-99" pos="r" purity="0.0e+00" res="-0.00203763111" rms="0.0e+00"/>
              </Node>
              <Node Cut="-0.628091514" IVar="1" NCoef="0" cType="1" depth="4" nType="0" pos="r" purity="0.0e+00" res="0.0e+00" rms="0.0e+00">
                <Node Cut="0.0e+00" IVar="-1" NCoef="0" cType="1" depth="5" nType="-99" pos="l" purity="0.0e+00" res="0.00334992446" rms="0.0e+00"/>
                <Node Cut="0.0e+00" IVar="-1" NCoef="0" cType="1" depth="5" nType="-99" pos="r" purity="0.0e+00" res="-0.0137559026" rms="0.0e+00"/>
              </Node>
            </Node>
            <Node Cut="0.0e+00" IVar="-1" NCoef="0" cType="1" depth="3" nType="-99" pos="r" purity="0.0e+00" res="0.0141838891" rms="0.0e+00"/>
          </Node>
          <Node Cut="0.0e+00" IVar="-1" NCoef="0" cType="1" depth="2" nType="-99" pos="r" purity="0.0e+00" res="-0.0298959017" rms="0.0e+00"/>
        </Node>
        <Node Cut="0.0e+00" IVar="-1" NCoef="0" cType="1" depth="1" nType="-99" pos="r" purity="0.0e+00" res="0.017225882" rms="0.0e+00"/>
      </Node>
    </BinaryTree>
    <BinaryTree boostWeight="1.0e+00" itree="31" type="DecisionTree">
      <Node Cut="0.0239730664" IVar="1" NCoef="0" cType="1" depth="0" nType="0" pos="s" purity="0.0e+00" res="0.0e+00" rms="0.0e+00">
        <Node Cut="-0.10640046" IVar="0" NCoef="0" cType="1" depth="1" nType="0" pos="l" purity="0.0e+00" res="0.0e+00" rms="0.0e+00">
          <Node Cut="-0.517852187" IVar="1" NCoef="0" cType="1" depth="2" nType="0" pos="l" purity="0.0e+00" res="0.0e+00" rms="0.0e+00">
            <Node Cut="-0.643690825" IVar="0" NCoef="0" cType="1" depth="3" nType="0" pos="l" purity="0.0e+00" res="0.0e+00" rms="0.0e+00">
              <Node Cut="0.0e+00" IVar="-1" NCoef="0" cType="1" depth="4" nType="-99" pos="l" purity="0.0e+00" res="-0.00555135682" rms="0.0e+00"/>
              <Node Cut="0.106432766" IVar="5" NCoef="0" cType="1" depth="4" nType="0" pos="r" purity="0.0e+00" res="0.0e+00" rms="0.0e+00">
                <Node Cut="0.0e+00" IVar="-1" NCoef="0" cType="1" depth="5" nType="-99" pos="l" purity="0.0e+00" res="0.00356243039" rms="0.0e+00"/>
                <Node Cut="0.0e+00" IVar="-1" NCoef="0" cType="1" depth="5" nType="-99" pos="r" purity="0.0e+00" res="0.0210456103" rms="0.0e+00"/>
              </Node>
            </Node>
            <Node Cut="0.0e+00" IVar="-1" NCoef="0" cType="1" depth="3" nType="-99" pos="r" purity="0.0e+00" res="-0.0123959742" rms="0.0e+00"/>
          </Node>
          <Node Cut="0.0e+00" IVar="-1" NCoef="0" cType="1" depth="2" nType="-99" pos="r" purity="0.0e+00" res="0.0137246093" rms="0.0e+00"/>
        </Node>
        <Node Cut="0.0e+00" IVar="-1" NCoef="0" cType="1" depth="1" nType="-99" pos="r" purity="0.0e+00" res="-0.0168147013" rms="0.0e+00"/>
      </Node>
    </BinaryTree>
    <BinaryTree boostWeight="1.0e+00" itree="32" type="DecisionTree">
      <Node Cut="0.282298565" IVar="1" NCoef="0" cType="1" depth="0" nType="0" pos="s" purity="0.0e+00" res="0.0e+00" rms="0.0e+00">
        <Node Cut="0.0125405975" IVar="0" NCoef="0" cType="1" depth="1" nType="0" pos="l" purity="0.0e+00" res="0.0e+00" rms="0.0e+00">
          <Node Cut="-0.342945814" IVar="1" NCoef="0" cType="1" depth="2" nType="0" pos="l" purity="0.0e+00" res="0.0e+00" rms="0.0e+00">
            <Node Cut="-0.131009102" IVar="5" NCoef="0" cType="1" depth="3" nType="0" pos="l" purity="0.0e+00" res="0.0e+00" rms="0.0e+00">
              <Node Cut="0.0e+00" IVar="-1" NCoef="0" cType="1" depth="4" nType="-99" pos="l" purity="0.0e+00" res="0.00900578685" rms="0.0e+00"/>
              <Node Cut="0.153461501" IVar="7" NCoef="0" cType="1" depth="4" nType="0" pos="r" purity="0.0e+00" res="0.0e+00" rms="0.0e+00">
                <Node Cut="0.0e+00" IVar="-1" NCoef="0" cType="1" depth="5" nType="-99" pos="l" purity="0.0e+00" res="-0.0120884879" rms="0.0e+00"/>
                <Node Cut="0.0e+00" IVar="-1" NCoef="0" cType="1" depth="5" nType="-99" pos="r" purity="0.0e+00" res="0.0143081648" rms="0.0e+00"/>
              </Node>
            </Node>
            <Node Cut="0.0e+00" IVar="-1" NCoef="0" cType="1" depth="3" nType="-99" pos="r" purity="0.0e+00" res="-0.0196029451" rms="0.0e+00"/>
          </Node>
          <Node Cut="0.0e+00" IVar="-1" NCoef="0" cType="1" depth="2" nType="-99" pos="r" purity="0.0e+00" res="0.0210824218" rms="0.0e+00"/>
        </Node>
        <Node Cut="0.0e+00" IVar="-1" NCoef="0" cType="1" depth="1" nType="-99" pos="r" purity="0.0e+00" res="-0.0186365768" rms="0.0e+00"/>
      </Node>
    </BinaryTree>
    <BinaryTree boostWeight="1.0e+00" itree="33" type="DecisionTree">
      <Node Cut="0.112714261" IVar="5" NCoef="0" cType="1" depth="0" nType="0" pos="s" purity="0.0e+00" res="0.0e+00" rms="0.0e+00">
        <Node Cut="-0.197250098" IVar="5" NCoef="0" cType="1" depth="1" nType="0" pos="l" purity="0.0e+00" res="0.0e+00" rms="0.0e+00">
          <Node Cut="-0.778833389" IVar="3" NCoef="0" cType="1" depth="2" nType="0" pos="l" purity="0.0e+00" res="0.0e+00" rms="0.0e+00">
            <Node Cut="0.0e+00" IVar="-1" NCoef="0" cType="1" depth="3" nType="-99" pos="l" purity="0.0e+00" res="0.0126553923" rms="0.0e+00"/>
            <Node Cut="-0.0846919417" IVar="7" NCoef="0" cType="1" depth="3" nType="0" pos="r" purity="0.0e+00" res="0.0e+00" rms="0.0e+00">
              <Node Cut="0.0e+00" IVar="-1" NCoef="0" cType="1" depth="4" nType="-99" pos="l" purity="0.0e+00" res="0.00322879269" rms="0.0e+00"/>
              <Node Cut="0.0e+00" IVar="-1" NCoef="0" cType="1" depth="4" nType="-99" pos="r" purity="0.0e+00" res="-0.00785992201" rms="0.0e+00"/>
            </Node>
          </Node>
          <Node Cut="0.0e+00" IVar="-1" NCoef="0" cType="1" depth="2" nType="-99" pos="r" purity="0.0e+00" res="-0.018552132" rms="0.0e+00"/>
        </Node>
        <Node Cut="-0.145115256" IVar="7" NCoef="0" cType="1" depth="1" nType="0" pos="r" purity="0.0e+00" res="0.0e+00" rms="0.0e+00">
          <Node Cut="0.0e+00" IVar="-1" NCoef="0" cType="1" depth="2" nType="-99" pos="l" purity="0.0e+00" res="-0.00378696411" rms="0.0e+00"/>
          <Node Cut="-0.0848510787" IVar="2" NCoef="0" cType="1" depth="2" nType="0" pos="r" purity="0.0e+00" res="0.0e+00" rms="0.0e+00">
            <Node Cut="0.0e+00" IVar="-1" NCoef="0" cType="1" depth="3" nType="-99" pos="l" purity="0.0e+00" res="0.0234746095" rms="0.0e+00"/>
            <Node Cut="0.0e+00" IVar="-1" NCoef="0" cType="1" depth="3" nType="-99" pos="r" purity="0.0e+00" res="0.00281309243" rms="0.0e+00"/>
          </Node>
        </Node>
      </Node>
    </BinaryTree>
    <BinaryTree boostWeight="1.0e+00" itree="34" type="DecisionTree">
      <Node Cut="0.11269632" IVar="5" NCoef="0" cType="1" depth="0" nType="0" pos="s" purity="0.0e+00" res="0.0e+00" rms="0.0e+00">
        <Node Cut="-0.197228521" IVar="5" NCoef="0" cType="1" depth="1" nType="0" pos="l" purity="0.0e+00" res="0.0e+00" rms="0.0e+00">
          <Node Cut="-0.398379147" IVar="6" NCoef="0" cType="1" depth="2" nType="0" pos="l" purity="0.0e+00" res="0.0e+00" rms="0.0e+00">
            <Node Cut="0.0e+00" IVar="-1" NCoef="0" cType="1" depth="3" nType="-99" pos="l" purity="0.0e+00" res="0.0157337021" rms="0.0e+00"/>
            <Node Cut="-0.219652712" IVar="4" NCoef="0" cType="1" depth="3" nType="0" pos="r" purity="0.0e+00" res="0.0e+00" rms="0.0e+00">
              <Node Cut="0.0e+00" IVar="-1" NCoef="0" cType="1" depth="4" nType="-99" pos="l" purity="0.0e+00" res="0.00335183926" rms="0.0e+00"/>
              <Node Cut="0.0e+00" IVar="-1" NCoef="0" cType="1" depth="4" nType="-99" pos="r" purity="0.0e+00" res="-0.0161323342" rms="0.0e+00"/>
            </Node>
          </Node>
          <Node Cut="0.0e+00" IVar="-1" NCoef="0" cType="1" depth="2" nType="-99" pos="r" purity="0.0e+00" res="-0.0210979041" rms="0.0e+00"/>
        </Node>
        <Node Cut="0.505377471" IVar="5" NCoef="0" cType="1" depth="1" nType="0" pos="r" purity="0.0e+00" res="0.0e+00" rms="0.0e+00">
          <Node Cut="0.0e+00" IVar="-1" NCoef="0" cType="1" depth="2" nType="-99" pos="l" purity="0.0e+00" res="0.0149210384" rms="0.0e+00"/>
          <Node Cut="-0.284526169" IVar="0" NCoef="0" cType="1" depth="2" nType="0" pos="r" purity="0.0e+00" res="0.0e+00" rms="0.0e+00">
            <Node Cut="0.0e+00" IVar="-1" NCoef="0" cType="1" depth="3" nType="-99" pos="l" purity="0.0e+00" res="-0.00915855076" rms="0.0e+00"/>
            <Node Cut="0.0e+00" IVar="-1" NCoef="0" cType="1" depth="3" nType="-99" pos="r" purity="0.0e+00" res="0.00984251406" rms="0.0e+00"/>
          </Node>
        </Node>
      </Node>
    </BinaryTree>
    <BinaryTree boostWeight="1.0e+00" itree="35" type="DecisionTree">
      <Node Cut="0.547662973" IVar="0" NCoef="0" cType="1" depth="0" nType="0" pos="s" purity="0.0e+00" res="0.0e+00" rms="0.0e+00">
        <Node Cut="-0.117911562" IVar="1" NCoef="0" cType="1" depth="1" nType="0" pos="l" purity="0.0e+00" res="0.0e+00" rms="0.0e+00">
          <Node Cut="-0.91996634" IVar="5" NCoef="0" cType="1" depth="2" nType="0" pos="l" purity="0.0e+00" res="0.0e+00" rms="0.0e+00">
            <Node Cut="0.0e+00" IVar="-1" NCoef="0" cType="1" depth="3" nType="-99" pos="l" purity="0.0e+00" res="0.0151167233" rms="0.0e+00"/>
            <Node Cut="0.0825060159" IVar="5" NCoef="0" cType="1" depth="3" nType="0" pos="r" purity="0.0e+00" res="0.0e+00" rms="0.0e+00">
              <Node Cut="0.0e+00" IVar="-1" NCoef="0" cType="1" depth="4" nType="-99" pos="l" purity="0.0e+00" res="-0.0091264043" rms="0.0e+00"/>
              <Node Cut="-0.347893894" IVar="6" NCoef="0" cType="1" depth="4" nType="0" pos="r" purity="0.0e+00" res="0.0e+00" rms="0.0e+00">
                <Node Cut="0.0e+00" IVar="-1" NCoef="0" cType="1" depth="5" nType="-99" pos="l" purity="0.0e+00" res="0.015507984" rms="0.0e+00"/>
                <Node Cut="0.0e+00" IVar="-1" NCoef="0" cType="1" depth="5" nType="-99" pos="r" purity="0.0e+00" res="-0.0016387077" rms="0.0e+00"/>
              </Node>
            </Node>
          </Node>
          <Node Cut="0.0e+00" IVar="-1" NCoef="0" cType="1" depth="2" nType="-99" pos="r" purity="0.0e+00" res="-0.0226535313" rms="0.0e+00"/>
        </Node>
        <Node Cut="0.0e+00" IVar="-1" NCoef="0" cType="1" depth="1" nType="-99" pos="r" purity="0.0e+00" res="0.0121476138" rms="0.0e+00"/>
      </Node>
    </BinaryTree>
    <BinaryTree boostWeight="1.0e+00" itree="36" type="DecisionTree">
      <Node Cut="-0.150899678" IVar="5" NCoef="0" cType="1" depth="0" nType="0" pos="s" purity="0.0e+00" res="0.0e+00" rms="0.0e+00">
        <Node Cut="0.0769766048" IVar="7" NCoef="0" cType="1" depth="1" nType="0" pos="l" purity="0.0e+00" res="0.0e+00" rms="0.0e+00">
          <Node Cut="-0.0426830612" IVar="4" NCoef="0" cType="1" depth="2" nType="0" pos="l" purity="0.0e+00" res="0.0e+00" rms="0.0e+00">
            <Node Cut="0.0e+00" IVar="-1" NCoef="0" cType="1" depth="3" nType="-99" pos="l" purity="0.0e+00" res="0.0184210222" rms="0.0e+00"/>
            <Node Cut="0.0e+00" IVar="-1" NCoef="0" cType="1" depth="3" nType="-99" pos="r" purity="0.0e+00" res="0.00338206929" rms="0.0e+00"/>
          </Node>
          <Node Cut="0.0e+00" IVar="-1" NCoef="0" cType="1" depth="2" nType="-99" pos="r" purity="0.0e+00" res="-0.00663017714" rms="0.0e+00"/>
        </Node>
        <Node Cut="0.469218552" IVar="7" NCoef="0" cType="1" depth="1" nType="0" pos="r" purity="0.0e+00" res="0.0e+00" rms="0.0e+00">
          <Node Cut="0.236904383" IVar="5" NCoef="0" cType="1" depth="2" nType="0" pos="l" purity="0.0e+00" res="0.0e+00" rms="0.0e+00">
            <Node Cut="0.0e+00" IVar="-1" NCoef="0" cType="1" depth="3" nType="-99" pos="l" purity="0.0e+00" res="-0.02435546" rms="0.0e+00"/>
            <Node Cut="-0.31803757" IVar="6" NCoef="0" cType="1" depth="3" nType="0" pos="r" purity="0.0e+00" res="0.0e+00" rms="0.0e+00">
              <Node Cut="0.0e+00" IVar="-1" NCoef="0" cType="1" depth="4" nType="-99" pos="l" purity="0.0e+00" res="0.00348961144" rms="0.0e+00"/>
              <Node Cut="0.0e+00" IVar="-1" NCoef="0" cType="1" depth="4" nType="-99" pos="r" purity="0.0e+00" res="-0.0157699827" rms="0.0e+00"/>
            </Node>
          </Node>
          <Node Cut="0.0e+00" IVar="-1" NCoef="0" cType="1" depth="2" nType="-99" pos="r" purity="0.0e+00" res="0.00981386472" rms="0.0e+00"/>
        </Node>
      </Node>
    </BinaryTree>
    <BinaryTree boostWeight="1.0e+00" itree="37" type="DecisionTree">
      <Node Cut="1.2347964" IVar="4" NCoef="0" cType="1" depth="0" nType="0" pos="s" purity="0.0e+00" res="0.0e+00" rms="0.0e+00">
        <Node Cut="-0.129398212" IVar="2" NCoef="0" cType="1" depth="1" nType="0" pos="l" purity="0.0e+00" res="0.0e+00" rms="0.0e+00">
          <Node Cut="0.0e+00" IVar="-1" NCoef="0" cType="1" depth="2" nType="-99" pos="l" purity="0.0e+00" res="0.0115128495" rms="0.0e+00"/>
          <Node Cut="-0.574830532" IVar="0" NCoef="0" cType="1" depth="2" nType="0" pos="r" purity="0.0e+00" res="0.0e+00" rms="0.0e+00">
            <Node Cut="0.0e+00" IVar="-1" NCoef="0" cType="1" depth="3" nType="-99" pos="l" purity="0.0e+00" res="-0.0189018846" rms="0.0e+00"/>
            <Node Cut="-0.414437175" IVar="1" NCoef="0" cType="1" depth="3" nType="0" pos="r" purity="0.0e+00" res="0.0e+00" rms="0.0e+00">
              <Node Cut="0.0e+00" IVar="-1" NCoef="0" cType="1" depth="4" nType="-99" pos="l" purity="0.0e+00" res="0.00893570017" rms="0.0e+00"/>
              <Node Cut="0.224066675" IVar="0" NCoef="0" cType="1" depth="4" nType="0" pos="r" purity="0.0e+00" res="0.0e+00" rms="0.0e+00">
                <Node Cut="0.0e+00" IVar="-1" NCoef="0" cType="1" depth="5" nType="-99" pos="l" purity="0.0e+00" res="-0.0169753414" rms="0.0e+00"/>
                <Node Cut="0.0e+00" IVar="-1" NCoef="0" cType="1" depth="5" nType="-99" pos="r" purity="0.0e+00" res="0.0066142343" rms="0.0e+00"/>
              </Node>
            </Node>
          </Node>
        </Node>
        <Node Cut="0.0e+00" IVar="-1" NCoef="0" cType="1" depth="1" nType="-99" pos="r" purity="0.0e+00" res="0.0168638043" rms="0.0e+00"/>
      </Node>
    </BinaryTree>
    <BinaryTree boostWeight="1.0e+00" itree="38" type="DecisionTree">
      <Node Cut="1.24643707" IVar="4" NCoef="0" cType="1" depth="0" nType="0" pos="s" purity="0.0e+00" res="0.0e+00" rms="0.0e+00">
        <Node Cut="-0.131301492" IVar="2" NCoef="0" cType="1" depth="1" nType="0" pos="l" purity="0.0e+00" res="0.0e+00" rms="0.0e+00">
          <Node Cut="0.0e+00" IVar="-1" NCoef="0" cType="1" depth="2" nType="-99" pos="l" purity="0.0e+00" res="0.0115987193" rms="0.0e+00"/>
          <Node Cut="0.350463867" IVar="0" NCoef="0" cType="1" depth="2" nType="0" pos="r" purity="0.0e+00" res="0.0e+00" rms="0.0e+00">
            <Node Cut="-0.325714469" IVar="1" NCoef="0" cType="1" depth="3" nType="0" pos="l" purity="0.0e+00" res="0.0e+00" rms="0.0e+00">
              <Node Cut="-0.100908741" IVar="2" NCoef="0" cType="1" depth="4" nType="0" pos="l" purity="0.0e+00" res="0.0e+00" rms="0.0e+00">
                <Node Cut="0.0e+00" IVar="-1" NCoef="0" cType="1" depth="5" nType="-99" pos="l" purity="0.0e+00" res="-0.0177117996" rms="0.0e+00"/>
                <Node Cut="-0.403900564" IVar="0" NCoef="0" cType="1" depth="5" nType="0" pos="r" purity="0.0e+00" res="0.0e+00" rms="0.0e+00">
                  <Node Cut="0.0e+00" IVar="-1" NCoef="0" cType="1" depth="6" nType="-99" pos="l" purity="0.0e+00" res="-0.00206211046" rms="0.0e+00"/>
                  <Node Cut="0.0e+00" IVar="-1" NCoef="0" cType="1" depth="6" nType="-99" pos="r" purity="0.0e+00" res="0.00927991979" rms="0.0e+00"/>
                </Node>
              </Node>
              <Node Cut="0.0e+00" IVar="-1" NCoef="0" cType="1" depth="4" nType="-99" pos="r" purity="0.0e+00" res="-0.0214879904" rms="0.0e+00"/>
            </Node>
            <Node Cut="0.0e+00" IVar="-1" NCoef="0" cType="1" depth="3" nType="-99" pos="r" purity="0.0e+00" res="0.00880599115" rms="0.0e+00"/>
          </Node>
        </Node>
        <Node Cut="0.0e+00" IVar="-1" NCoef="0" cType="1" depth="1" nType="-99" pos="r" purity="0.0e+00" res="0.0156917255" rms="0.0e+00"/>
      </Node>
    </BinaryTree>
    <BinaryTree boostWeight="1.0e+00" itree="39" type="DecisionTree">
      <Node Cut="0.0514698997" IVar="1" NCoef="0" cType="1" depth="0" nType="0" pos="s" purity="0.0e+00" res="0.0e+00" rms="0.0e+00">
        <Node Cut="-0.416353822" IVar="0" NCoef="0" cType="1" depth="1" nType="0" pos="l" purity="0.0e+00" res="0.0e+00" rms="0.0e+00">
          <Node Cut="-0.128710121" IVar="2" NCoef="0" cType="1" depth="2" nType="0" pos="l" purity="0.0e+00" res="0.0e+00" rms="0.0e+00">
            <Node Cut="0.0e+00" IVar="-1" NCoef="0" cType="1" depth="3" nType="-99" pos="l" purity="0.0e+00" res="0.0125773968" rms="0.0e+00"/>
            <Node Cut="-0.192125559" IVar="6" NCoef="0" cType="1" depth="3" nType="0" pos="r" purity="0.0e+00" res="0.0e+00" rms="0.0e+00">
              <Node Cut="0.0e+00" IVar="-1" NCoef="0" cType="1" depth="4" nType="-99" pos="l" purity="0.0e+00" res="-0.0150332246" rms="0.0e+00"/>
              <Node Cut="0.0e+00" IVar="-1" NCoef="0" cType="1" depth="4" nType="-99" pos="r" purity="0.0e+00" res="-0.00199413695" rms="0.0e+00"/>
            </Node>
          </Node>
          <Node Cut="0.219201118" IVar="4" NCoef="0" cType="1" depth="2" nType="0" pos="r" purity="0.0e+00" res="0.0e+00" rms="0.0e+00">
            <Node Cut="0.0e+00" IVar="-1" NCoef="0" cType="1" depth="3" nType="-99" pos="l" purity="0.0e+00" res="0.0147893252" rms="0.0e+00"/>
            <Node Cut="0.0e+00" IVar="-1" NCoef="0" cType="1" depth="3" nType="-99" pos="r" purity="0.0e+00" res="0.00322733377" rms="0.0e+00"/>
          </Node>
        </Node>
        <Node Cut="0.0e+00" IVar="-1" NCoef="0" cType="1" depth="1" nType="-99" pos="r" purity="0.0e+00" res="-0.00957715884" rms="0.0e+00"/>
      </Node>
    </BinaryTree>
    <BinaryTree boostWeight="1.0e+00" itree="40" type="DecisionTree">
      <Node Cut="0.164759964" IVar="1" NCoef="0" cType="1" depth="0" nType="0" pos="s" purity="0.0e+00" res="0.0e+00" rms="0.0e+00">
        <Node Cut="-0.123707861" IVar="0" NCoef="0" cType="1" depth="1" nType="0" pos="l" purity="0.0e+00" res="0.0e+00" rms="0.0e+00">
          <Node Cut="-0.128829151" IVar="2" NCoef="0" cType="1" depth="2" nType="0" pos="l" purity="0.0e+00" res="0.0e+00" rms="0.0e+00">
            <Node Cut="0.0e+00" IVar="-1" NCoef="0" cType="1" depth="3" nType="-99" pos="l" purity="0.0e+00" res="0.0115639241" rms="0.0e+00"/>
            <Node Cut="-0.583900034" IVar="0" NCoef="0" cType="1" depth="3" nType="0" pos="r" purity="0.0e+00" res="0.0e+00" rms="0.0e+00">
              <Node Cut="0.0e+00" IVar="-1" NCoef="0" cType="1" depth="4" nType="-99" pos="l" purity="0.0e+00" res="-0.0150977615" rms="0.0e+00"/>
              <Node Cut="-0.52867651" IVar="1" NCoef="0" cType="1" depth="4" nType="0" pos="r" purity="0.0e+00" res="0.0e+00" rms="0.0e+00">
                <Node Cut="0.0e+00" IVar="-1" NCoef="0" cType="1" depth="5" nType="-99" pos="l" purity="0.0e+00" res="0.00905027427" rms="0.0e+00"/>
                <Node Cut="0.0e+00" IVar="-1" NCoef="0" cType="1" depth="5" nType="-99" pos="r" purity="0.0e+00" res="-0.0119143212" rms="0.0e+00"/>
              </Node>
            </Node>
          </Node>
          <Node Cut="0.0e+00" IVar="-1" NCoef="0" cType="1" depth="2" nType="-99" pos="r" purity="0.0e+00" res="0.0144246472" rms="0.0e+00"/>
        </Node>
        <Node Cut="0.0e+00" IVar="-1" NCoef="0" cType="1" depth="1" nType="-99" pos="r" purity="0.0e+00" res="-0.0153472368" rms="0.0e+00"/>
      </Node>
    </BinaryTree>
    <BinaryTree boostWeight="1.0e+00" itree="41" type="DecisionTree">
      <Node Cut="0.619779229" IVar="7" NCoef="0" cType="1" depth="0" nType="0" pos="s" purity="0.0e+00" res="0.0e+00" rms="0.0e+00">
        <Node Cut="0.392655194" IVar="3" NCoef="0" cType="1" depth="1" nType="0" pos="l" purity="0.0e+00" res="0.0e+00" rms="0.0e+00">
          <Node Cut="0.0514374077" IVar="3" NCoef="0" cType="1" depth="2" nType="0" pos="l" purity="0.0e+00" res="0.0e+00" rms="0.0e+00">
            <Node Cut="0.00358177628" IVar="0" NCoef="0" cType="1" depth="3" nType="0" pos="l" purity="0.0e+00" res="0.0e+00" rms="0.0e+00">
              <Node Cut="-0.185304314" IVar="7" NCoef="0" cType="1" depth="4" nType="0" pos="l" purity="0.0e+00" res="0.0e+00" rms="0.0e+00">
                <Node Cut="0.0e+00" IVar="-1" NCoef="0" cType="1" depth="5" nType="-99" pos="l" purity="0.0e+00" res="0.00162929669" rms="0.0e+00"/>
                <Node Cut="0.0e+00" IVar="-1" NCoef="0" cType="1" depth="5" nType="-99" pos="r" purity="0.0e+00" res="-0.0129136173" rms="0.0e+00"/>
              </Node>
              <Node Cut="0.0e+00" IVar="-1" NCoef="0" cType="1" depth="4" nType="-99" pos="r" purity="0.0e+00" res="0.00615720777" rms="0.0e+00"/>
            </Node>
            <Node Cut="0.0e+00" IVar="-1" NCoef="0" cType="1" depth="3" nType="-99" pos="r" purity="0.0e+00" res="0.0117017021" rms="0.0e+00"/>
          </Node>
          <Node Cut="0.0e+00" IVar="-1" NCoef="0" cType="1" depth="2" nType="-99" pos="r" purity="0.0e+00" res="-0.00894111674" rms="0.0e+00"/>
        </Node>
        <Node Cut="0.0e+00" IVar="-1" NCoef="0" cType="1" depth="1" nType="-99" pos="r" purity="0.0e+00" res="0.01098515" rms="0.0e+00"/>
      </Node>
    </BinaryTree>
    <BinaryTree boostWeight="1.0e+00" itree="42" type="DecisionTree">
      <Node Cut="0.656433165" IVar="5" NCoef="0" cType="1" depth="0" nType="0" pos="s" purity="0.0e+00" res="0.0e+00" rms="0.0e+00">
        <Node Cut="-0.128829151" IVar="2" NCoef="0" cType="1" depth="1" nType="0" pos="l" purity="0.0e+00" res="0.0e+00" rms="0.0e+00">
          <Node Cut="0.0e+00" IVar="-1" NCoef="0" cType="1" depth="2" nType="-99" pos="l" purity="0.0e+00" res="0.00535329571" rms="0.0e+00"/>
          <Node Cut="-1.02920699" IVar="5" NCoef="0" cType="1" depth="2" nType="0" pos="r" purity="0.0e+00" res="0.0e+00" rms="0.0e+00">
            <Node Cut="0.0e+00" IVar="-1" NCoef="0" cType="1" depth="3" nType="-99" pos="l" purity="0.0e+00" res="0.00239589019" rms="0.0e+00"/>
            <Node Cut="0.000871273049" IVar="4" NCoef="0" cType="1" depth="3" nType="0" pos="r" purity="0.0e+00" res="0.0e+00" rms="0.0e+00">
              <Node Cut="0.0e+00" IVar="-1" NCoef="0" cType="1" depth="4" nType="-99" pos="l" purity="0.0e+00" res="-0.0242008436" rms="0.0e+00"/>
              <Node Cut="0.0e+00" IVar="-1" NCoef="0" cType="1" depth="4" nType="-99" pos="r" purity="0.0e+00" res="-0.0105358902" rms="0.0e+00"/>
            </Node>
          </Node>
        </Node>
        <Node Cut="-0.336325556" IVar="1" NCoef="0" cType="1" depth="1" nType="0" pos="r" purity="0.0e+00" res="0.0e+00" rms="0.0e+00">
          <Node Cut="0.0e+00" IVar="-1" NCoef="0" cType="1" depth="2" nType="-99" pos="l" purity="0.0e+00" res="0.0126549546" rms="0.0e+00"/>
          <Node Cut="0.0e+00" IVar="-1" NCoef="0" cType="1" depth="2" nType="-99" pos="r" purity="0.0e+00" res="-0.000255290041" rms="0.0e+00"/>
        </Node>
      </Node>
    </BinaryTree>
    <BinaryTree boostWeight="1.0e+00" itree="43" type="DecisionTree">
      <Node Cut="0.554078579" IVar="0" NCoef="0" cType="1" depth="0" nType="0" pos="s" purity="0.0e+00" res="0.0e+00" rms="0.0e+00">
        <Node Cut="-0.188553318" IVar="1" NCoef="0" cType="1" depth="1" nType="0" pos="l" purity="0.0e+00" res="0.0e+00" rms="0.0e+00">
          <Node Cut="-0.075616464" IVar="2" NCoef="0" cType="1" depth="2" nType="0" pos="l" purity="0.0e+00" res="0.0e+00" rms="0.0e+00">
            <Node Cut="-0.687004685" IVar="1" NCoef="0" cType="1" depth="3" nType="0" pos="l" purity="0.0e+00" res="0.0e+00" rms="0.0e+00">
              <Node Cut="-0.127535388" IVar="2" NCoef="0" cType="1" depth="4" nType="0" pos="l" purity="0.0e+00" res="0.0e+00" rms="0.0e+00">
                <Node Cut="0.0e+00" IVar="-1" NCoef="0" cType="1" depth="5" nType="-99" pos="l" purity="0.0e+00" res="0.0119011728" rms="0.0e+00"/>
                <Node Cut="0.0e+00" IVar="-1" NCoef="0" cType="1" depth="5" nType="-99" pos="r" purity="0.0e+00" res="-0.0104998304" rms="0.0e+00"/>
              </Node>
              <Node Cut="0.0e+00" IVar="-1" NCoef="0" cType="1" depth="4" nType="-99" pos="r" purity="0.0e+00" res="-0.0191841852" rms="0.0e+00"/>
            </Node>
            <Node Cut="2.53368817e-05" IVar="3" NCoef="0" cType="1" depth="3" nType="0" pos="r" purity="0.0e+00" res="0.0e+00" rms="0.0e+00">
              <Node Cut="0.0e+00" IVar="-1" NCoef="0" cType="1" depth="4" nType="-99" pos="l" purity="0.0e+00" res="0.012034189" rms="0.0e+00"/>
              <Node Cut="0.0e+00" IVar="-1" NCoef="0" cType="1" depth="4" nType="-99" pos="r" purity="0.0e+00" res="0.00602364214" rms="0.0e+00"/>
            </Node>
          </Node>
          <Node Cut="0.0e+00" IVar="-1" NCoef="0" cType="1" depth="2" nType="-99" pos="r" purity="0.0e+00" res="-0.0202758443" rms="0.0e+00"/>
        </Node>
        <Node Cut="0.0e+00" IVar="-1" NCoef="0" cType="1" depth="1" nType="-99" pos="r" purity="0.0e+00" res="0.0138788493" rms="0.0e+00"/>
      </Node>
    </BinaryTree>
    <BinaryTree boostWeight="1.0e+00" itree="44" type="DecisionTree">
      <Node Cut="0.000481504016" IVar="7" NCoef="0" cType="1" depth="0" nType="0" pos="s" purity="0.0e+00" res="0.0e+00" rms="0.0e+00">
        <Node Cut="-0.0867542699" IVar="5" NCoef="0" cType="1" depth="1" nType="0" pos="l" purity="0.0e+00" res="0.0e+00" rms="0.0e+00">
          <Node Cut="0.0e+00" IVar="-1" NCoef="0" cType="1" depth="2" nType="-99" pos="l" purity="0.0e+00" res="0.00287675229" rms="0.0e+00"/>
          <Node Cut="0.0e+00" IVar="-1" NCoef="0" cType="1" depth="2" nType="-99" pos="r" purity="0.0e+00" res="-0.0163613539" rms="0.0e+00"/>
        </Node>
        <Node Cut="0.0663364083" IVar="5" NCoef="0" cType="1" depth="1" nType="0" pos="r" purity="0.0e+00" res="0.0e+00" rms="0.0e+00">
          <Node Cut="0.0e+00" IVar="-1" NCoef="0" cType="1" depth="2" nType="-99" pos="l" purity="0.0e+00" res="-0.00529970508" rms="0.0e+00"/>
          <Node Cut="-0.440357685" IVar="1" NCoef="0" cType="1" depth="2" nType="0" pos="r" purity="0.0e+00" res="0.0e+00" rms="0.0e+00">
            <Node Cut="0.0e+00" IVar="-1" NCoef="0" cType="1" depth="3" nType="-99" pos="l" purity="0.0e+00" res="0.0218254756" rms="0.0e+00"/>
            <Node Cut="0.0e+00" IVar="-1" NCoef="0" cType="1" depth="3" nType="-99" pos="r" purity="0.0e+00" res="0.00196623453" rms="0.0e+00"/>
          </Node>
        </Node>
      </Node>
    </BinaryTree>
    <BinaryTree boostWeight="1.0e+00" itree="45" type="DecisionTree">
      <Node Cut="0.347498834" IVar="1" NCoef="0" cType="1" depth="0" nType="0" pos="s" purity="0.0e+00" res="0.0e+00" rms="0.0e+00">
        <Node Cut="0.099299863" IVar="0" NCoef="0" cType="1" depth="1" nType="0" pos="l" purity="0.0e+00" res="0.0e+00" rms="0.0e+00">
          <Node Cut="-0.41174081" IVar="1" NCoef="0" cType="1" depth="2" nType="0" pos="l" purity="0.0e+00" res="0.0e+00" rms="0.0e+00">
            <Node Cut="-0.65384376" IVar="0" NCoef="0" cType="1" depth="3" nType="0" pos="l" purity="0.0e+00" res="0.0e+00" rms="0.0e+00">
              <Node Cut="0.0e+00" IVar="-1" NCoef="0" cType="1" depth="4" nType="-99" pos="l" purity="0.0e+00" res="-0.00603932049" rms="0.0e+00"/>
              <Node Cut="-0.0921574309" IVar="2" NCoef="0" cType="1" depth="4" nType="0" pos="r" purity="0.0e+00" res="0.0e+00" rms="0.0e+00">
                <Node Cut="0.0e+00" IVar="-1" NCoef="0" cType="1" depth="5" nType="-99" pos="l" purity="0.0e+00" res="0.00291743292" rms="0.0e+00"/>
                <Node Cut="0.0e+00" IVar="-1" NCoef="0" cType="1" depth="5" nType="-99" pos="r" purity="0.0e+00" res="0.0163715743" rms="0.0e+00"/>
              </Node>
            </Node>
            <Node Cut="0.0e+00" IVar="-1" NCoef="0" cType="1" depth="3" nType="-99" pos="r" purity="0.0e+00" res="-0.0093873851" rms="0.0e+00"/>
          </Node>
          <Node Cut="0.0e+00" IVar="-1" NCoef="0" cType="1" depth="2" nType="-99" pos="r" purity="0.0e+00" res="0.0178637784" rms="0.0e+00"/>
        </Node>
        <Node Cut="0.0e+00" IVar="-1" NCoef="0" cType="1" depth="1" nType="-99" pos="r" purity="0.0e+00" res="-0.0171244405" rms="0.0e+00"/>
      </Node>
    </BinaryTree>
    <BinaryTree boostWeight="1.0e+00" itree="46" type="DecisionTree">
      <Node Cut="-0.78522861" IVar="1" NCoef="0" cType="1" depth="0" nType="0" pos="s" purity="0.0e+00" res="0.0e+00" rms="0.0e+00">
        <Node Cut="0.0e+00" IVar="-1" NCoef="0" cType="1" depth="1" nType="-99" pos="l" purity="0.0e+00" res="0.0134602487" rms="0.0e+00"/>
        <Node Cut="-0.452458799" IVar="0" NCoef="0" cType="1" depth="1" nType="0" pos="r" purity="0.0e+00" res="0.0e+00" rms="0.0e+00">
          <Node Cut="0.0986744463" IVar="4" NCoef="0" cType="1" depth="2" nType="0" pos="l" purity="0.0e+00" res="0.0e+00" rms="0.0e+00">
            <Node Cut="0.0e+00" IVar="-1" NCoef="0" cType="1" depth="3" nType="-99" pos="l" purity="0.0e+00" res="-0.00700292364" rms="0.0e+00"/>
            <Node Cut="0.0e+00" IVar="-1" NCoef="0" cType="1" depth="3" nType="-99" pos="r" purity="0.0e+00" res="-0.0188295767" rms="0.0e+00"/>
          </Node>
          <Node Cut="-0.250827909" IVar="4" NCoef="0" cType="1" depth="2" nType="0" pos="r" purity="0.0e+00" res="0.0e+00" rms="0.0e+00">
            <Node Cut="0.0e+00" IVar="-1" NCoef="0" cType="1" depth="3" nType="-99" pos="l" purity="0.0e+00" res="0.00898341555" rms="0.0e+00"/>
            <Node Cut="0.451772809" IVar="4" NCoef="0" cType="1" depth="3" nType="0" pos="r" purity="0.0e+00" res="0.0e+00" rms="0.0e+00">
              <Node Cut="0.0e+00" IVar="-1" NCoef="0" cType="1" depth="4" nType="-99" pos="l" purity="0.0e+00" res="-0.0121143097" rms="0.0e+00"/>
              <Node Cut="0.0e+00" IVar="-1" NCoef="0" cType="1" depth="4" nType="-99" pos="r" purity="0.0e+00" res="0.00463365018" rms="0.0e+00"/>
            </Node>
          </Node>
        </Node>
      </Node>
    </BinaryTree>
    <BinaryTree boostWeight="1.0e+00" itree="47" type="DecisionTree">
      <Node Cut="0.238045037" IVar="1" NCoef="0" cType="1" depth="0" nType="0" pos="s" purity="0.0e+00" res="0.0e+00" rms="0.0e+00">
        <Node Cut="-0.576208293" IVar="0" NCoef="0" cType="1" depth="1" nType="0" pos="l" purity="0.0e+00" res="0.0e+00" rms="0.0e+00">
          <Node Cut="-0.773359418" IVar="1" NCoef="0" cType="1" depth="2" nType="0" pos="l" purity="0.0e+00" res="0.0e+00" rms="0.0e+00">
            <Node Cut="0.0e+00" IVar="-1" NCoef="0" cType="1" depth="3" nType="-99" pos="l" purity="0.0e+00" res="0.00633731624" rms="0.0e+00"/>
            <Node Cut="0.0e+00" IVar="-1" NCoef="0" cType="1" depth="3" nType="-99" pos="r" purity="0.0e+00" res="-0.0184969828" rms="0.0e+00"/>
          </Node>
          <Node Cut="-0.0868985802" IVar="2" NCoef="0" cType="1" depth="2" nType="0" pos="r" purity="0.0e+00" res="0.0e+00" rms="0.0e+00">
            <Node Cut="0.0e+00" IVar="-1" NCoef="0" cType="1" depth="3" nType="-99" pos="l" purity="0.0e+00" res="-0.00348884915" rms="0.0e+00"/>
            <Node Cut="-0.194129437" IVar="6" NCoef="0" cType="1" depth="3" nType="0" pos="r" purity="0.0e+00" res="0.0e+00" rms="0.0e+00">
              <Node Cut="0.0e+00" IVar="-1" NCoef="0" cType="1" depth="4" nType="-99" pos="l" purity="0.0e+00" res="0.00680399174" rms="0.0e+00"/>
              <Node Cut="0.0e+00" IVar="-1" NCoef="0" cType="1" depth="4" nType="-99" pos="r" purity="0.0e+00" res="0.0178283304" rms="0.0e+00"/>
            </Node>
          </Node>
        </Node>
        <Node Cut="0.0e+00" IVar="-1" NCoef="0" cType="1" depth="1" nType="-99" pos="r" purity="0.0e+00" res="-0.0149653172" rms="0.0e+00"/>
      </Node>
    </BinaryTree>
    <BinaryTree boostWeight="1.0e+00" itree="48" type="DecisionTree">
      <Node Cut="-0.12598671" IVar="2" NCoef="0" cType="1" depth="0" nType="0" pos="s" purity="0.0e+00" res="0.0e+00" rms="0.0e+00">
        <Node Cut="0.0e+00" IVar="-1" NCoef="0" cType="1" depth="1" nType="-99" pos="l" purity="0.0e+00" res="0.00909466576" rms="0.0e+00"/>
        <Node Cut="0.282298088" IVar="1" NCoef="0" cType="1" depth="1" nType="0" pos="r" purity="0.0e+00" res="0.0e+00" rms="0.0e+00">
          <Node Cut="-0.0830490887" IVar="2" NCoef="0" cType="1" depth="2" nType="0" pos="l" purity="0.0e+00" res="0.0e+00" rms="0.0e+00">
            <Node Cut="0.0e+00" IVar="-1" NCoef="0" cType="1" depth="3" nType="-99" pos="l" purity="0.0e+00" res="-0.0130322846" rms="0.0e+00"/>
            <Node Cut="-0.316233516" IVar="0" NCoef="0" cType="1" depth="3" nType="0" pos="r" purity="0.0e+00" res="0.0e+00" rms="0.0e+00">
              <Node Cut="0.0e+00" IVar="-1" NCoef="0" cType="1" depth="4" nType="-99" pos="l" purity="0.0e+00" res="-0.00587469619" rms="0.0e+00"/>
              <Node Cut="0.0e+00" IVar="-1" NCoef="0" cType="1" depth="4" nType="-99" pos="r" purity="0.0e+00" res="0.0169483591" rms="0.0e+00"/>
            </Node>
          </Node>
          <Node Cut="0.0e+00" IVar="-1" NCoef="0" cType="1" depth="2" nType="-99" pos="r" purity="0.0e+00" res="-0.0193559378" rms="0.0e+00"/>
        </Node>
      </Node>
    </BinaryTree>
    <BinaryTree boostWeight="1.0e+00" itree="49" type="DecisionTree">
      <Node Cut="-0.292071968" IVar="6" NCoef="0" cType="1" depth="0" nType="0" pos="s" purity="0.0e+00" res="0.0e+00" rms="0.0e+00">
        <Node Cut="0.106431387" IVar="5" NCoef="0" cType="1" depth="1" nType="0" pos="l" purity="0.0e+00" res="0.0e+00" rms="0.0e+00">
          <Node Cut="-0.513126373" IVar="6" NCoef="0" cType="1" depth="2" nType="0" pos="l" purity="0.0e+00" res="0.0e+00" rms="0.0e+00">
            <Node Cut="0.0e+00" IVar="-1" NCoef="0" cType="1" depth="3" nType="-99" pos="l" purity="0.0e+00" res="-0.0075824107" rms="0.0e+00"/>
            <Node Cut="0.0e+00" IVar="-1" NCoef="0" cType="1" depth="3" nType="-99" pos="r" purity="0.0e+00" res="0.0105533674" rms="0.0e+00"/>
          </Node>
          <Node Cut="0.0e+00" IVar="-1" NCoef="0" cType="1" depth="2" nType="-99" pos="r" purity="0.0e+00" res="0.0145956278" rms="0.0e+00"/>
        </Node>
        <Node Cut="-0.452458799" IVar="0" NCoef="0" cType="1" depth="1" nType="0" pos="r" purity="0.0e+00" res="0.0e+00" rms="0.0e+00">
          <Node Cut="0.0e+00" IVar="-1" NCoef="0" cType="1" depth="2" nType="-99" pos="l" purity="0.0e+00" res="-0.0114754587" rms="0.0e+00"/>
          <Node Cut="-0.0404851288" IVar="6" NCoef="0" cType="1" depth="2" nType="0" pos="r" purity="0.0e+00" res="0.0e+00" rms="0.0e+00">
            <Node Cut="0.0e+00" IVar="-1" NCoef="0" cType="1" depth="3" nType="-99" pos="l" purity="0.0e+00" res="-0.0114638945" rms="0.0e+00"/>
            <Node Cut="0.0e+00" IVar="-1" NCoef="0" cType="1" depth="3" nType="-99" pos="r" purity="0.0e+00" res="0.00920197554" rms="0.0e+00"/>
          </Node>
        </Node>
      </Node>
    </BinaryTree>
    <BinaryTree boostWeight="1.0e+00" itree="50" type="DecisionTree">
      <Node Cut="0.343576372" IVar="1" NCoef="0" cType="1" depth="0" nType="0" pos="s" purity="0.0e+00" res="0.0e+00" rms="0.0e+00">
        <Node Cut="0.0870154649" IVar="0" NCoef="0" cType="1" depth="1" nType="0" pos="l" purity="0.0e+00" res="0.0e+00" rms="0.0e+00">
          <Node Cut="-0.346642435" IVar="6" NCoef="0" cType="1" depth="2" nType="0" pos="l" purity="0.0e+00" res="0.0e+00" rms="0.0e+00">
            <Node Cut="-0.118088439" IVar="2" NCoef="0" cType="1" depth="3" nType="0" pos="l" purity="0.0e+00" res="0.0e+00" rms="0.0e+00">
              <Node Cut="0.0e+00" IVar="-1" NCoef="0" cType="1" depth="4" nType="-99" pos="l" purity="0.0e+00" res="0.0151251359" rms="0.0e+00"/>
              <Node Cut="0.0e+00" IVar="-1" NCoef="0" cType="1" depth="4" nType="-99" pos="r" purity="0.0e+00" res="-0.00331403757" rms="0.0e+00"/>
            </Node>
            <Node Cut="-0.111104012" IVar="2" NCoef="0" cType="1" depth="3" nType="0" pos="r" purity="0.0e+00" res="0.0e+00" rms="0.0e+00">
              <Node Cut="0.0e+00" IVar="-1" NCoef="0" cType="1" depth="4" nType="-99" pos="l" purity="0.0e+00" res="-0.0164836682" rms="0.0e+00"/>
              <Node Cut="-0.420581281" IVar="0" NCoef="0" cType="1" depth="4" nType="0" pos="r" purity="0.0e+00" res="0.0e+00" rms="0.0e+00">
                <Node Cut="0.0e+00" IVar="-1" NCoef="0" cType="1" depth="5" nType="-99" pos="l" purity="0.0e+00" res="-0.00834287424" rms="0.0e+00"/>
                <Node Cut="0.0e+00" IVar="-1" NCoef="0" cType="1" depth="5" nType="-99" pos="r" purity="0.0e+00" res="0.00703093363" rms="0.0e+00"/>
              </Node>
            </Node>
          </Node>
          <Node Cut="0.0e+00" IVar="-1" NCoef="0" cType="1" depth="2" nType="-99" pos="r" purity="0.0e+00" res="0.0162561871" rms="0.0e+00"/>
        </Node>
        <Node Cut="0.0e+00" IVar="-1" NCoef="0" cType="1" depth="1" nType="-99" pos="r" purity="0.0e+00" res="-0.0133110313" rms="0.0e+00"/>
      </Node>
    </BinaryTree>
    <BinaryTree boostWeight="1.0e+00" itree="51" type="DecisionTree">
      <Node Cut="0.619804502" IVar="7" NCoef="0" cType="1" depth="0" nType="0" pos="s" purity="0.0e+00" res="0.0e+00" rms="0.0e+00">
        <Node Cut="-0.11924538" IVar="2" NCoef="0" cType="1" depth="1" nType="0" pos="l" purity="0.0e+00" res="0.0e+00" rms="0.0e+00">
          <Node Cut="0.0e+00" IVar="-1" NCoef="0" cType="1" depth="2" nType="-99" pos="l" purity="0.0e+00" res="0.0039763595" rms="0.0e+00"/>
          <Node Cut="-0.0919483975" IVar="2" NCoef="0" cType="1" depth="2" nType="0" pos="r" purity="0.0e+00" res="0.0e+00" rms="0.0e+00">
            <Node Cut="0.0e+00" IVar="-1" NCoef="0" cType="1" depth="3" nType="-99" pos="l" purity="0.0e+00" res="-0.0182217043" rms="0.0e+00"/>
            <Node Cut="-0.0159799885" IVar="2" NCoef="0" cType="1" depth="3" nType="0" pos="r" purity="0.0e+00" res="0.0e+00" rms="0.0e+00">
              <Node Cut="-0.122897267" IVar="7" NCoef="0" cType="1" depth="4" nType="0" pos="l" purity="0.0e+00" res="0.0e+00" rms="0.0e+00">
                <Node Cut="0.0e+00" IVar="-1" NCoef="0" cType="1" depth="5" nType="-99" pos="l" purity="0.0e+00" res="0.0110389311" rms="0.0e+00"/>
                <Node Cut="0.0e+00" IVar="-1" NCoef="0" cType="1" depth="5" nType="-99" pos="r" purity="0.0e+00" res="-0.00262277271" rms="0.0e+00"/>
              </Node>
              <Node Cut="0.0e+00" IVar="-1" NCoef="0" cType="1" depth="4" nType="-99" pos="r" purity="0.0e+00" res="-0.011485735" rms="0.0e+00"/>
            </Node>
          </Node>
        </Node>
        <Node Cut="0.0e+00" IVar="-1" NCoef="0" cType="1" depth="1" nType="-99" pos="r" purity="0.0e+00" res="0.0129566779" rms="0.0e+00"/>
      </Node>
    </BinaryTree>
    <BinaryTree boostWeight="1.0e+00" itree="52" type="DecisionTree">
      <Node Cut="0.766320586" IVar="3" NCoef="0" cType="1" depth="0" nType="0" pos="s" purity="0.0e+00" res="0.0e+00" rms="0.0e+00">
        <Node Cut="-0.630435228" IVar="0" NCoef="0" cType="1" depth="1" nType="0" pos="l" purity="0.0e+00" res="0.0e+00" rms="0.0e+00">
          <Node Cut="0.0e+00" IVar="-1" NCoef="0" cType="1" depth="2" nType="-99" pos="l" purity="0.0e+00" res="-0.0122274337" rms="0.0e+00"/>
          <Node Cut="-0.114897594" IVar="2" NCoef="0" cType="1" depth="2" nType="0" pos="r" purity="0.0e+00" res="0.0e+00" rms="0.0e+00">
