<?xml version="1.0"?>
<MethodSetup Method="BDT::BDT">
  <Variables NVar="8">
    <Variable Expression="f0" Internal="f0" Label="f0" Max="0.0e+00" Min="0.0e+00" Title="f0" Type="F" Unit="" VarIndex="0"/>
    <Variable Expression="f1" Internal="f1" Label="f1" Max="0.0e+00" Min="0.0e+00" Title="f1" Type="F" Unit="" VarIndex="1"/>
    <Variable Expression="f2" Internal="f2" Label="f2" Max="0.0e+00" Min="0.0e+00" Title="f2" Type="F" Unit="" VarIndex="2"/>
    <Variable Expression="f3" Internal="f3" Label="f3" Max="0.0e+00" Min="0.0e+00" Title="f3" Type="F" Unit="" VarIndex="3"/>
    <Variable Expression="f4" Internal="f4" Label="f4" Max="0.0e+00" Min="0.0e+00" Title="f4" Type="F" Unit="" VarIndex="4"/>
    <Variable Expression="f5" Internal="f5" Label="f5" Max="0.0e+00" Min="0.0e+00" Title="f5" Type="F" Unit="" VarIndex="5"/>
    <Variable Expression="f6" Internal="f6" Label="f6" Max="0.0e+00" Min="0.0e+00" Title="f6" Type="F" Unit="" VarIndex="6"/>
    <Variable Expression="f7" Internal="f7" Label="f7" Max="0.0e+00" Min="0.0e+00" Title="f7" Type="F" Unit="" VarIndex="7"/>
  </Variables>
  <GeneralInfo>
    <Info name="Creator" value="xgboost2TMVA"/>
    <Info name="AnalysisType" value="Classification"/>
  </GeneralInfo>
  <Options>
    <Option modified="No" name="NodePurityLimit">5.00e-01</Option>
    <Option modified="Yes" name="BoostType">Grad</Option>
  </Options>
  <Weights AnalysisType="1" NTrees="500">
    <BinaryTree boostWeight="1.0e+00" itree="0" type="DecisionTree">
      <Node Cut="-0.476160645" IVar="0" NCoef="0" cType="1" depth="0" nType="0" pos="s" purity="0.0e+00" res="0.0e+00" rms="0.0e+00">
        <Node Cut="-1.219136" IVar="6" NCoef="0" cType="1" depth="1" nType="0" pos="l" purity="0.0e+00" res="0.0e+00" rms="0.0e+00">
          <Node Cut="0.0e+00" IVar="-1" NCoef="0" cType="1" depth="2" nType="-99" pos="l" purity="0.0e+00" res="-0.0635122582" rms="0.0e+00"/>
          <Node Cut="0.0e+00" IVar="-1" NCoef="0" cType="1" depth="2" nType="-99" pos="r" purity="0.0e+00" res="-0.0331758671" rms="0.0e+00"/>
        </Node>
        <Node Cut="-1.28065276" IVar="6" NCoef="0" cType="1" depth="1" nType="0" pos="r" purity="0.0e+00" res="0.0e+00" rms="0.0e+00">
          <Node Cut="0.0e+00" IVar="-1" NCoef="0" cType="1" depth="2" nType="-99" pos="l" purity="0.0e+00" res="-0.0351710729" rms="0.0e+00"/>
          <Node Cut="0.21141988" IVar="1" NCoef="0" cType="1" depth="2" nType="0" pos="r" purity="0.0e+00" res="0.0e+00" rms="0.0e+00">
            <Node Cut="0.00963904709" IVar="0" NCoef="0" cType="1" depth="3" nType="0" pos="l" purity="0.0e+00" res="0.0e+00" rms="0.0e+00">
              <Node Cut="-0.315275967" IVar="1" NCoef="0" cType="1" depth="4" nType="0" pos="l" purity="0.0e+00" res="0.0e+00" rms="0.0e+00">
                <Node Cut="0.0e+00" IVar="-1" NCoef="0" cType="1" depth="5" nType="-99" pos="l" purity="0.0e+00" res="0.0511268862" rms="0.0e+00"/>
                <Node Cut="0.0e+00" IVar="-1" NCoef="0" cType="1" depth="5" nType="-99" pos="r" purity="0.0e+00" res="0.0141396318" rms="0.0e+00"/>
              </Node>
              <Node Cut="0.0e+00" IVar="-1" NCoef="0" cType="1" depth="4" nType="-99" pos="r" purity="0.0e+00" res="0.0652459636" rms="0.0e+00"/>
            </Node>
            <Node Cut="0.0e+00" IVar="-1" NCoef="0" cType="1" depth="3" nType="-99" pos="r" purity="0.0e+00" res="0.0103068948" rms="0.0e+00"/>
          </Node>
        </Node>
      </Node>
    </BinaryTree>
    <BinaryTree boostWeight="1.0e+00" itree="1" type="DecisionTree">
      <Node Cut="-0.479219913" IVar="0" NCoef="0" cType="1" depth="0" nType="0" pos="s" purity="0.0e+00" res="0.0e+00" rms="0.0e+00">
        <Node Cut="-1.22130156" IVar="6" NCoef="0" cType="1" depth="1" nType="0" pos="l" purity="0.0e+00" res="0.0e+00" rms="0.0e+00">
          <Node Cut="0.0e+00" IVar="-1" NCoef="0" cType="1" depth="2" nType="-99" pos="l" purity="0.0e+00" res="-0.0626917034" rms="0.0e+00"/>
          <Node Cut="0.0e+00" IVar="-1" NCoef="0" cType="1" depth="2" nType="-99" pos="r" purity="0.0e+00" res="-0.030117685" rms="0.0e+00"/>
        </Node>
        <Node Cut="-1.24166763" IVar="6" NCoef="0" cType="1" depth="1" nType="0" pos="r" purity="0.0e+00" res="0.0e+00" rms="0.0e+00">
          <Node Cut="0.0e+00" IVar="-1" NCoef="0" cType="1" depth="2" nType="-99" pos="l" purity="0.0e+00" res="-0.0313187838" rms="0.0e+00"/>
          <Node Cut="0.369477749" IVar="1" NCoef="0" cType="1" depth="2" nType="0" pos="r" purity="0.0e+00" res="0.0e+00" rms="0.0e+00">
            <Node Cut="-0.291795135" IVar="0" NCoef="0" cType="1" depth="3" nType="0" pos="l" purity="0.0e+00" res="0.0e+00" rms="0.0e+00">
              <Node Cut="0.0e+00" IVar="-1" NCoef="0" cType="1" depth="4" nType="-99" pos="l" purity="0.0e+00" res="0.0220670048" rms="0.0e+00"/>
              <Node Cut="-0.218842" IVar="1" NCoef="0" cType="1" depth="4" nType="0" pos="r" purity="0.0e+00" res="0.0e+00" rms="0.0e+00">
                <Node Cut="0.0e+00" IVar="-1" NCoef="0" cType="1" depth="5" nType="-99" pos="l" purity="0.0e+00" res="0.062915884" rms="0.0e+00"/>
                <Node Cut="0.0e+00" IVar="-1" NCoef="0" cType="1" depth="5" nType="-99" pos="r" purity="0.0e+00" res="0.0358933732" rms="0.0e+00"/>
              </Node>
            </Node>
            <Node Cut="0.0e+00" IVar="-1" NCoef="0" cType="1" depth="3" nType="-99" pos="r" purity="0.0e+00" res="0.00365283783" rms="0.0e+00"/>
          </Node>
        </Node>
      </Node>
    </BinaryTree>
    <BinaryTree boostWeight="1.0e+00" itree="2" type="DecisionTree">
      <Node Cut="-0.472393274" IVar="0" NCoef="0" cType="1" depth="0" nType="0" pos="s" purity="0.0e+00" res="0.0e+00" rms="0.0e+00">
        <Node Cut="-1.18216276" IVar="6" NCoef="0" cType="1" depth="1" nType="0" pos="l" purity="0.0e+00" res="0.0e+00" rms="0.0e+00">
          <Node Cut="0.0e+00" IVar="-1" NCoef="0" cType="1" depth="2" nType="-99" pos="l" purity="0.0e+00" res="-0.0609954372" rms="0.0e+00"/>
          <Node Cut="0.0e+00" IVar="-1" NCoef="0" cType="1" depth="2" nType="-99" pos="r" purity="0.0e+00" res="-0.0301694032" rms="0.0e+00"/>
        </Node>
        <Node Cut="-1.21061206" IVar="6" NCoef="0" cType="1" depth="1" nType="0" pos="r" purity="0.0e+00" res="0.0e+00" rms="0.0e+00">
          <Node Cut="0.0e+00" IVar="-1" NCoef="0" cType="1" depth="2" nType="-99" pos="l" purity="0.0e+00" res="-0.0277770143" rms="0.0e+00"/>
          <Node Cut="0.315455556" IVar="1" NCoef="0" cType="1" depth="2" nType="0" pos="r" purity="0.0e+00" res="0.0e+00" rms="0.0e+00">
            <Node Cut="-0.456231296" IVar="4" NCoef="0" cType="1" depth="3" nType="0" pos="l" purity="0.0e+00" res="0.0e+00" rms="0.0e+00">
              <Node Cut="0.0e+00" IVar="-1" NCoef="0" cType="1" depth="4" nType="-99" pos="l" purity="0.0e+00" res="0.0596488826" rms="0.0e+00"/>
              <Node Cut="0.432082146" IVar="4" NCoef="0" cType="1" depth="4" nType="0" pos="r" purity="0.0e+00" res="0.0e+00" rms="0.0e+00">
                <Node Cut="-0.190759152" IVar="0" NCoef="0" cType="1" depth="5" nType="0" pos="l" purity="0.0e+00" res="0.0e+00" rms="0.0e+00">
                  <Node Cut="0.0e+00" IVar="-1" NCoef="0" cType="1" depth="6" nType="-99" pos="l" purity="0.0e+00" res="0.00946788583" rms="0.0e+00"/>
                  <Node Cut="0.0e+00" IVar="-1" NCoef="0" cType="1" depth="6" nType="-99" pos="r" purity="0.0e+00" res="0.0325234272" rms="0.0e+00"/>
                </Node>
                <Node Cut="0.0e+00" IVar="-1" NCoef="0" cType="1" depth="5" nType="-99" pos="r" purity="0.0e+00" res="0.0543846488" rms="0.0e+00"/>
              </Node>
            </Node>
            <Node Cut="0.0e+00" IVar="-1" NCoef="0" cType="1" depth="3" nType="-99" pos="r" purity="0.0e+00" res="0.00442129467" rms="0.0e+00"/>
          </Node>
        </Node>
      </Node>
    </BinaryTree>
    <BinaryTree boostWeight="1.0e+00" itree="3" type="DecisionTree">
      <Node Cut="-0.462360084" IVar="0" NCoef="0" cType="1" depth="0" nType="0" pos="s" purity="0.0e+00" res="0.0e+00" rms="0.0e+00">
        <Node Cut="-1.24257922" IVar="6" NCoef="0" cType="1" depth="1" nType="0" pos="l" purity="0.0e+00" res="0.0e+00" rms="0.0e+00">
          <Node Cut="0.0e+00" IVar="-1" NCoef="0" cType="1" depth="2" nType="-99" pos="l" purity="0.0e+00" res="-0.0592271462" rms="0.0e+00"/>
          <Node Cut="0.0e+00" IVar="-1" NCoef="0" cType="1" depth="2" nType="-99" pos="r" purity="0.0e+00" res="-0.0272755604" rms="0.0e+00"/>
        </Node>
        <Node Cut="-1.14010978" IVar="6" NCoef="0" cType="1" depth="1" nType="0" pos="r" purity="0.0e+00" res="0.0e+00" rms="0.0e+00">
          <Node Cut="0.0e+00" IVar="-1" NCoef="0" cType="1" depth="2" nType="-99" pos="l" purity="0.0e+00" res="-0.0242001563" rms="0.0e+00"/>
          <Node Cut="0.154701591" IVar="1" NCoef="0" cType="1" depth="2" nType="0" pos="r" purity="0.0e+00" res="0.0e+00" rms="0.0e+00">
            <Node Cut="-0.0428037867" IVar="0" NCoef="0" cType="1" depth="3" nType="0" pos="l" purity="0.0e+00" res="0.0e+00" rms="0.0e+00">
              <Node Cut="-0.376564562" IVar="1" NCoef="0" cType="1" depth="4" nType="0" pos="l" purity="0.0e+00" res="0.0e+00" rms="0.0e+00">
                <Node Cut="0.0e+00" IVar="-1" NCoef="0" cType="1" depth="5" nType="-99" pos="l" purity="0.0e+00" res="0.0447337255" rms="0.0e+00"/>
                <Node Cut="0.0e+00" IVar="-1" NCoef="0" cType="1" depth="5" nType="-99" pos="r" purity="0.0e+00" res="0.0118904086" rms="0.0e+00"/>
              </Node>
              <Node Cut="0.0e+00" IVar="-1" NCoef="0" cType="1" depth="4" nType="-99" pos="r" purity="0.0e+00" res="0.0502173267" rms="0.0e+00"/>
            </Node>
            <Node Cut="0.0e+00" IVar="-1" NCoef="0" cType="1" depth="3" nType="-99" pos="r" purity="0.0e+00" res="0.00708528189" rms="0.0e+00"/>
          </Node>
        </Node>
      </Node>
    </BinaryTree>
    <BinaryTree boostWeight="1.0e+00" itree="4" type="DecisionTree">
      <Node Cut="-0.504101157" IVar="0" NCoef="0" cType="1" depth="0" nType="0" pos="s" purity="0.0e+00" res="0.0e+00" rms="0.0e+00">
        <Node Cut="-1.21915662" IVar="6" NCoef="0" cType="1" depth="1" nType="0" pos="l" purity="0.0e+00" res="0.0e+00" rms="0.0e+00">
          <Node Cut="0.0e+00" IVar="-1" NCoef="0" cType="1" depth="2" nType="-99" pos="l" purity="0.0e+00" res="-0.0589550436" rms="0.0e+00"/>
          <Node Cut="0.0e+00" IVar="-1" NCoef="0" cType="1" depth="2" nType="-99" pos="r" purity="0.0e+00" res="-0.0340103991" rms="0.0e+00"/>
        </Node>
        <Node Cut="-1.24258709" IVar="6" NCoef="0" cType="1" depth="1" nType="0" pos="r" purity="0.0e+00" res="0.0e+00" rms="0.0e+00">
          <Node Cut="0.0e+00" IVar="-1" NCoef="0" cType="1" depth="2" nType="-99" pos="l" purity="0.0e+00" res="-0.0292996671" rms="0.0e+00"/>
          <Node Cut="0.406587332" IVar="1" NCoef="0" cType="1" depth="2" nType="0" pos="r" purity="0.0e+00" res="0.0e+00" rms="0.0e+00">
            <Node Cut="-0.324827403" IVar="0" NCoef="0" cType="1" depth="3" nType="0" pos="l" purity="0.0e+00" res="0.0e+00" rms="0.0e+00">
              <Node Cut="0.0e+00" IVar="-1" NCoef="0" cType="1" depth="4" nType="-99" pos="l" purity="0.0e+00" res="0.014333427" rms="0.0e+00"/>
              <Node Cut="-0.201872602" IVar="1" NCoef="0" cType="1" depth="4" nType="0" pos="r" purity="0.0e+00" res="0.0e+00" rms="0.0e+00">
                <Node Cut="0.0e+00" IVar="-1" NCoef="0" cType="1" depth="5" nType="-99" pos="l" purity="0.0e+00" res="0.0461049117" rms="0.0e+00"/>
                <Node Cut="0.0e+00" IVar="-1" NCoef="0" cType="1" depth="5" nType="-99" pos="r" purity="0.0e+00" res="0.0252601504" rms="0.0e+00"/>
              </Node>
            </Node>
            <Node Cut="0.0e+00" IVar="-1" NCoef="0" cType="1" depth="3" nType="-99" pos="r" purity="0.0e+00" res="0.0038334839" rms="0.0e+00"/>
          </Node>
        </Node>
      </Node>
    </BinaryTree>
    <BinaryTree boostWeight="1.0e+00" itree="5" type="DecisionTree">
      <Node Cut="-0.504101813" IVar="0" NCoef="0" cType="1" depth="0" nType="0" pos="s" purity="0.0e+00" res="0.0e+00" rms="0.0e+00">
        <Node Cut="-1.23478079" IVar="6" NCoef="0" cType="1" depth="1" nType="0" pos="l" purity="0.0e+00" res="0.0e+00" rms="0.0e+00">
          <Node Cut="0.0e+00" IVar="-1" NCoef="0" cType="1" depth="2" nType="-99" pos="l" purity="0.0e+00" res="-0.0579189174" rms="0.0e+00"/>
          <Node Cut="0.0e+00" IVar="-1" NCoef="0" cType="1" depth="2" nType="-99" pos="r" purity="0.0e+00" res="-0.0321863554" rms="0.0e+00"/>
        </Node>
        <Node Cut="-1.22826076" IVar="6" NCoef="0" cType="1" depth="1" nType="0" pos="r" purity="0.0e+00" res="0.0e+00" rms="0.0e+00">
          <Node Cut="0.0e+00" IVar="-1" NCoef="0" cType="1" depth="2" nType="-99" pos="l" purity="0.0e+00" res="-0.0263445061" rms="0.0e+00"/>
          <Node Cut="0.394179821" IVar="1" NCoef="0" cType="1" depth="2" nType="0" pos="r" purity="0.0e+00" res="0.0e+00" rms="0.0e+00">
            <Node Cut="-0.28374961" IVar="0" NCoef="0" cType="1" depth="3" nType="0" pos="l" purity="0.0e+00" res="0.0e+00" rms="0.0e+00">
              <Node Cut="0.0e+00" IVar="-1" NCoef="0" cType="1" depth="4" nType="-99" pos="l" purity="0.0e+00" res="0.0148928231" rms="0.0e+00"/>
              <Node Cut="-0.092359364" IVar="1" NCoef="0" cType="1" depth="4" nType="0" pos="r" purity="0.0e+00" res="0.0e+00" rms="0.0e+00">
                <Node Cut="-0.352985501" IVar="1" NCoef="0" cType="1" depth="5" nType="0" pos="l" purity="0.0e+00" res="0.0e+00" rms="0.0e+00">
                  <Node Cut="0.0e+00" IVar="-1" NCoef="0" cType="1" depth="6" nType="-99" pos="l" purity="0.0e+00" res="0.0483049899" rms="0.0e+00"/>
                  <Node Cut="0.0e+00" IVar="-1" NCoef="0" cType="1" depth="6" nType="-99" pos="r" purity="0.0e+00" res="0.0365864411" rms="0.0e+00"/>
                </Node>
                <Node Cut="0.0e+00" IVar="-1" NCoef="0" cType="1" depth="5" nType="-99" pos="r" purity="0.0e+00" res="0.0213761684" rms="0.0e+00"/>
              </Node>
            </Node>
            <Node Cut="0.0e+00" IVar="-1" NCoef="0" cType="1" depth="3" nType="-99" pos="r" purity="0.0e+00" res="0.00121841358" rms="0.0e+00"/>
          </Node>
        </Node>
      </Node>
    </BinaryTree>
    <BinaryTree boostWeight="1.0e+00" itree="6" type="DecisionTree">
      <Node Cut="-0.510226429" IVar="0" NCoef="0" cType="1" depth="0" nType="0" pos="s" purity="0.0e+00" res="0.0e+00" rms="0.0e+00">
        <Node Cut="-1.20184803" IVar="6" NCoef="0" cType="1" depth="1" nType="0" pos="l" purity="0.0e+00" res="0.0e+00" rms="0.0e+00">
          <Node Cut="0.0e+00" IVar="-1" NCoef="0" cType="1" depth="2" nType="-99" pos="l" purity="0.0e+00" res="-0.0566731356" rms="0.0e+00"/>
          <Node Cut="0.0e+00" IVar="-1" NCoef="0" cType="1" depth="2" nType="-99" pos="r" purity="0.0e+00" res="-0.0303423591" rms="0.0e+00"/>
        </Node>
        <Node Cut="-1.2277106" IVar="6" NCoef="0" cType="1" depth="1" nType="0" pos="r" purity="0.0e+00" res="0.0e+00" rms="0.0e+00">
          <Node Cut="0.0e+00" IVar="-1" NCoef="0" cType="1" depth="2" nType="-99" pos="l" purity="0.0e+00" res="-0.0240895469" rms="0.0e+00"/>
          <Node Cut="-0.494806051" IVar="1" NCoef="0" cType="1" depth="2" nType="0" pos="r" purity="0.0e+00" res="0.0e+00" rms="0.0e+00">
            <Node Cut="0.0e+00" IVar="-1" NCoef="0" cType="1" depth="3" nType="-99" pos="l" purity="0.0e+00" res="0.0391798802" rms="0.0e+00"/>
            <Node Cut="0.0516992435" IVar="0" NCoef="0" cType="1" depth="3" nType="0" pos="r" purity="0.0e+00" res="0.0e+00" rms="0.0e+00">
              <Node Cut="-0.178683132" IVar="2" NCoef="0" cType="1" depth="4" nType="0" pos="l" purity="0.0e+00" res="0.0e+00" rms="0.0e+00">
                <Node Cut="0.0e+00" IVar="-1" NCoef="0" cType="1" depth="5" nType="-99" pos="l" purity="0.0e+00" res="-0.000227322016" rms="0.0e+00"/>
                <Node Cut="0.0e+00" IVar="-1" NCoef="0" cType="1" depth="5" nType="-99" pos="r" purity="0.0e+00" res="0.0245438386" rms="0.0e+00"/>
              </Node>
              <Node Cut="0.0195181817" IVar="1" NCoef="0" cType="1" depth="4" nType="0" pos="r" purity="0.0e+00" res="0.0e+00" rms="0.0e+00">
                <Node Cut="0.0e+00" IVar="-1" NCoef="0" cType="1" depth="5" nType="-99" pos="l" purity="0.0e+00" res="0.0411677398" rms="0.0e+00"/>
                <Node Cut="0.0e+00" IVar="-1" NCoef="0" cType="1" depth="5" nType="-99" pos="r" purity="0.0e+00" res="0.012934166" rms="0.0e+00"/>
              </Node>
            </Node>
          </Node>
        </Node>
      </Node>
    </BinaryTree>
    <BinaryTree boostWeight="1.0e+00" itree="7" type="DecisionTree">
      <Node Cut="-0.509278417" IVar="0" NCoef="0" cType="1" depth="0" nType="0" pos="s" purity="0.0e+00" res="0.0e+00" rms="0.0e+00">
        <Node Cut="-1.32753944" IVar="6" NCoef="0" cType="1" depth="1" nType="0" pos="l" purity="0.0e+00" res="0.0e+00" rms="0.0e+00">
          <Node Cut="0.0e+00" IVar="-1" NCoef="0" cType="1" depth="2" nType="-99" pos="l" purity="0.0e+00" res="-0.0566345155" rms="0.0e+00"/>
          <Node Cut="0.0e+00" IVar="-1" NCoef="0" cType="1" depth="2" nType="-99" pos="r" purity="0.0e+00" res="-0.0301531982" rms="0.0e+00"/>
        </Node>
        <Node Cut="-0.294000059" IVar="2" NCoef="0" cType="1" depth="1" nType="0" pos="r" purity="0.0e+00" res="0.0e+00" rms="0.0e+00">
          <Node Cut="0.0e+00" IVar="-1" NCoef="0" cType="1" depth="2" nType="-99" pos="l" purity="0.0e+00" res="-0.020464411" rms="0.0e+00"/>
          <Node Cut="0.481636524" IVar="1" NCoef="0" cType="1" depth="2" nType="0" pos="r" purity="0.0e+00" res="0.0e+00" rms="0.0e+00">
            <Node Cut="-0.477275312" IVar="4" NCoef="0" cType="1" depth="3" nType="0" pos="l" purity="0.0e+00" res="0.0e+00" rms="0.0e+00">
              <Node Cut="0.0e+00" IVar="-1" NCoef="0" cType="1" depth="4" nType="-99" pos="l" purity="0.0e+00" res="0.0438796394" rms="0.0e+00"/>
              <Node Cut="0.451992512" IVar="4" NCoef="0" cType="1" depth="4" nType="0" pos="r" purity="0.0e+00" res="0.0e+00" rms="0.0e+00">
                <Node Cut="-0.249113679" IVar="0" NCoef="0" cType="1" depth="5" nType="0" pos="l" purity="0.0e+00" res="0.0e+00" rms="0.0e+00">
                  <Node Cut="0.0e+00" IVar="-1" NCoef="0" cType="1" depth="6" nType="-99" pos="l" purity="0.0e+00" res="-0.00241742865" rms="0.0e+00"/>
                  <Node Cut="0.0e+00" IVar="-1" NCoef="0" cType="1" depth="6" nType="-99" pos="r" purity="0.0e+00" res="0.0249066222" rms="0.0e+00"/>
                </Node>
                <Node Cut="0.0e+00" IVar="-1" NCoef="0" cType="1" depth="5" nType="-99" pos="r" purity="0.0e+00" res="0.0402879417" rms="0.0e+00"/>
              </Node>
            </Node>
            <Node Cut="0.0e+00" IVar="-1" NCoef="0" cType="1" depth="3" nType="-99" pos="r" purity="0.0e+00" res="-0.00687843701" rms="0.0e+00"/>
          </Node>
        </Node>
      </Node>
    </BinaryTree>
    <BinaryTree boostWeight="1.0e+00" itree="8" type="DecisionTree">
      <Node Cut="-0.504101157" IVar="0" NCoef="0" cType="1" depth="0" nType="0" pos="s" purity="0.0e+00" res="0.0e+00" rms="0.0e+00">
        <Node Cut="-1.18216276" IVar="6" NCoef="0" cType="1" depth="1" nType="0" pos="l" purity="0.0e+00" res="0.0e+00" rms="0.0e+00">
          <Node Cut="0.0e+00" IVar="-1" NCoef="0" cType="1" depth="2" nType="-99" pos="l" purity="0.0e+00" res="-0.0542754047" rms="0.0e+00"/>
          <Node Cut="0.0e+00" IVar="-1" NCoef="0" cType="1" depth="2" nType="-99" pos="r" purity="0.0e+00" res="-0.026400527" rms="0.0e+00"/>
        </Node>
        <Node Cut="-1.18033314" IVar="6" NCoef="0" cType="1" depth="1" nType="0" pos="r" purity="0.0e+00" res="0.0e+00" rms="0.0e+00">
          <Node Cut="0.0e+00" IVar="-1" NCoef="0" cType="1" depth="2" nType="-99" pos="l" purity="0.0e+00" res="-0.0199753772" rms="0.0e+00"/>
          <Node Cut="0.373448074" IVar="1" NCoef="0" cType="1" depth="2" nType="0" pos="r" purity="0.0e+00" res="0.0e+00" rms="0.0e+00">
            <Node Cut="-0.472564578" IVar="4" NCoef="0" cType="1" depth="3" nType="0" pos="l" purity="0.0e+00" res="0.0e+00" rms="0.0e+00">
              <Node Cut="0.0e+00" IVar="-1" NCoef="0" cType="1" depth="4" nType="-99" pos="l" purity="0.0e+00" res="0.0408835858" rms="0.0e+00"/>
              <Node Cut="0.452048361" IVar="4" NCoef="0" cType="1" depth="4" nType="0" pos="r" purity="0.0e+00" res="0.0e+00" rms="0.0e+00">
                <Node Cut="-0.274199337" IVar="0" NCoef="0" cType="1" depth="5" nType="0" pos="l" purity="0.0e+00" res="0.0e+00" rms="0.0e+00">
                  <Node Cut="0.0e+00" IVar="-1" NCoef="0" cType="1" depth="6" nType="-99" pos="l" purity="0.0e+00" res="-0.00282513746" rms="0.0e+00"/>
                  <Node Cut="0.0e+00" IVar="-1" NCoef="0" cType="1" depth="6" nType="-99" pos="r" purity="0.0e+00" res="0.0190905649" rms="0.0e+00"/>
                </Node>
                <Node Cut="0.0e+00" IVar="-1" NCoef="0" cType="1" depth="5" nType="-99" pos="r" purity="0.0e+00" res="0.038988851" rms="0.0e+00"/>
              </Node>
            </Node>
            <Node Cut="0.0e+00" IVar="-1" NCoef="0" cType="1" depth="3" nType="-99" pos="r" purity="0.0e+00" res="0.000904191751" rms="0.0e+00"/>
          </Node>
        </Node>
      </Node>
    </BinaryTree>
    <BinaryTree boostWeight="1.0e+00" itree="9" type="DecisionTree">
      <Node Cut="-0.50253576" IVar="0" NCoef="0" cType="1" depth="0" nType="0" pos="s" purity="0.0e+00" res="0.0e+00" rms="0.0e+00">
        <Node Cut="-1.23478079" IVar="6" NCoef="0" cType="1" depth="1" nType="0" pos="l" purity="0.0e+00" res="0.0e+00" rms="0.0e+00">
          <Node Cut="0.0e+00" IVar="-1" NCoef="0" cType="1" depth="2" nType="-99" pos="l" purity="0.0e+00" res="-0.0532899201" rms="0.0e+00"/>
          <Node Cut="0.0e+00" IVar="-1" NCoef="0" cType="1" depth="2" nType="-99" pos="r" purity="0.0e+00" res="-0.0301970784" rms="0.0e+00"/>
        </Node>
        <Node Cut="-1.14095521" IVar="6" NCoef="0" cType="1" depth="1" nType="0" pos="r" purity="0.0e+00" res="0.0e+00" rms="0.0e+00">
          <Node Cut="0.0e+00" IVar="-1" NCoef="0" cType="1" depth="2" nType="-99" pos="l" purity="0.0e+00" res="-0.0170174502" rms="0.0e+00"/>
          <Node Cut="-0.495029122" IVar="1" NCoef="0" cType="1" depth="2" nType="0" pos="r" purity="0.0e+00" res="0.0e+00" rms="0.0e+00">
            <Node Cut="0.0e+00" IVar="-1" NCoef="0" cType="1" depth="3" nType="-99" pos="l" purity="0.0e+00" res="0.0352372639" rms="0.0e+00"/>
            <Node Cut="-0.248196632" IVar="2" NCoef="0" cType="1" depth="3" nType="0" pos="r" purity="0.0e+00" res="0.0e+00" rms="0.0e+00">
              <Node Cut="0.0e+00" IVar="-1" NCoef="0" cType="1" depth="4" nType="-99" pos="l" purity="0.0e+00" res="0.00153047463" rms="0.0e+00"/>
              <Node Cut="0.282242596" IVar="1" NCoef="0" cType="1" depth="4" nType="0" pos="r" purity="0.0e+00" res="0.0e+00" rms="0.0e+00">
                <Node Cut="-0.910661101" IVar="3" NCoef="0" cType="1" depth="5" nType="0" pos="l" purity="0.0e+00" res="0.0e+00" rms="0.0e+00">
                  <Node Cut="0.0e+00" IVar="-1" NCoef="0" cType="1" depth="6" nType="-99" pos="l" purity="0.0e+00" res="0.016856892" rms="0.0e+00"/>
                  <Node Cut="0.0e+00" IVar="-1" NCoef="0" cType="1" depth="6" nType="-99" pos="r" purity="0.0e+00" res="0.0303713176" rms="0.0e+00"/>
                </Node>
                <Node Cut="0.0e+00" IVar="-1" NCoef="0" cType="1" depth="5" nType="-99" pos="r" purity="0.0e+00" res="0.00484787067" rms="0.0e+00"/>
              </Node>
            </Node>
          </Node>
        </Node>
      </Node>
    </BinaryTree>
    <BinaryTree boostWeight="1.0e+00" itree="10" type="DecisionTree">
      <Node Cut="-1.40284431" IVar="6" NCoef="0" cType="1" depth="0" nType="0" pos="s" purity="0.0e+00" res="0.0e+00" rms="0.0e+00">
        <Node Cut="0.0e+00" IVar="-1" NCoef="0" cType="1" depth="1" nType="-99" pos="l" purity="0.0e+00" res="-0.0457476899" rms="0.0e+00"/>
        <Node Cut="-0.502515674" IVar="0" NCoef="0" cType="1" depth="1" nType="0" pos="r" purity="0.0e+00" res="0.0e+00" rms="0.0e+00">
          <Node Cut="0.0e+00" IVar="-1" NCoef="0" cType="1" depth="2" nType="-99" pos="l" purity="0.0e+00" res="-0.0271023419" rms="0.0e+00"/>
          <Node Cut="0.413037062" IVar="1" NCoef="0" cType="1" depth="2" nType="0" pos="r" purity="0.0e+00" res="0.0e+00" rms="0.0e+00">
            <Node Cut="0.0170194525" IVar="0" NCoef="0" cType="1" depth="3" nType="0" pos="l" purity="0.0e+00" res="0.0e+00" rms="0.0e+00">
              <Node Cut="-0.410348833" IVar="1" NCoef="0" cType="1" depth="4" nType="0" pos="l" purity="0.0e+00" res="0.0e+00" rms="0.0e+00">
                <Node Cut="0.0e+00" IVar="-1" NCoef="0" cType="1" depth="5" nType="-99" pos="l" purity="0.0e+00" res="0.0269865599" rms="0.0e+00"/>
                <Node Cut="0.0e+00" IVar="-1" NCoef="0" cType="1" depth="5" nType="-99" pos="r" purity="0.0e+00" res="0.00605798746" rms="0.0e+00"/>
              </Node>
              <Node Cut="0.29364711" IVar="6" NCoef="0" cType="1" depth="4" nType="0" pos="r" purity="0.0e+00" res="0.0e+00" rms="0.0e+00">
                <Node Cut="0.0e+00" IVar="-1" NCoef="0" cType="1" depth="5" nType="-99" pos="l" purity="0.0e+00" res="0.0342675857" rms="0.0e+00"/>
                <Node Cut="0.0e+00" IVar="-1" NCoef="0" cType="1" depth="5" nType="-99" pos="r" purity="0.0e+00" res="0.0230766982" rms="0.0e+00"/>
              </Node>
            </Node>
            <Node Cut="0.0e+00" IVar="-1" NCoef="0" cType="1" depth="3" nType="-99" pos="r" purity="0.0e+00" res="5.94802368e-05" rms="0.0e+00"/>
          </Node>
        </Node>
      </Node>
    </BinaryTree>
    <BinaryTree boostWeight="1.0e+00" itree="11" type="DecisionTree">
      <Node Cut="-0.510322332" IVar="0" NCoef="0" cType="1" depth="0" nType="0" pos="s" purity="0.0e+00" res="0.0e+00" rms="0.0e+00">
        <Node Cut="0.0e+00" IVar="-1" NCoef="0" cType="1" depth="1" nType="-99" pos="l" purity="0.0e+00" res="-0.0390394591" rms="0.0e+00"/>
        <Node Cut="-0.291884243" IVar="2" NCoef="0" cType="1" depth="1" nType="0" pos="r" purity="0.0e+00" res="0.0e+00" rms="0.0e+00">
          <Node Cut="0.0e+00" IVar="-1" NCoef="0" cType="1" depth="2" nType="-99" pos="l" purity="0.0e+00" res="-0.0160087552" rms="0.0e+00"/>
          <Node Cut="0.461665154" IVar="1" NCoef="0" cType="1" depth="2" nType="0" pos="r" purity="0.0e+00" res="0.0e+00" rms="0.0e+00">
            <Node Cut="-0.33200109" IVar="0" NCoef="0" cType="1" depth="3" nType="0" pos="l" purity="0.0e+00" res="0.0e+00" rms="0.0e+00">
              <Node Cut="0.0e+00" IVar="-1" NCoef="0" cType="1" depth="4" nType="-99" pos="l" purity="0.0e+00" res="0.00886585098" rms="0.0e+00"/>
              <Node Cut="-0.205361709" IVar="1" NCoef="0" cType="1" depth="4" nType="0" pos="r" purity="0.0e+00" res="0.0e+00" rms="0.0e+00">
                <Node Cut="0.0e+00" IVar="-1" NCoef="0" cType="1" depth="5" nType="-99" pos="l" purity="0.0e+00" res="0.0322346166" rms="0.0e+00"/>
                <Node Cut="0.0e+00" IVar="-1" NCoef="0" cType="1" depth="5" nType="-99" pos="r" purity="0.0e+00" res="0.0188950635" rms="0.0e+00"/>
              </Node>
            </Node>
            <Node Cut="0.0e+00" IVar="-1" NCoef="0" cType="1" depth="3" nType="-99" pos="r" purity="0.0e+00" res="-0.00827555824" rms="0.0e+00"/>
          </Node>
        </Node>
      </Node>
    </BinaryTree>
    <BinaryTree boostWeight="1.0e+00" itree="12" type="DecisionTree">
      <Node Cut="-0.513820589" IVar="0" NCoef="0" cType="1" depth="0" nType="0" pos="s" purity="0.0e+00" res="0.0e+00" rms="0.0e+00">
        <Node Cut="0.0e+00" IVar="-1" NCoef="0" cType="1" depth="1" nType="-99" pos="l" purity="0.0e+00" res="-0.037851572" rms="0.0e+00"/>
        <Node Cut="-0.29187417" IVar="2" NCoef="0" cType="1" depth="1" nType="0" pos="r" purity="0.0e+00" res="0.0e+00" rms="0.0e+00">
          <Node Cut="0.0e+00" IVar="-1" NCoef="0" cType="1" depth="2" nType="-99" pos="l" purity="0.0e+00" res="-0.0156525094" rms="0.0e+00"/>
          <Node Cut="0.448057741" IVar="1" NCoef="0" cType="1" depth="2" nType="0" pos="r" purity="0.0e+00" res="0.0e+00" rms="0.0e+00">
            <Node Cut="-0.283975542" IVar="0" NCoef="0" cType="1" depth="3" nType="0" pos="l" purity="0.0e+00" res="0.0e+00" rms="0.0e+00">
              <Node Cut="0.0e+00" IVar="-1" NCoef="0" cType="1" depth="4" nType="-99" pos="l" purity="0.0e+00" res="0.0075048604" rms="0.0e+00"/>
              <Node Cut="-0.0958579779" IVar="1" NCoef="0" cType="1" depth="4" nType="0" pos="r" purity="0.0e+00" res="0.0e+00" rms="0.0e+00">
                <Node Cut="-0.640365064" IVar="5" NCoef="0" cType="1" depth="5" nType="0" pos="l" purity="0.0e+00" res="0.0e+00" rms="0.0e+00">
                  <Node Cut="0.0e+00" IVar="-1" NCoef="0" cType="1" depth="6" nType="-99" pos="l" purity="0.0e+00" res="0.0332663618" rms="0.0e+00"/>
                  <Node Cut="0.0e+00" IVar="-1" NCoef="0" cType="1" depth="6" nType="-99" pos="r" purity="0.0e+00" res="0.0232347604" rms="0.0e+00"/>
                </Node>
                <Node Cut="0.0e+00" IVar="-1" NCoef="0" cType="1" depth="5" nType="-99" pos="r" purity="0.0e+00" res="0.0129079269" rms="0.0e+00"/>
              </Node>
            </Node>
            <Node Cut="0.0e+00" IVar="-1" NCoef="0" cType="1" depth="3" nType="-99" pos="r" purity="0.0e+00" res="-0.00478328904" rms="0.0e+00"/>
          </Node>
        </Node>
      </Node>
    </BinaryTree>
    <BinaryTree boostWeight="1.0e+00" itree="13" type="DecisionTree">
      <Node Cut="-0.532010555" IVar="0" NCoef="0" cType="1" depth="0" nType="0" pos="s" purity="0.0e+00" res="0.0e+00" rms="0.0e+00">
        <Node Cut="0.0e+00" IVar="-1" NCoef="0" cType="1" depth="1" nType="-99" pos="l" purity="0.0e+00" res="-0.0406184606" rms="0.0e+00"/>
        <Node Cut="-0.293069482" IVar="2" NCoef="0" cType="1" depth="1" nType="0" pos="r" purity="0.0e+00" res="0.0e+00" rms="0.0e+00">
          <Node Cut="0.0e+00" IVar="-1" NCoef="0" cType="1" depth="2" nType="-99" pos="l" purity="0.0e+00" res="-0.0158530883" rms="0.0e+00"/>
          <Node Cut="0.49144417" IVar="1" NCoef="0" cType="1" depth="2" nType="0" pos="r" purity="0.0e+00" res="0.0e+00" rms="0.0e+00">
            <Node Cut="-0.158358991" IVar="2" NCoef="0" cType="1" depth="3" nType="0" pos="l" purity="0.0e+00" res="0.0e+00" rms="0.0e+00">
              <Node Cut="-0.330685377" IVar="0" NCoef="0" cType="1" depth="4" nType="0" pos="l" purity="0.0e+00" res="0.0e+00" rms="0.0e+00">
                <Node Cut="0.0e+00" IVar="-1" NCoef="0" cType="1" depth="5" nType="-99" pos="l" purity="0.0e+00" res="-0.00393547677" rms="0.0e+00"/>
                <Node Cut="-0.20223859" IVar="1" NCoef="0" cType="1" depth="5" nType="0" pos="r" purity="0.0e+00" res="0.0e+00" rms="0.0e+00">
                  <Node Cut="0.0e+00" IVar="-1" NCoef="0" cType="1" depth="6" nType="-99" pos="l" purity="0.0e+00" res="0.0275484305" rms="0.0e+00"/>
                  <Node Cut="0.0e+00" IVar="-1" NCoef="0" cType="1" depth="6" nType="-99" pos="r" purity="0.0e+00" res="0.0093179075" rms="0.0e+00"/>
                </Node>
              </Node>
              <Node Cut="0.0e+00" IVar="-1" NCoef="0" cType="1" depth="4" nType="-99" pos="r" purity="0.0e+00" res="0.0310684834" rms="0.0e+00"/>
            </Node>
            <Node Cut="0.0e+00" IVar="-1" NCoef="0" cType="1" depth="3" nType="-99" pos="r" purity="0.0e+00" res="-0.0061579356" rms="0.0e+00"/>
          </Node>
        </Node>
      </Node>
    </BinaryTree>
    <BinaryTree boostWeight="1.0e+00" itree="14" type="DecisionTree">
      <Node Cut="-1.39685285" IVar="6" NCoef="0" cType="1" depth="0" nType="0" pos="s" purity="0.0e+00" res="0.0e+00" rms="0.0e+00">
        <Node Cut="0.0e+00" IVar="-1" NCoef="0" cType="1" depth="1" nType="-99" pos="l" purity="0.0e+00" res="-0.0412239619" rms="0.0e+00"/>
        <Node Cut="-0.475366056" IVar="0" NCoef="0" cType="1" depth="1" nType="0" pos="r" purity="0.0e+00" res="0.0e+00" rms="0.0e+00">
          <Node Cut="0.0e+00" IVar="-1" NCoef="0" cType="1" depth="2" nType="-99" pos="l" purity="0.0e+00" res="-0.0189697575" rms="0.0e+00"/>
          <Node Cut="-0.418308556" IVar="1" NCoef="0" cType="1" depth="2" nType="0" pos="r" purity="0.0e+00" res="0.0e+00" rms="0.0e+00">
            <Node Cut="0.0e+00" IVar="-1" NCoef="0" cType="1" depth="3" nType="-99" pos="l" purity="0.0e+00" res="0.0266648978" rms="0.0e+00"/>
            <Node Cut="-0.234620631" IVar="2" NCoef="0" cType="1" depth="3" nType="0" pos="r" purity="0.0e+00" res="0.0e+00" rms="0.0e+00">
              <Node Cut="0.0e+00" IVar="-1" NCoef="0" cType="1" depth="4" nType="-99" pos="l" purity="0.0e+00" res="-0.00466745999" rms="0.0e+00"/>
              <Node Cut="-0.0497843102" IVar="1" NCoef="0" cType="1" depth="4" nType="0" pos="r" purity="0.0e+00" res="0.0e+00" rms="0.0e+00">
                <Node Cut="0.0e+00" IVar="-1" NCoef="0" cType="1" depth="5" nType="-99" pos="l" purity="0.0e+00" res="0.0224943534" rms="0.0e+00"/>
                <Node Cut="-0.0825908482" IVar="2" NCoef="0" cType="1" depth="5" nType="0" pos="r" purity="0.0e+00" res="0.0e+00" rms="0.0e+00">
                  <Node Cut="0.0e+00" IVar="-1" NCoef="0" cType="1" depth="6" nType="-99" pos="l" purity="0.0e+00" res="0.00139275088" rms="0.0e+00"/>
                  <Node Cut="0.0e+00" IVar="-1" NCoef="0" cType="1" depth="6" nType="-99" pos="r" purity="0.0e+00" res="0.0171301793" rms="0.0e+00"/>
                </Node>
              </Node>
            </Node>
          </Node>
        </Node>
      </Node>
    </BinaryTree>
    <BinaryTree boostWeight="1.0e+00" itree="15" type="DecisionTree">
      <Node Cut="-0.507661819" IVar="0" NCoef="0" cType="1" depth="0" nType="0" pos="s" purity="0.0e+00" res="0.0e+00" rms="0.0e+00">
        <Node Cut="0.0e+00" IVar="-1" NCoef="0" cType="1" depth="1" nType="-99" pos="l" purity="0.0e+00" res="-0.0343515389" rms="0.0e+00"/>
        <Node Cut="-0.290533304" IVar="2" NCoef="0" cType="1" depth="1" nType="0" pos="r" purity="0.0e+00" res="0.0e+00" rms="0.0e+00">
          <Node Cut="0.0e+00" IVar="-1" NCoef="0" cType="1" depth="2" nType="-99" pos="l" purity="0.0e+00" res="-0.00937845465" rms="0.0e+00"/>
          <Node Cut="-0.34316057" IVar="1" NCoef="0" cType="1" depth="2" nType="0" pos="r" purity="0.0e+00" res="0.0e+00" rms="0.0e+00">
            <Node Cut="0.0e+00" IVar="-1" NCoef="0" cType="1" depth="3" nType="-99" pos="l" purity="0.0e+00" res="0.0230281558" rms="0.0e+00"/>
            <Node Cut="-0.215592608" IVar="2" NCoef="0" cType="1" depth="3" nType="0" pos="r" purity="0.0e+00" res="0.0e+00" rms="0.0e+00">
              <Node Cut="0.0e+00" IVar="-1" NCoef="0" cType="1" depth="4" nType="-99" pos="l" purity="0.0e+00" res="-0.00758173643" rms="0.0e+00"/>
              <Node Cut="0.321145773" IVar="3" NCoef="0" cType="1" depth="4" nType="0" pos="r" purity="0.0e+00" res="0.0e+00" rms="0.0e+00">
                <Node Cut="-0.937418699" IVar="3" NCoef="0" cType="1" depth="5" nType="0" pos="l" purity="0.0e+00" res="0.0e+00" rms="0.0e+00">
                  <Node Cut="0.0e+00" IVar="-1" NCoef="0" cType="1" depth="6" nType="-99" pos="l" purity="0.0e+00" res="0.0112257758" rms="0.0e+00"/>
                  <Node Cut="0.0e+00" IVar="-1" NCoef="0" cType="1" depth="6" nType="-99" pos="r" purity="0.0e+00" res="0.0299038384" rms="0.0e+00"/>
                </Node>
                <Node Cut="0.0e+00" IVar="-1" NCoef="0" cType="1" depth="5" nType="-99" pos="r" purity="0.0e+00" res="0.00501071848" rms="0.0e+00"/>
              </Node>
            </Node>
          </Node>
        </Node>
      </Node>
    </BinaryTree>
    <BinaryTree boostWeight="1.0e+00" itree="16" type="DecisionTree">
      <Node Cut="-1.4174819" IVar="6" NCoef="0" cType="1" depth="0" nType="0" pos="s" purity="0.0e+00" res="0.0e+00" rms="0.0e+00">
        <Node Cut="0.0e+00" IVar="-1" NCoef="0" cType="1" depth="1" nType="-99" pos="l" purity="0.0e+00" res="-0.0398294628" rms="0.0e+00"/>
        <Node Cut="-0.466617078" IVar="0" NCoef="0" cType="1" depth="1" nType="0" pos="r" purity="0.0e+00" res="0.0e+00" rms="0.0e+00">
          <Node Cut="0.0e+00" IVar="-1" NCoef="0" cType="1" depth="2" nType="-99" pos="l" purity="0.0e+00" res="-0.0163457282" rms="0.0e+00"/>
          <Node Cut="-0.49083361" IVar="1" NCoef="0" cType="1" depth="2" nType="0" pos="r" purity="0.0e+00" res="0.0e+00" rms="0.0e+00">
            <Node Cut="0.0e+00" IVar="-1" NCoef="0" cType="1" depth="3" nType="-99" pos="l" purity="0.0e+00" res="0.0277898051" rms="0.0e+00"/>
            <Node Cut="0.888939857" IVar="5" NCoef="0" cType="1" depth="3" nType="0" pos="r" purity="0.0e+00" res="0.0e+00" rms="0.0e+00">
              <Node Cut="-0.782769859" IVar="5" NCoef="0" cType="1" depth="4" nType="0" pos="l" purity="0.0e+00" res="0.0e+00" rms="0.0e+00">
                <Node Cut="-0.112681717" IVar="1" NCoef="0" cType="1" depth="5" nType="0" pos="l" purity="0.0e+00" res="0.0e+00" rms="0.0e+00">
                  <Node Cut="0.0e+00" IVar="-1" NCoef="0" cType="1" depth="6" nType="-99" pos="l" purity="0.0e+00" res="0.0251320284" rms="0.0e+00"/>
                  <Node Cut="0.0e+00" IVar="-1" NCoef="0" cType="1" depth="6" nType="-99" pos="r" purity="0.0e+00" res="0.00530595751" rms="0.0e+00"/>
                </Node>
                <Node Cut="0.0e+00" IVar="-1" NCoef="0" cType="1" depth="5" nType="-99" pos="r" purity="0.0e+00" res="-0.0122926589" rms="0.0e+00"/>
              </Node>
              <Node Cut="0.0e+00" IVar="-1" NCoef="0" cType="1" depth="4" nType="-99" pos="r" purity="0.0e+00" res="0.0188017804" rms="0.0e+00"/>
            </Node>
          </Node>
        </Node>
      </Node>
    </BinaryTree>
    <BinaryTree boostWeight="1.0e+00" itree="17" type="DecisionTree">
      <Node Cut="-0.552237153" IVar="0" NCoef="0" cType="1" depth="0" nType="0" pos="s" purity="0.0e+00" res="0.0e+00" rms="0.0e+00">
        <Node Cut="0.0e+00" IVar="-1" NCoef="0" cType="1" depth="1" nType="-99" pos="l" purity="0.0e+00" res="-0.0391766466" rms="0.0e+00"/>
        <Node Cut="-0.293316543" IVar="2" NCoef="0" cType="1" depth="1" nType="0" pos="r" purity="0.0e+00" res="0.0e+00" rms="0.0e+00">
          <Node Cut="0.0e+00" IVar="-1" NCoef="0" cType="1" depth="2" nType="-99" pos="l" purity="0.0e+00" res="-0.0104398644" rms="0.0e+00"/>
          <Node Cut="0.518727064" IVar="1" NCoef="0" cType="1" depth="2" nType="0" pos="r" purity="0.0e+00" res="0.0e+00" rms="0.0e+00">
            <Node Cut="-0.153726757" IVar="2" NCoef="0" cType="1" depth="3" nType="0" pos="l" purity="0.0e+00" res="0.0e+00" rms="0.0e+00">
              <Node Cut="-0.370687962" IVar="0" NCoef="0" cType="1" depth="4" nType="0" pos="l" purity="0.0e+00" res="0.0e+00" rms="0.0e+00">
                <Node Cut="0.0e+00" IVar="-1" NCoef="0" cType="1" depth="5" nType="-99" pos="l" purity="0.0e+00" res="-0.0104502756" rms="0.0e+00"/>
                <Node Cut="-0.201444954" IVar="1" NCoef="0" cType="1" depth="5" nType="0" pos="r" purity="0.0e+00" res="0.0e+00" rms="0.0e+00">
                  <Node Cut="0.0e+00" IVar="-1" NCoef="0" cType="1" depth="6" nType="-99" pos="l" purity="0.0e+00" res="0.0217837561" rms="0.0e+00"/>
                  <Node Cut="0.0e+00" IVar="-1" NCoef="0" cType="1" depth="6" nType="-99" pos="r" purity="0.0e+00" res="0.0037517962" rms="0.0e+00"/>
                </Node>
              </Node>
              <Node Cut="0.0e+00" IVar="-1" NCoef="0" cType="1" depth="4" nType="-99" pos="r" purity="0.0e+00" res="0.0288678762" rms="0.0e+00"/>
            </Node>
            <Node Cut="0.0e+00" IVar="-1" NCoef="0" cType="1" depth="3" nType="-99" pos="r" purity="0.0e+00" res="-0.00602233829" rms="0.0e+00"/>
          </Node>
        </Node>
      </Node>
    </BinaryTree>
    <BinaryTree boostWeight="1.0e+00" itree="18" type="DecisionTree">
      <Node Cut="-1.42384839" IVar="6" NCoef="0" cType="1" depth="0" nType="0" pos="s" purity="0.0e+00" res="0.0e+00" rms="0.0e+00">
        <Node Cut="0.0e+00" IVar="-1" NCoef="0" cType="1" depth="1" nType="-99" pos="l" purity="0.0e+00" res="-0.0379690528" rms="0.0e+00"/>
        <Node Cut="-0.471549988" IVar="0" NCoef="0" cType="1" depth="1" nType="0" pos="r" purity="0.0e+00" res="0.0e+00" rms="0.0e+00">
          <Node Cut="0.0e+00" IVar="-1" NCoef="0" cType="1" depth="2" nType="-99" pos="l" purity="0.0e+00" res="-0.0143317254" rms="0.0e+00"/>
          <Node Cut="-0.49436146" IVar="1" NCoef="0" cType="1" depth="2" nType="0" pos="r" purity="0.0e+00" res="0.0e+00" rms="0.0e+00">
            <Node Cut="0.0e+00" IVar="-1" NCoef="0" cType="1" depth="3" nType="-99" pos="l" purity="0.0e+00" res="0.0265376009" rms="0.0e+00"/>
            <Node Cut="-0.247937754" IVar="2" NCoef="0" cType="1" depth="3" nType="0" pos="r" purity="0.0e+00" res="0.0e+00" rms="0.0e+00">
              <Node Cut="0.0e+00" IVar="-1" NCoef="0" cType="1" depth="4" nType="-99" pos="l" purity="0.0e+00" res="-0.00263730041" rms="0.0e+00"/>
              <Node Cut="-0.244283348" IVar="1" NCoef="0" cType="1" depth="4" nType="0" pos="r" purity="0.0e+00" res="0.0e+00" rms="0.0e+00">
                <Node Cut="0.0e+00" IVar="-1" NCoef="0" cType="1" depth="5" nType="-99" pos="l" purity="0.0e+00" res="0.0246792212" rms="0.0e+00"/>
                <Node Cut="0.324314415" IVar="3" NCoef="0" cType="1" depth="5" nType="0" pos="r" purity="0.0e+00" res="0.0e+00" rms="0.0e+00">
                  <Node Cut="0.0e+00" IVar="-1" NCoef="0" cType="1" depth="6" nType="-99" pos="l" purity="0.0e+00" res="0.0137060257" rms="0.0e+00"/>
                  <Node Cut="0.0e+00" IVar="-1" NCoef="0" cType="1" depth="6" nType="-99" pos="r" purity="0.0e+00" res="-0.00128196401" rms="0.0e+00"/>
                </Node>
              </Node>
            </Node>
          </Node>
        </Node>
      </Node>
    </BinaryTree>
    <BinaryTree boostWeight="1.0e+00" itree="19" type="DecisionTree">
      <Node Cut="-0.552237153" IVar="0" NCoef="0" cType="1" depth="0" nType="0" pos="s" purity="0.0e+00" res="0.0e+00" rms="0.0e+00">
        <Node Cut="0.0e+00" IVar="-1" NCoef="0" cType="1" depth="1" nType="-99" pos="l" purity="0.0e+00" res="-0.0357587039" rms="0.0e+00"/>
        <Node Cut="-0.292483807" IVar="2" NCoef="0" cType="1" depth="1" nType="0" pos="r" purity="0.0e+00" res="0.0e+00" rms="0.0e+00">
          <Node Cut="0.0e+00" IVar="-1" NCoef="0" cType="1" depth="2" nType="-99" pos="l" purity="0.0e+00" res="-0.00909351557" rms="0.0e+00"/>
          <Node Cut="0.465876162" IVar="1" NCoef="0" cType="1" depth="2" nType="0" pos="r" purity="0.0e+00" res="0.0e+00" rms="0.0e+00">
            <Node Cut="-0.155979186" IVar="2" NCoef="0" cType="1" depth="3" nType="0" pos="l" purity="0.0e+00" res="0.0e+00" rms="0.0e+00">
              <Node Cut="-0.249113679" IVar="0" NCoef="0" cType="1" depth="4" nType="0" pos="l" purity="0.0e+00" res="0.0e+00" rms="0.0e+00">
                <Node Cut="0.0e+00" IVar="-1" NCoef="0" cType="1" depth="5" nType="-99" pos="l" purity="0.0e+00" res="-0.00212284876" rms="0.0e+00"/>
                <Node Cut="-0.208300412" IVar="1" NCoef="0" cType="1" depth="5" nType="0" pos="r" purity="0.0e+00" res="0.0e+00" rms="0.0e+00">
                  <Node Cut="0.0e+00" IVar="-1" NCoef="0" cType="1" depth="6" nType="-99" pos="l" purity="0.0e+00" res="0.0221595652" rms="0.0e+00"/>
                  <Node Cut="0.0e+00" IVar="-1" NCoef="0" cType="1" depth="6" nType="-99" pos="r" purity="0.0e+00" res="0.0100095272" rms="0.0e+00"/>
                </Node>
              </Node>
              <Node Cut="0.0e+00" IVar="-1" NCoef="0" cType="1" depth="4" nType="-99" pos="r" purity="0.0e+00" res="0.0259632524" rms="0.0e+00"/>
            </Node>
            <Node Cut="0.0e+00" IVar="-1" NCoef="0" cType="1" depth="3" nType="-99" pos="r" purity="0.0e+00" res="-0.00642281352" rms="0.0e+00"/>
          </Node>
        </Node>
      </Node>
    </BinaryTree>
    <BinaryTree boostWeight="1.0e+00" itree="20" type="DecisionTree">
      <Node Cut="-1.39676344" IVar="6" NCoef="0" cType="1" depth="0" nType="0" pos="s" purity="0.0e+00" res="0.0e+00" rms="0.0e+00">
        <Node Cut="0.0e+00" IVar="-1" NCoef="0" cType="1" depth="1" nType="-99" pos="l" purity="0.0e+00" res="-0.0352431536" rms="0.0e+00"/>
        <Node Cut="-0.418783844" IVar="0" NCoef="0" cType="1" depth="1" nType="0" pos="r" purity="0.0e+00" res="0.0e+00" rms="0.0e+00">
          <Node Cut="0.0e+00" IVar="-1" NCoef="0" cType="1" depth="2" nType="-99" pos="l" purity="0.0e+00" res="-0.00939251855" rms="0.0e+00"/>
          <Node Cut="-0.202087596" IVar="1" NCoef="0" cType="1" depth="2" nType="0" pos="r" purity="0.0e+00" res="0.0e+00" rms="0.0e+00">
            <Node Cut="-0.418732047" IVar="1" NCoef="0" cType="1" depth="3" nType="0" pos="l" purity="0.0e+00" res="0.0e+00" rms="0.0e+00">
              <Node Cut="0.0e+00" IVar="-1" NCoef="0" cType="1" depth="4" nType="-99" pos="l" purity="0.0e+00" res="0.0235567819" rms="0.0e+00"/>
              <Node Cut="0.0e+00" IVar="-1" NCoef="0" cType="1" depth="4" nType="-99" pos="r" purity="0.0e+00" res="0.0140625108" rms="0.0e+00"/>
            </Node>
            <Node Cut="-0.0858661085" IVar="2" NCoef="0" cType="1" depth="3" nType="0" pos="r" purity="0.0e+00" res="0.0e+00" rms="0.0e+00">
              <Node Cut="0.0e+00" IVar="-1" NCoef="0" cType="1" depth="4" nType="-99" pos="l" purity="0.0e+00" res="-0.000394536561" rms="0.0e+00"/>
              <Node Cut="0.0e+00" IVar="-1" NCoef="0" cType="1" depth="4" nType="-99" pos="r" purity="0.0e+00" res="0.0149162831" rms="0.0e+00"/>
            </Node>
          </Node>
        </Node>
      </Node>
    </BinaryTree>
    <BinaryTree boostWeight="1.0e+00" itree="21" type="DecisionTree">
      <Node Cut="-0.538425326" IVar="0" NCoef="0" cType="1" depth="0" nType="0" pos="s" purity="0.0e+00" res="0.0e+00" rms="0.0e+00">
        <Node Cut="0.0e+00" IVar="-1" NCoef="0" cType="1" depth="1" nType="-99" pos="l" purity="0.0e+00" res="-0.0328727625" rms="0.0e+00"/>
        <Node Cut="0.269401699" IVar="5" NCoef="0" cType="1" depth="1" nType="0" pos="r" purity="0.0e+00" res="0.0e+00" rms="0.0e+00">
          <Node Cut="-0.543853462" IVar="5" NCoef="0" cType="1" depth="2" nType="0" pos="l" purity="0.0e+00" res="0.0e+00" rms="0.0e+00">
            <Node Cut="-0.188791931" IVar="1" NCoef="0" cType="1" depth="3" nType="0" pos="l" purity="0.0e+00" res="0.0e+00" rms="0.0e+00">
              <Node Cut="0.0e+00" IVar="-1" NCoef="0" cType="1" depth="4" nType="-99" pos="l" purity="0.0e+00" res="0.0171744283" rms="0.0e+00"/>
              <Node Cut="0.0e+00" IVar="-1" NCoef="0" cType="1" depth="4" nType="-99" pos="r" purity="0.0e+00" res="0.00390007463" rms="0.0e+00"/>
            </Node>
            <Node Cut="0.0e+00" IVar="-1" NCoef="0" cType="1" depth="3" nType="-99" pos="r" purity="0.0e+00" res="-0.0283208825" rms="0.0e+00"/>
          </Node>
          <Node Cut="-0.340140343" IVar="1" NCoef="0" cType="1" depth="2" nType="0" pos="r" purity="0.0e+00" res="0.0e+00" rms="0.0e+00">
            <Node Cut="0.0e+00" IVar="-1" NCoef="0" cType="1" depth="3" nType="-99" pos="l" purity="0.0e+00" res="0.0229838695" rms="0.0e+00"/>
            <Node Cut="0.0048567187" IVar="0" NCoef="0" cType="1" depth="3" nType="0" pos="r" purity="0.0e+00" res="0.0e+00" rms="0.0e+00">
              <Node Cut="0.0e+00" IVar="-1" NCoef="0" cType="1" depth="4" nType="-99" pos="l" purity="0.0e+00" res="-5.88827788e-05" rms="0.0e+00"/>
              <Node Cut="0.0e+00" IVar="-1" NCoef="0" cType="1" depth="4" nType="-99" pos="r" purity="0.0e+00" res="0.0148777636" rms="0.0e+00"/>
            </Node>
          </Node>
        </Node>
      </Node>
    </BinaryTree>
    <BinaryTree boostWeight="1.0e+00" itree="22" type="DecisionTree">
      <Node Cut="-0.504085124" IVar="0" NCoef="0" cType="1" depth="0" nType="0" pos="s" purity="0.0e+00" res="0.0e+00" rms="0.0e+00">
        <Node Cut="0.0e+00" IVar="-1" NCoef="0" cType="1" depth="1" nType="-99" pos="l" purity="0.0e+00" res="-0.0280325748" rms="0.0e+00"/>
        <Node Cut="0.519658148" IVar="1" NCoef="0" cType="1" depth="1" nType="0" pos="r" purity="0.0e+00" res="0.0e+00" rms="0.0e+00">
          <Node Cut="-0.155980751" IVar="2" NCoef="0" cType="1" depth="2" nType="0" pos="l" purity="0.0e+00" res="0.0e+00" rms="0.0e+00">
            <Node Cut="-0.330609053" IVar="0" NCoef="0" cType="1" depth="3" nType="0" pos="l" purity="0.0e+00" res="0.0e+00" rms="0.0e+00">
              <Node Cut="0.0e+00" IVar="-1" NCoef="0" cType="1" depth="4" nType="-99" pos="l" purity="0.0e+00" res="-0.00660655228" rms="0.0e+00"/>
              <Node Cut="-0.193776637" IVar="1" NCoef="0" cType="1" depth="4" nType="0" pos="r" purity="0.0e+00" res="0.0e+00" rms="0.0e+00">
                <Node Cut="-0.519246101" IVar="5" NCoef="0" cType="1" depth="5" nType="0" pos="l" purity="0.0e+00" res="0.0e+00" rms="0.0e+00">
                  <Node Cut="0.0e+00" IVar="-1" NCoef="0" cType="1" depth="6" nType="-99" pos="l" purity="0.0e+00" res="0.0222665146" rms="0.0e+00"/>
                  <Node Cut="0.0e+00" IVar="-1" NCoef="0" cType="1" depth="6" nType="-99" pos="r" purity="0.0e+00" res="0.0100887408" rms="0.0e+00"/>
                </Node>
                <Node Cut="0.0e+00" IVar="-1" NCoef="0" cType="1" depth="5" nType="-99" pos="r" purity="0.0e+00" res="0.00394090964" rms="0.0e+00"/>
              </Node>
            </Node>
            <Node Cut="0.0e+00" IVar="-1" NCoef="0" cType="1" depth="3" nType="-99" pos="r" purity="0.0e+00" res="0.0210907832" rms="0.0e+00"/>
          </Node>
          <Node Cut="0.0e+00" IVar="-1" NCoef="0" cType="1" depth="2" nType="-99" pos="r" purity="0.0e+00" res="-0.00691960705" rms="0.0e+00"/>
        </Node>
      </Node>
    </BinaryTree>
    <BinaryTree boostWeight="1.0e+00" itree="23" type="DecisionTree">
      <Node Cut="-0.529492378" IVar="0" NCoef="0" cType="1" depth="0" nType="0" pos="s" purity="0.0e+00" res="0.0e+00" rms="0.0e+00">
        <Node Cut="0.0e+00" IVar="-1" NCoef="0" cType="1" depth="1" nType="-99" pos="l" purity="0.0e+00" res="-0.0280546602" rms="0.0e+00"/>
        <Node Cut="-0.538586855" IVar="1" NCoef="0" cType="1" depth="1" nType="0" pos="r" purity="0.0e+00" res="0.0e+00" rms="0.0e+00">
          <Node Cut="0.0e+00" IVar="-1" NCoef="0" cType="1" depth="2" nType="-99" pos="l" purity="0.0e+00" res="0.0201112069" rms="0.0e+00"/>
          <Node Cut="-0.267021239" IVar="2" NCoef="0" cType="1" depth="2" nType="0" pos="r" purity="0.0e+00" res="0.0e+00" rms="0.0e+00">
            <Node Cut="0.0e+00" IVar="-1" NCoef="0" cType="1" depth="3" nType="-99" pos="l" purity="0.0e+00" res="-0.0208654087" rms="0.0e+00"/>
            <Node Cut="0.113414735" IVar="1" NCoef="0" cType="1" depth="3" nType="0" pos="r" purity="0.0e+00" res="0.0e+00" rms="0.0e+00">
              <Node Cut="-0.192627043" IVar="2" NCoef="0" cType="1" depth="4" nType="0" pos="l" purity="0.0e+00" res="0.0e+00" rms="0.0e+00">
                <Node Cut="-0.288507909" IVar="1" NCoef="0" cType="1" depth="5" nType="0" pos="l" purity="0.0e+00" res="0.0e+00" rms="0.0e+00">
                  <Node Cut="0.0e+00" IVar="-1" NCoef="0" cType="1" depth="6" nType="-99" pos="l" purity="0.0e+00" res="0.0163350534" rms="0.0e+00"/>
                  <Node Cut="0.0e+00" IVar="-1" NCoef="0" cType="1" depth="6" nType="-99" pos="r" purity="0.0e+00" res="-0.000965347223" rms="0.0e+00"/>
                </Node>
                <Node Cut="0.0e+00" IVar="-1" NCoef="0" cType="1" depth="5" nType="-99" pos="r" purity="0.0e+00" res="0.0225677807" rms="0.0e+00"/>
              </Node>
              <Node Cut="0.0e+00" IVar="-1" NCoef="0" cType="1" depth="4" nType="-99" pos="r" purity="0.0e+00" res="0.00154752983" rms="0.0e+00"/>
            </Node>
          </Node>
        </Node>
      </Node>
    </BinaryTree>
    <BinaryTree boostWeight="1.0e+00" itree="24" type="DecisionTree">
      <Node Cut="-0.531497359" IVar="0" NCoef="0" cType="1" depth="0" nType="0" pos="s" purity="0.0e+00" res="0.0e+00" rms="0.0e+00">
        <Node Cut="0.0e+00" IVar="-1" NCoef="0" cType="1" depth="1" nType="-99" pos="l" purity="0.0e+00" res="-0.0308898538" rms="0.0e+00"/>
        <Node Cut="-0.538411617" IVar="1" NCoef="0" cType="1" depth="1" nType="0" pos="r" purity="0.0e+00" res="0.0e+00" rms="0.0e+00">
          <Node Cut="0.0e+00" IVar="-1" NCoef="0" cType="1" depth="2" nType="-99" pos="l" purity="0.0e+00" res="0.0189818144" rms="0.0e+00"/>
          <Node Cut="-0.267021179" IVar="2" NCoef="0" cType="1" depth="2" nType="0" pos="r" purity="0.0e+00" res="0.0e+00" rms="0.0e+00">
            <Node Cut="0.0e+00" IVar="-1" NCoef="0" cType="1" depth="3" nType="-99" pos="l" purity="0.0e+00" res="-0.0184380915" rms="0.0e+00"/>
            <Node Cut="0.453930885" IVar="1" NCoef="0" cType="1" depth="3" nType="0" pos="r" purity="0.0e+00" res="0.0e+00" rms="0.0e+00">
              <Node Cut="-0.50246805" IVar="6" NCoef="0" cType="1" depth="4" nType="0" pos="l" purity="0.0e+00" res="0.0e+00" rms="0.0e+00">
                <Node Cut="0.0e+00" IVar="-1" NCoef="0" cType="1" depth="5" nType="-99" pos="l" purity="0.0e+00" res="0.0222780164" rms="0.0e+00"/>
                <Node Cut="-0.86379087" IVar="3" NCoef="0" cType="1" depth="5" nType="0" pos="r" purity="0.0e+00" res="0.0e+00" rms="0.0e+00">
                  <Node Cut="0.0e+00" IVar="-1" NCoef="0" cType="1" depth="6" nType="-99" pos="l" purity="0.0e+00" res="0.000212193729" rms="0.0e+00"/>
                  <Node Cut="0.0e+00" IVar="-1" NCoef="0" cType="1" depth="6" nType="-99" pos="r" purity="0.0e+00" res="0.0132776545" rms="0.0e+00"/>
                </Node>
              </Node>
              <Node Cut="0.0e+00" IVar="-1" NCoef="0" cType="1" depth="4" nType="-99" pos="r" purity="0.0e+00" res="-0.00146345887" rms="0.0e+00"/>
            </Node>
          </Node>
        </Node>
      </Node>
    </BinaryTree>
    <BinaryTree boostWeight="1.0e+00" itree="25" type="DecisionTree">
      <Node Cut="-0.475367546" IVar="0" NCoef="0" cType="1" depth="0" nType="0" pos="s" purity="0.0e+00" res="0.0e+00" rms="0.0e+00">
        <Node Cut="0.0e+00" IVar="-1" NCoef="0" cType="1" depth="1" nType="-99" pos="l" purity="0.0e+00" res="-0.0216736291" rms="0.0e+00"/>
        <Node Cut="0.640349507" IVar="5" NCoef="0" cType="1" depth="1" nType="0" pos="r" purity="0.0e+00" res="0.0e+00" rms="0.0e+00">
          <Node Cut="-0.387189031" IVar="5" NCoef="0" cType="1" depth="2" nType="0" pos="l" purity="0.0e+00" res="0.0e+00" rms="0.0e+00">
            <Node Cut="-0.338609934" IVar="1" NCoef="0" cType="1" depth="3" nType="0" pos="l" purity="0.0e+00" res="0.0e+00" rms="0.0e+00">
              <Node Cut="0.0e+00" IVar="-1" NCoef="0" cType="1" depth="4" nType="-99" pos="l" purity="0.0e+00" res="0.0200915262" rms="0.0e+00"/>
              <Node Cut="0.0831661522" IVar="0" NCoef="0" cType="1" depth="4" nType="0" pos="r" purity="0.0e+00" res="0.0e+00" rms="0.0e+00">
                <Node Cut="0.0e+00" IVar="-1" NCoef="0" cType="1" depth="5" nType="-99" pos="l" purity="0.0e+00" res="0.00165170152" rms="0.0e+00"/>
                <Node Cut="0.0e+00" IVar="-1" NCoef="0" cType="1" depth="5" nType="-99" pos="r" purity="0.0e+00" res="0.0113888998" rms="0.0e+00"/>
              </Node>
            </Node>
            <Node Cut="0.0e+00" IVar="-1" NCoef="0" cType="1" depth="3" nType="-99" pos="r" purity="0.0e+00" res="-0.0207485612" rms="0.0e+00"/>
          </Node>
          <Node Cut="-0.218742013" IVar="1" NCoef="0" cType="1" depth="2" nType="0" pos="r" purity="0.0e+00" res="0.0e+00" rms="0.0e+00">
            <Node Cut="0.0e+00" IVar="-1" NCoef="0" cType="1" depth="3" nType="-99" pos="l" purity="0.0e+00" res="0.0193428732" rms="0.0e+00"/>
            <Node Cut="0.0e+00" IVar="-1" NCoef="0" cType="1" depth="3" nType="-99" pos="r" purity="0.0e+00" res="0.00930958707" rms="0.0e+00"/>
          </Node>
        </Node>
      </Node>
    </BinaryTree>
    <BinaryTree boostWeight="1.0e+00" itree="26" type="DecisionTree">
      <Node Cut="-0.515406907" IVar="0" NCoef="0" cType="1" depth="0" nType="0" pos="s" purity="0.0e+00" res="0.0e+00" rms="0.0e+00">
        <Node Cut="0.0e+00" IVar="-1" NCoef="0" cType="1" depth="1" nType="-99" pos="l" purity="0.0e+00" res="-0.025577385" rms="0.0e+00"/>
        <Node Cut="0.378320217" IVar="5" NCoef="0" cType="1" depth="1" nType="0" pos="r" purity="0.0e+00" res="0.0e+00" rms="0.0e+00">
          <Node Cut="-0.568104506" IVar="5" NCoef="0" cType="1" depth="2" nType="0" pos="l" purity="0.0e+00" res="0.0e+00" rms="0.0e+00">
            <Node Cut="-0.269773781" IVar="1" NCoef="0" cType="1" depth="3" nType="0" pos="l" purity="0.0e+00" res="0.0e+00" rms="0.0e+00">
              <Node Cut="0.0e+00" IVar="-1" NCoef="0" cType="1" depth="4" nType="-99" pos="l" purity="0.0e+00" res="0.0154731143" rms="0.0e+00"/>
              <Node Cut="0.0e+00" IVar="-1" NCoef="0" cType="1" depth="4" nType="-99" pos="r" purity="0.0e+00" res="0.00374581479" rms="0.0e+00"/>
            </Node>
            <Node Cut="0.0e+00" IVar="-1" NCoef="0" cType="1" depth="3" nType="-99" pos="r" purity="0.0e+00" res="-0.0224108752" rms="0.0e+00"/>
          </Node>
          <Node Cut="-0.288203329" IVar="6" NCoef="0" cType="1" depth="2" nType="0" pos="r" purity="0.0e+00" res="0.0e+00" rms="0.0e+00">
            <Node Cut="0.0e+00" IVar="-1" NCoef="0" cType="1" depth="3" nType="-99" pos="l" purity="0.0e+00" res="0.0187690891" rms="0.0e+00"/>
            <Node Cut="-0.077388525" IVar="0" NCoef="0" cType="1" depth="3" nType="0" pos="r" purity="0.0e+00" res="0.0e+00" rms="0.0e+00">
              <Node Cut="0.0e+00" IVar="-1" NCoef="0" cType="1" depth="4" nType="-99" pos="l" purity="0.0e+00" res="0.00235121208" rms="0.0e+00"/>
              <Node Cut="0.0e+00" IVar="-1" NCoef="0" cType="1" depth="4" nType="-99" pos="r" purity="0.0e+00" res="0.0116576888" rms="0.0e+00"/>
            </Node>
          </Node>
        </Node>
      </Node>
    </BinaryTree>
    <BinaryTree boostWeight="1.0e+00" itree="27" type="DecisionTree">
      <Node Cut="-0.515507221" IVar="0" NCoef="0" cType="1" depth="0" nType="0" pos="s" purity="0.0e+00" res="0.0e+00" rms="0.0e+00">
        <Node Cut="0.0e+00" IVar="-1" NCoef="0" cType="1" depth="1" nType="-99" pos="l" purity="0.0e+00" res="-0.0221530851" rms="0.0e+00"/>
        <Node Cut="0.436809778" IVar="5" NCoef="0" cType="1" depth="1" nType="0" pos="r" purity="0.0e+00" res="0.0e+00" rms="0.0e+00">
          <Node Cut="-0.542415559" IVar="5" NCoef="0" cType="1" depth="2" nType="0" pos="l" purity="0.0e+00" res="0.0e+00" rms="0.0e+00">
            <Node Cut="0.970220745" IVar="3" NCoef="0" cType="1" depth="3" nType="0" pos="l" purity="0.0e+00" res="0.0e+00" rms="0.0e+00">
              <Node Cut="0.0e+00" IVar="-1" NCoef="0" cType="1" depth="4" nType="-99" pos="l" purity="0.0e+00" res="0.0109503875" rms="0.0e+00"/>
              <Node Cut="0.0e+00" IVar="-1" NCoef="0" cType="1" depth="4" nType="-99" pos="r" purity="0.0e+00" res="0.000551299134" rms="0.0e+00"/>
            </Node>
            <Node Cut="0.0e+00" IVar="-1" NCoef="0" cType="1" depth="3" nType="-99" pos="r" purity="0.0e+00" res="-0.0216178205" rms="0.0e+00"/>
          </Node>
          <Node Cut="-0.340508699" IVar="1" NCoef="0" cType="1" depth="2" nType="0" pos="r" purity="0.0e+00" res="0.0e+00" rms="0.0e+00">
            <Node Cut="0.0e+00" IVar="-1" NCoef="0" cType="1" depth="3" nType="-99" pos="l" purity="0.0e+00" res="0.0188267455" rms="0.0e+00"/>
            <Node Cut="0.082878232" IVar="0" NCoef="0" cType="1" depth="3" nType="0" pos="r" purity="0.0e+00" res="0.0e+00" rms="0.0e+00">
              <Node Cut="0.0e+00" IVar="-1" NCoef="0" cType="1" depth="4" nType="-99" pos="l" purity="0.0e+00" res="-0.000345241133" rms="0.0e+00"/>
              <Node Cut="0.0e+00" IVar="-1" NCoef="0" cType="1" depth="4" nType="-99" pos="r" purity="0.0e+00" res="0.0133755645" rms="0.0e+00"/>
            </Node>
          </Node>
        </Node>
      </Node>
    </BinaryTree>
    <BinaryTree boostWeight="1.0e+00" itree="28" type="DecisionTree">
      <Node Cut="-0.512634277" IVar="0" NCoef="0" cType="1" depth="0" nType="0" pos="s" purity="0.0e+00" res="0.0e+00" rms="0.0e+00">
        <Node Cut="0.0e+00" IVar="-1" NCoef="0" cType="1" depth="1" nType="-99" pos="l" purity="0.0e+00" res="-0.0222889874" rms="0.0e+00"/>
        <Node Cut="0.453327805" IVar="1" NCoef="0" cType="1" depth="1" nType="0" pos="r" purity="0.0e+00" res="0.0e+00" rms="0.0e+00">
          <Node Cut="-0.156137511" IVar="2" NCoef="0" cType="1" depth="2" nType="0" pos="l" purity="0.0e+00" res="0.0e+00" rms="0.0e+00">
            <Node Cut="0.366451979" IVar="0" NCoef="0" cType="1" depth="3" nType="0" pos="l" purity="0.0e+00" res="0.0e+00" rms="0.0e+00">
              <Node Cut="-0.270719528" IVar="1" NCoef="0" cType="1" depth="4" nType="0" pos="l" purity="0.0e+00" res="0.0e+00" rms="0.0e+00">
                <Node Cut="0.216549367" IVar="5" NCoef="0" cType="1" depth="5" nType="0" pos="l" purity="0.0e+00" res="0.0e+00" rms="0.0e+00">
                  <Node Cut="0.0e+00" IVar="-1" NCoef="0" cType="1" depth="6" nType="-99" pos="l" purity="0.0e+00" res="0.000105583589" rms="0.0e+00"/>
                  <Node Cut="0.0e+00" IVar="-1" NCoef="0" cType="1" depth="6" nType="-99" pos="r" purity="0.0e+00" res="0.0164860692" rms="0.0e+00"/>
                </Node>
                <Node Cut="0.0e+00" IVar="-1" NCoef="0" cType="1" depth="5" nType="-99" pos="r" purity="0.0e+00" res="-0.0173263922" rms="0.0e+00"/>
              </Node>
              <Node Cut="0.0e+00" IVar="-1" NCoef="0" cType="1" depth="4" nType="-99" pos="r" purity="0.0e+00" res="0.0163570121" rms="0.0e+00"/>
            </Node>
            <Node Cut="0.0e+00" IVar="-1" NCoef="0" cType="1" depth="3" nType="-99" pos="r" purity="0.0e+00" res="0.0204821303" rms="0.0e+00"/>
          </Node>
          <Node Cut="0.0e+00" IVar="-1" NCoef="0" cType="1" depth="2" nType="-99" pos="r" purity="0.0e+00" res="-0.00822518859" rms="0.0e+00"/>
        </Node>
      </Node>
    </BinaryTree>
    <BinaryTree boostWeight="1.0e+00" itree="29" type="DecisionTree">
      <Node Cut="-0.510322332" IVar="0" NCoef="0" cType="1" depth="0" nType="0" pos="s" purity="0.0e+00" res="0.0e+00" rms="0.0e+00">
        <Node Cut="0.0e+00" IVar="-1" NCoef="0" cType="1" depth="1" nType="-99" pos="l" purity="0.0e+00" res="-0.0225128569" rms="0.0e+00"/>
        <Node Cut="0.51965183" IVar="1" NCoef="0" cType="1" depth="1" nType="0" pos="r" purity="0.0e+00" res="0.0e+00" rms="0.0e+00">
          <Node Cut="0.119844377" IVar="0" NCoef="0" cType="1" depth="2" nType="0" pos="l" purity="0.0e+00" res="0.0e+00" rms="0.0e+00">
            <Node Cut="-0.375664592" IVar="1" NCoef="0" cType="1" depth="3" nType="0" pos="l" purity="0.0e+00" res="0.0e+00" rms="0.0e+00">
              <Node Cut="0.0e+00" IVar="-1" NCoef="0" cType="1" depth="4" nType="-99" pos="l" purity="0.0e+00" res="0.0105775055" rms="0.0e+00"/>
              <Node Cut="-0.199927837" IVar="2" NCoef="0" cType="1" depth="4" nType="0" pos="r" purity="0.0e+00" res="0.0e+00" rms="0.0e+00">
                <Node Cut="0.0e+00" IVar="-1" NCoef="0" cType="1" depth="5" nType="-99" pos="l" purity="0.0e+00" res="-0.0152779464" rms="0.0e+00"/>
                <Node Cut="0.0e+00" IVar="-1" NCoef="0" cType="1" depth="5" nType="-99" pos="r" purity="0.0e+00" res="0.0105252331" rms="0.0e+00"/>
              </Node>
            </Node>
            <Node Cut="0.255472064" IVar="6" NCoef="0" cType="1" depth="3" nType="0" pos="r" purity="0.0e+00" res="0.0e+00" rms="0.0e+00">
              <Node Cut="0.0e+00" IVar="-1" NCoef="0" cType="1" depth="4" nType="-99" pos="l" purity="0.0e+00" res="0.0180919077" rms="0.0e+00"/>
              <Node Cut="0.0e+00" IVar="-1" NCoef="0" cType="1" depth="4" nType="-99" pos="r" purity="0.0e+00" res="0.0095575517" rms="0.0e+00"/>
            </Node>
          </Node>
          <Node Cut="0.0e+00" IVar="-1" NCoef="0" cType="1" depth="2" nType="-99" pos="r" purity="0.0e+00" res="-0.00939394441" rms="0.0e+00"/>
        </Node>
      </Node>
    </BinaryTree>
    <BinaryTree boostWeight="1.0e+00" itree="30" type="DecisionTree">
      <Node Cut="-0.450059414" IVar="0" NCoef="0" cType="1" depth="0" nType="0" pos="s" purity="0.0e+00" res="0.0e+00" rms="0.0e+00">
        <Node Cut="0.0e+00" IVar="-1" NCoef="0" cType="1" depth="1" nType="-99" pos="l" purity="0.0e+00" res="-0.0155593855" rms="0.0e+00"/>
        <Node Cut="-0.501933932" IVar="1" NCoef="0" cType="1" depth="1" nType="0" pos="r" purity="0.0e+00" res="0.0e+00" rms="0.0e+00">
          <Node Cut="0.0e+00" IVar="-1" NCoef="0" cType="1" depth="2" nType="-99" pos="l" purity="0.0e+00" res="0.0179229584" rms="0.0e+00"/>
          <Node Cut="-0.255113602" IVar="2" NCoef="0" cType="1" depth="2" nType="0" pos="r" purity="0.0e+00" res="0.0e+00" rms="0.0e+00">
            <Node Cut="0.0e+00" IVar="-1" NCoef="0" cType="1" depth="3" nType="-99" pos="l" purity="0.0e+00" res="-0.0124454657" rms="0.0e+00"/>
            <Node Cut="0.403088987" IVar="4" NCoef="0" cType="1" depth="3" nType="0" pos="r" purity="0.0e+00" res="0.0e+00" rms="0.0e+00">
              <Node Cut="-0.412827015" IVar="4" NCoef="0" cType="1" depth="4" nType="0" pos="l" purity="0.0e+00" res="0.0e+00" rms="0.0e+00">
                <Node Cut="0.0e+00" IVar="-1" NCoef="0" cType="1" depth="5" nType="-99" pos="l" purity="0.0e+00" res="0.00220847107" rms="0.0e+00"/>
                <Node Cut="0.0e+00" IVar="-1" NCoef="0" cType="1" depth="5" nType="-99" pos="r" purity="0.0e+00" res="0.0196040105" rms="0.0e+00"/>
              </Node>
              <Node Cut="0.0e+00" IVar="-1" NCoef="0" cType="1" depth="4" nType="-99" pos="r" purity="0.0e+00" res="-0.000101706828" rms="0.0e+00"/>
            </Node>
          </Node>
        </Node>
      </Node>
    </BinaryTree>
    <BinaryTree boostWeight="1.0e+00" itree="31" type="DecisionTree">
      <Node Cut="-0.509251714" IVar="0" NCoef="0" cType="1" depth="0" nType="0" pos="s" purity="0.0e+00" res="0.0e+00" rms="0.0e+00">
        <Node Cut="0.0e+00" IVar="-1" NCoef="0" cType="1" depth="1" nType="-99" pos="l" purity="0.0e+00" res="-0.0188927408" rms="0.0e+00"/>
        <Node Cut="0.496946692" IVar="1" NCoef="0" cType="1" depth="1" nType="0" pos="r" purity="0.0e+00" res="0.0e+00" rms="0.0e+00">
          <Node Cut="0.00258594169" IVar="0" NCoef="0" cType="1" depth="2" nType="0" pos="l" purity="0.0e+00" res="0.0e+00" rms="0.0e+00">
            <Node Cut="-0.465616107" IVar="1" NCoef="0" cType="1" depth="3" nType="0" pos="l" purity="0.0e+00" res="0.0e+00" rms="0.0e+00">
              <Node Cut="0.0e+00" IVar="-1" NCoef="0" cType="1" depth="4" nType="-99" pos="l" purity="0.0e+00" res="0.0110623129" rms="0.0e+00"/>
              <Node Cut="-0.223189309" IVar="2" NCoef="0" cType="1" depth="4" nType="0" pos="r" purity="0.0e+00" res="0.0e+00" rms="0.0e+00">
                <Node Cut="0.0e+00" IVar="-1" NCoef="0" cType="1" depth="5" nType="-99" pos="l" purity="0.0e+00" res="-0.0132840918" rms="0.0e+00"/>
                <Node Cut="0.0e+00" IVar="-1" NCoef="0" cType="1" depth="5" nType="-99" pos="r" purity="0.0e+00" res="0.00625582784" rms="0.0e+00"/>
              </Node>
            </Node>
            <Node Cut="-0.0740731061" IVar="6" NCoef="0" cType="1" depth="3" nType="0" pos="r" purity="0.0e+00" res="0.0e+00" rms="0.0e+00">
              <Node Cut="0.0e+00" IVar="-1" NCoef="0" cType="1" depth="4" nType="-99" pos="l" purity="0.0e+00" res="0.0168373659" rms="0.0e+00"/>
              <Node Cut="0.0e+00" IVar="-1" NCoef="0" cType="1" depth="4" nType="-99" pos="r" purity="0.0e+00" res="0.00820617937" rms="0.0e+00"/>
            </Node>
          </Node>
          <Node Cut="0.0e+00" IVar="-1" NCoef="0" cType="1" depth="2" nType="-99" pos="r" purity="0.0e+00" res="-0.00765768439" rms="0.0e+00"/>
        </Node>
      </Node>
    </BinaryTree>
    <BinaryTree boostWeight="1.0e+00" itree="32" type="DecisionTree">
      <Node Cut="-0.454777241" IVar="0" NCoef="0" cType="1" depth="0" nType="0" pos="s" purity="0.0e+00" res="0.0e+00" rms="0.0e+00">
        <Node Cut="0.0e+00" IVar="-1" NCoef="0" cType="1" depth="1" nType="-99" pos="l" purity="0.0e+00" res="-0.0127911558" rms="0.0e+00"/>
        <Node Cut="0.15991661" IVar="1" NCoef="0" cType="1" depth="1" nType="0" pos="r" purity="0.0e+00" res="0.0e+00" rms="0.0e+00">
          <Node Cut="-1.02799463" IVar="5" NCoef="0" cType="1" depth="2" nType="0" pos="l" purity="0.0e+00" res="0.0e+00" rms="0.0e+00">
            <Node Cut="0.0e+00" IVar="-1" NCoef="0" cType="1" depth="3" nType="-99" pos="l" purity="0.0e+00" res="0.016778795" rms="0.0e+00"/>
            <Node Cut="0.263050944" IVar="5" NCoef="0" cType="1" depth="3" nType="0" pos="r" purity="0.0e+00" res="0.0e+00" rms="0.0e+00">
              <Node Cut="0.0e+00" IVar="-1" NCoef="0" cType="1" depth="4" nType="-99" pos="l" purity="0.0e+00" res="-0.00608549966" rms="0.0e+00"/>
              <Node Cut="1.02740884" IVar="5" NCoef="0" cType="1" depth="4" nType="0" pos="r" purity="0.0e+00" res="0.0e+00" rms="0.0e+00">
                <Node Cut="0.0e+00" IVar="-1" NCoef="0" cType="1" depth="5" nType="-99" pos="l" purity="0.0e+00" res="0.00519275432" rms="0.0e+00"/>
                <Node Cut="0.0e+00" IVar="-1" NCoef="0" cType="1" depth="5" nType="-99" pos="r" purity="0.0e+00" res="0.0163087491" rms="0.0e+00"/>
              </Node>
            </Node>
          </Node>
          <Node Cut="0.0e+00" IVar="-1" NCoef="0" cType="1" depth="2" nType="-99" pos="r" purity="0.0e+00" res="-0.00420209579" rms="0.0e+00"/>
        </Node>
      </Node>
    </BinaryTree>
    <BinaryTree boostWeight="1.0e+00" itree="33" type="DecisionTree">
      <Node Cut="-0.503876925" IVar="0" NCoef="0" cType="1" depth="0" nType="0" pos="s" purity="0.0e+00" res="0.0e+00" rms="0.0e+00">
        <Node Cut="0.0e+00" IVar="-1" NCoef="0" cType="1" depth="1" nType="-99" pos="l" purity="0.0e+00" res="-0.0162503645" rms="0.0e+00"/>
        <Node Cut="0.113448411" IVar="1" NCoef="0" cType="1" depth="1" nType="0" pos="r" purity="0.0e+00" res="0.0e+00" rms="0.0e+00">
          <Node Cut="1.0130744" IVar="5" NCoef="0" cType="1" depth="2" nType="0" pos="l" purity="0.0e+00" res="0.0e+00" rms="0.0e+00">
            <Node Cut="-0.50805521" IVar="1" NCoef="0" cType="1" depth="3" nType="0" pos="l" purity="0.0e+00" res="0.0e+00" rms="0.0e+00">
              <Node Cut="0.0e+00" IVar="-1" NCoef="0" cType="1" depth="4" nType="-99" pos="l" purity="0.0e+00" res="0.0156241599" rms="0.0e+00"/>
              <Node Cut="-0.811046958" IVar="5" NCoef="0" cType="1" depth="4" nType="0" pos="r" purity="0.0e+00" res="0.0e+00" rms="0.0e+00">
                <Node Cut="0.0e+00" IVar="-1" NCoef="0" cType="1" depth="5" nType="-99" pos="l" purity="0.0e+00" res="0.0113363639" rms="0.0e+00"/>
                <Node Cut="0.0e+00" IVar="-1" NCoef="0" cType="1" depth="5" nType="-99" pos="r" purity="0.0e+00" res="-0.00943894871" rms="0.0e+00"/>
              </Node>
            </Node>
            <Node Cut="0.0e+00" IVar="-1" NCoef="0" cType="1" depth="3" nType="-99" pos="r" purity="0.0e+00" res="0.0169401821" rms="0.0e+00"/>
          </Node>
          <Node Cut="0.0e+00" IVar="-1" NCoef="0" cType="1" depth="2" nType="-99" pos="r" purity="0.0e+00" res="-0.0037784751" rms="0.0e+00"/>
        </Node>
      </Node>
    </BinaryTree>
    <BinaryTree boostWeight="1.0e+00" itree="34" type="DecisionTree">
      <Node Cut="0.259481847" IVar="5" NCoef="0" cType="1" depth="0" nType="0" pos="s" purity="0.0e+00" res="0.0e+00" rms="0.0e+00">
        <Node Cut="-0.343391865" IVar="5" NCoef="0" cType="1" depth="1" nType="0" pos="l" purity="0.0e+00" res="0.0e+00" rms="0.0e+00">
          <Node Cut="-0.195120335" IVar="1" NCoef="0" cType="1" depth="2" nType="0" pos="l" purity="0.0e+00" res="0.0e+00" rms="0.0e+00">
            <Node Cut="0.0e+00" IVar="-1" NCoef="0" cType="1" depth="3" nType="-99" pos="l" purity="0.0e+00" res="0.0114745395" rms="0.0e+00"/>
            <Node Cut="0.0e+00" IVar="-1" NCoef="0" cType="1" depth="3" nType="-99" pos="r" purity="0.0e+00" res="-0.00161138072" rms="0.0e+00"/>
          </Node>
          <Node Cut="0.0e+00" IVar="-1" NCoef="0" cType="1" depth="2" nType="-99" pos="r" purity="0.0e+00" res="-0.0364734046" rms="0.0e+00"/>
        </Node>
        <Node Cut="-0.413173735" IVar="1" NCoef="0" cType="1" depth="1" nType="0" pos="r" purity="0.0e+00" res="0.0e+00" rms="0.0e+00">
          <Node Cut="0.0e+00" IVar="-1" NCoef="0" cType="1" depth="2" nType="-99" pos="l" purity="0.0e+00" res="0.0165497512" rms="0.0e+00"/>
          <Node Cut="-0.03328567" IVar="0" NCoef="0" cType="1" depth="2" nType="0" pos="r" purity="0.0e+00" res="0.0e+00" rms="0.0e+00">
            <Node Cut="0.0e+00" IVar="-1" NCoef="0" cType="1" depth="3" nType="-99" pos="l" purity="0.0e+00" res="-0.00128804136" rms="0.0e+00"/>
            <Node Cut="0.0e+00" IVar="-1" NCoef="0" cType="1" depth="3" nType="-99" pos="r" purity="0.0e+00" res="0.00996056385" rms="0.0e+00"/>
          </Node>
        </Node>
      </Node>
    </BinaryTree>
    <BinaryTree boostWeight="1.0e+00" itree="35" type="DecisionTree">
      <Node Cut="-0.496569276" IVar="0" NCoef="0" cType="1" depth="0" nType="0" pos="s" purity="0.0e+00" res="0.0e+00" rms="0.0e+00">
        <Node Cut="0.0e+00" IVar="-1" NCoef="0" cType="1" depth="1" nType="-99" pos="l" purity="0.0e+00" res="-0.0148196341" rms="0.0e+00"/>
        <Node Cut="-0.148046553" IVar="1" NCoef="0" cType="1" depth="1" nType="0" pos="r" purity="0.0e+00" res="0.0e+00" rms="0.0e+00">
          <Node Cut="-0.716136515" IVar="5" NCoef="0" cType="1" depth="2" nType="0" pos="l" purity="0.0e+00" res="0.0e+00" rms="0.0e+00">
            <Node Cut="0.0e+00" IVar="-1" NCoef="0" cType="1" depth="3" nType="-99" pos="l" purity="0.0e+00" res="0.0147669837" rms="0.0e+00"/>
            <Node Cut="0.477749318" IVar="5" NCoef="0" cType="1" depth="3" nType="0" pos="r" purity="0.0e+00" res="0.0e+00" rms="0.0e+00">
              <Node Cut="0.0e+00" IVar="-1" NCoef="0" cType="1" depth="4" nType="-99" pos="l" purity="0.0e+00" res="-0.00743175624" rms="0.0e+00"/>
              <Node Cut="0.0e+00" IVar="-1" NCoef="0" cType="1" depth="4" nType="-99" pos="r" purity="0.0e+00" res="0.0123333922" rms="0.0e+00"/>
            </Node>
          </Node>
          <Node Cut="-0.0860420838" IVar="2" NCoef="0" cType="1" depth="2" nType="0" pos="r" purity="0.0e+00" res="0.0e+00" rms="0.0e+00">
            <Node Cut="0.0e+00" IVar="-1" NCoef="0" cType="1" depth="3" nType="-99" pos="l" purity="0.0e+00" res="-0.00877631269" rms="0.0e+00"/>
            <Node Cut="0.0e+00" IVar="-1" NCoef="0" cType="1" depth="3" nType="-99" pos="r" purity="0.0e+00" res="0.0111302538" rms="0.0e+00"/>
          </Node>
        </Node>
      </Node>
    </BinaryTree>
    <BinaryTree boostWeight="1.0e+00" itree="36" type="DecisionTree">
      <Node Cut="-1.13009524" IVar="6" NCoef="0" cType="1" depth="0" nType="0" pos="s" purity="0.0e+00" res="0.0e+00" rms="0.0e+00">
        <Node Cut="0.0e+00" IVar="-1" NCoef="0" cType="1" depth="1" nType="-99" pos="l" purity="0.0e+00" res="-0.0133842854" rms="0.0e+00"/>
        <Node Cut="-0.551116467" IVar="1" NCoef="0" cType="1" depth="1" nType="0" pos="r" purity="0.0e+00" res="0.0e+00" rms="0.0e+00">
          <Node Cut="0.0e+00" IVar="-1" NCoef="0" cType="1" depth="2" nType="-99" pos="l" purity="0.0e+00" res="0.013690087" rms="0.0e+00"/>
          <Node Cut="-0.0634593964" IVar="2" NCoef="0" cType="1" depth="2" nType="0" pos="r" purity="0.0e+00" res="0.0e+00" rms="0.0e+00">
            <Node Cut="-0.0394158736" IVar="0" NCoef="0" cType="1" depth="3" nType="0" pos="l" purity="0.0e+00" res="0.0e+00" rms="0.0e+00">
              <Node Cut="-0.3094697" IVar="1" NCoef="0" cType="1" depth="4" nType="0" pos="l" purity="0.0e+00" res="0.0e+00" rms="0.0e+00">
                <Node Cut="0.0e+00" IVar="-1" NCoef="0" cType="1" depth="5" nType="-99" pos="l" purity="0.0e+00" res="0.00185803033" rms="0.0e+00"/>
                <Node Cut="0.0e+00" IVar="-1" NCoef="0" cType="1" depth="5" nType="-99" pos="r" purity="0.0e+00" res="-0.0234529767" rms="0.0e+00"/>
              </Node>
              <Node Cut="0.627879262" IVar="0" NCoef="0" cType="1" depth="4" nType="0" pos="r" purity="0.0e+00" res="0.0e+00" rms="0.0e+00">
                <Node Cut="0.0e+00" IVar="-1" NCoef="0" cType="1" depth="5" nType="-99" pos="l" purity="0.0e+00" res="0.00309654698" rms="0.0e+00"/>
                <Node Cut="0.0e+00" IVar="-1" NCoef="0" cType="1" depth="5" nType="-99" pos="r" purity="0.0e+00" res="0.0118276505" rms="0.0e+00"/>
              </Node>
            </Node>
            <Node Cut="0.0e+00" IVar="-1" NCoef="0" cType="1" depth="3" nType="-99" pos="r" purity="0.0e+00" res="0.01152959" rms="0.0e+00"/>
          </Node>
        </Node>
      </Node>
    </BinaryTree>
    <BinaryTree boostWeight="1.0e+00" itree="37" type="DecisionTree">
      <Node Cut="-0.407649338" IVar="0" NCoef="0" cType="1" depth="0" nType="0" pos="s" purity="0.0e+00" res="0.0e+00" rms="0.0e+00">
        <Node Cut="0.0e+00" IVar="-1" NCoef="0" cType="1" depth="1" nType="-99" pos="l" purity="0.0e+00" res="-0.00806581508" rms="0.0e+00"/>
        <Node Cut="-0.0131911887" IVar="1" NCoef="0" cType="1" depth="1" nType="0" pos="r" purity="0.0e+00" res="0.0e+00" rms="0.0e+00">
          <Node Cut="-0.914959371" IVar="5" NCoef="0" cType="1" depth="2" nType="0" pos="l" purity="0.0e+00" res="0.0e+00" rms="0.0e+00">
            <Node Cut="0.0e+00" IVar="-1" NCoef="0" cType="1" depth="3" nType="-99" pos="l" purity="0.0e+00" res="0.0150378719" rms="0.0e+00"/>
            <Node Cut="0.279333174" IVar="5" NCoef="0" cType="1" depth="3" nType="0" pos="r" purity="0.0e+00" res="0.0e+00" rms="0.0e+00">
              <Node Cut="0.0e+00" IVar="-1" NCoef="0" cType="1" depth="4" nType="-99" pos="l" purity="0.0e+00" res="-0.00415561255" rms="0.0e+00"/>
              <Node Cut="0.0e+00" IVar="-1" NCoef="0" cType="1" depth="4" nType="-99" pos="r" purity="0.0e+00" res="0.0102896802" rms="0.0e+00"/>
            </Node>
          </Node>
          <Node Cut="-0.0997897685" IVar="2" NCoef="0" cType="1" depth="2" nType="0" pos="r" purity="0.0e+00" res="0.0e+00" rms="0.0e+00">
            <Node Cut="0.0e+00" IVar="-1" NCoef="0" cType="1" depth="3" nType="-99" pos="l" purity="0.0e+00" res="-0.0117180888" rms="0.0e+00"/>
            <Node Cut="0.0e+00" IVar="-1" NCoef="0" cType="1" depth="3" nType="-99" pos="r" purity="0.0e+00" res="0.00555009814" rms="0.0e+00"/>
          </Node>
        </Node>
      </Node>
    </BinaryTree>
    <BinaryTree boostWeight="1.0e+00" itree="38" type="DecisionTree">
      <Node Cut="-0.451117367" IVar="0" NCoef="0" cType="1" depth="0" nType="0" pos="s" purity="0.0e+00" res="0.0e+00" rms="0.0e+00">
        <Node Cut="0.0e+00" IVar="-1" NCoef="0" cType="1" depth="1" nType="-99" pos="l" purity="0.0e+00" res="-0.0101627102" rms="0.0e+00"/>
        <Node Cut="-0.359532207" IVar="1" NCoef="0" cType="1" depth="1" nType="0" pos="r" purity="0.0e+00" res="0.0e+00" rms="0.0e+00">
          <Node Cut="-0.0548889227" IVar="5" NCoef="0" cType="1" depth="2" nType="0" pos="l" purity="0.0e+00" res="0.0e+00" rms="0.0e+00">
            <Node Cut="0.0e+00" IVar="-1" NCoef="0" cType="1" depth="3" nType="-99" pos="l" purity="0.0e+00" res="0.0136705777" rms="0.0e+00"/>
            <Node Cut="0.0e+00" IVar="-1" NCoef="0" cType="1" depth="3" nType="-99" pos="r" purity="0.0e+00" res="0.00621956214" rms="0.0e+00"/>
          </Node>
          <Node Cut="-0.224258512" IVar="2" NCoef="0" cType="1" depth="2" nType="0" pos="r" purity="0.0e+00" res="0.0e+00" rms="0.0e+00">
            <Node Cut="0.0e+00" IVar="-1" NCoef="0" cType="1" depth="3" nType="-99" pos="l" purity="0.0e+00" res="-0.0159640107" rms="0.0e+00"/>
            <Node Cut="0.366113931" IVar="4" NCoef="0" cType="1" depth="3" nType="0" pos="r" purity="0.0e+00" res="0.0e+00" rms="0.0e+00">
              <Node Cut="-0.39961791" IVar="4" NCoef="0" cType="1" depth="4" nType="0" pos="l" purity="0.0e+00" res="0.0e+00" rms="0.0e+00">
                <Node Cut="0.0e+00" IVar="-1" NCoef="0" cType="1" depth="5" nType="-99" pos="l" purity="0.0e+00" res="-0.00116589852" rms="0.0e+00"/>
                <Node Cut="0.0e+00" IVar="-1" NCoef="0" cType="1" depth="5" nType="-99" pos="r" purity="0.0e+00" res="0.0180133916" rms="0.0e+00"/>
              </Node>
              <Node Cut="0.0e+00" IVar="-1" NCoef="0" cType="1" depth="4" nType="-99" pos="r" purity="0.0e+00" res="-0.00239491835" rms="0.0e+00"/>
            </Node>
          </Node>
        </Node>
      </Node>
    </BinaryTree>
    <BinaryTree boostWeight="1.0e+00" itree="39" type="DecisionTree">
      <Node Cut="0.177030712" IVar="5" NCoef="0" cType="1" depth="0" nType="0" pos="s" purity="0.0e+00" res="0.0e+00" rms="0.0e+00">
        <Node Cut="-0.448287189" IVar="5" NCoef="0" cType="1" depth="1" nType="0" pos="l" purity="0.0e+00" res="0.0e+00" rms="0.0e+00">
          <Node Cut="-0.374952793" IVar="1" NCoef="0" cType="1" depth="2" nType="0" pos="l" purity="0.0e+00" res="0.0e+00" rms="0.0e+00">
            <Node Cut="0.0e+00" IVar="-1" NCoef="0" cType="1" depth="3" nType="-99" pos="l" purity="0.0e+00" res="0.0151417507" rms="0.0e+00"/>
            <Node Cut="0.00732239708" IVar="0" NCoef="0" cType="1" depth="3" nType="0" pos="r" purity="0.0e+00" res="0.0e+00" rms="0.0e+00">
              <Node Cut="0.0e+00" IVar="-1" NCoef="0" cType="1" depth="4" nType="-99" pos="l" purity="0.0e+00" res="-0.00497943629" rms="0.0e+00"/>
              <Node Cut="0.0e+00" IVar="-1" NCoef="0" cType="1" depth="4" nType="-99" pos="r" purity="0.0e+00" res="0.00334408483" rms="0.0e+00"/>
            </Node>
          </Node>
          <Node Cut="0.0e+00" IVar="-1" NCoef="0" cType="1" depth="2" nType="-99" pos="r" purity="0.0e+00" res="-0.0313153304" rms="0.0e+00"/>
        </Node>
        <Node Cut="-0.285834968" IVar="1" NCoef="0" cType="1" depth="1" nType="0" pos="r" purity="0.0e+00" res="0.0e+00" rms="0.0e+00">
          <Node Cut="0.0e+00" IVar="-1" NCoef="0" cType="1" depth="2" nType="-99" pos="l" purity="0.0e+00" res="0.0133278286" rms="0.0e+00"/>
          <Node Cut="0.0806688815" IVar="0" NCoef="0" cType="1" depth="2" nType="0" pos="r" purity="0.0e+00" res="0.0e+00" rms="0.0e+00">
            <Node Cut="0.0e+00" IVar="-1" NCoef="0" cType="1" depth="3" nType="-99" pos="l" purity="0.0e+00" res="-0.00593514694" rms="0.0e+00"/>
            <Node Cut="0.0e+00" IVar="-1" NCoef="0" cType="1" depth="3" nType="-99" pos="r" purity="0.0e+00" res="0.00824953057" rms="0.0e+00"/>
          </Node>
        </Node>
      </Node>
    </BinaryTree>
    <BinaryTree boostWeight="1.0e+00" itree="40" type="DecisionTree">
      <Node Cut="0.434974372" IVar="1" NCoef="0" cType="1" depth="0" nType="0" pos="s" purity="0.0e+00" res="0.0e+00" rms="0.0e+00">
        <Node Cut="0.185062259" IVar="5" NCoef="0" cType="1" depth="1" nType="0" pos="l" purity="0.0e+00" res="0.0e+00" rms="0.0e+00">
          <Node Cut="-0.515420675" IVar="5" NCoef="0" cType="1" depth="2" nType="0" pos="l" purity="0.0e+00" res="0.0e+00" rms="0.0e+00">
            <Node Cut="-0.318821669" IVar="1" NCoef="0" cType="1" depth="3" nType="0" pos="l" purity="0.0e+00" res="0.0e+00" rms="0.0e+00">
              <Node Cut="0.0e+00" IVar="-1" NCoef="0" cType="1" depth="4" nType="-99" pos="l" purity="0.0e+00" res="0.0111550456" rms="0.0e+00"/>
              <Node Cut="0.0e+00" IVar="-1" NCoef="0" cType="1" depth="4" nType="-99" pos="r" purity="0.0e+00" res="0.00231128093" rms="0.0e+00"/>
            </Node>
            <Node Cut="0.0e+00" IVar="-1" NCoef="0" cType="1" depth="3" nType="-99" pos="r" purity="0.0e+00" res="-0.0226767939" rms="0.0e+00"/>
          </Node>
          <Node Cut="-0.145912498" IVar="6" NCoef="0" cType="1" depth="2" nType="0" pos="r" purity="0.0e+00" res="0.0e+00" rms="0.0e+00">
            <Node Cut="0.0e+00" IVar="-1" NCoef="0" cType="1" depth="3" nType="-99" pos="l" purity="0.0e+00" res="0.015542917" rms="0.0e+00"/>
            <Node Cut="0.0e+00" IVar="-1" NCoef="0" cType="1" depth="3" nType="-99" pos="r" purity="0.0e+00" res="0.00417950703" rms="0.0e+00"/>
          </Node>
        </Node>
        <Node Cut="0.0e+00" IVar="-1" NCoef="0" cType="1" depth="1" nType="-99" pos="r" purity="0.0e+00" res="-0.0110421283" rms="0.0e+00"/>
      </Node>
    </BinaryTree>
    <BinaryTree boostWeight="1.0e+00" itree="41" type="DecisionTree">
      <Node Cut="0.269427061" IVar="5" NCoef="0" cType="1" depth="0" nType="0" pos="s" purity="0.0e+00" res="0.0e+00" rms="0.0e+00">
        <Node Cut="-0.44393748" IVar="5" NCoef="0" cType="1" depth="1" nType="0" pos="l" purity="0.0e+00" res="0.0e+00" rms="0.0e+00">
          <Node Cut="-0.352744639" IVar="1" NCoef="0" cType="1" depth="2" nType="0" pos="l" purity="0.0e+00" res="0.0e+00" rms="0.0e+00">
            <Node Cut="0.0e+00" IVar="-1" NCoef="0" cType="1" depth="3" nType="-99" pos="l" purity="0.0e+00" res="0.0116974292" rms="0.0e+00"/>
            <Node Cut="0.00125237484" IVar="0" NCoef="0" cType="1" depth="3" nType="0" pos="r" purity="0.0e+00" res="0.0e+00" rms="0.0e+00">
              <Node Cut="0.0e+00" IVar="-1" NCoef="0" cType="1" depth="4" nType="-99" pos="l" purity="0.0e+00" res="-0.00528234988" rms="0.0e+00"/>
              <Node Cut="0.0e+00" IVar="-1" NCoef="0" cType="1" depth="4" nType="-99" pos="r" purity="0.0e+00" res="0.00365462783" rms="0.0e+00"/>
            </Node>
          </Node>
          <Node Cut="0.0e+00" IVar="-1" NCoef="0" cType="1" depth="2" nType="-99" pos="r" purity="0.0e+00" res="-0.028492948" rms="0.0e+00"/>
        </Node>
        <Node Cut="-0.269869506" IVar="1" NCoef="0" cType="1" depth="1" nType="0" pos="r" purity="0.0e+00" res="0.0e+00" rms="0.0e+00">
          <Node Cut="0.0e+00" IVar="-1" NCoef="0" cType="1" depth="2" nType="-99" pos="l" purity="0.0e+00" res="0.0117971292" rms="0.0e+00"/>
          <Node Cut="0.0e+00" IVar="-1" NCoef="0" cType="1" depth="2" nType="-99" pos="r" purity="0.0e+00" res="0.000121417317" rms="0.0e+00"/>
        </Node>
      </Node>
    </BinaryTree>
    <BinaryTree boostWeight="1.0e+00" itree="42" type="DecisionTree">
      <Node Cut="0.55869168" IVar="1" NCoef="0" cType="1" depth="0" nType="0" pos="s" purity="0.0e+00" res="0.0e+00" rms="0.0e+00">
        <Node Cut="-0.142349467" IVar="2" NCoef="0" cType="1" depth="1" nType="0" pos="l" purity="0.0e+00" res="0.0e+00" rms="0.0e+00">
          <Node Cut="-0.383540899" IVar="0" NCoef="0" cType="1" depth="2" nType="0" pos="l" purity="0.0e+00" res="0.0e+00" rms="0.0e+00">
            <Node Cut="0.0e+00" IVar="-1" NCoef="0" cType="1" depth="3" nType="-99" pos="l" purity="0.0e+00" res="-0.00837214664" rms="0.0e+00"/>
            <Node Cut="-0.158376038" IVar="1" NCoef="0" cType="1" depth="3" nType="0" pos="r" purity="0.0e+00" res="0.0e+00" rms="0.0e+00">
              <Node Cut="0.26750958" IVar="4" NCoef="0" cType="1" depth="4" nType="0" pos="l" purity="0.0e+00" res="0.0e+00" rms="0.0e+00">
                <Node Cut="0.0e+00" IVar="-1" NCoef="0" cType="1" depth="5" nType="-99" pos="l" purity="0.0e+00" res="0.00481464714" rms="0.0e+00"/>
                <Node Cut="0.0e+00" IVar="-1" NCoef="0" cType="1" depth="5" nType="-99" pos="r" purity="0.0e+00" res="0.0124452636" rms="0.0e+00"/>
              </Node>
              <Node Cut="0.0e+00" IVar="-1" NCoef="0" cType="1" depth="4" nType="-99" pos="r" purity="0.0e+00" res="-0.00183985662" rms="0.0e+00"/>
            </Node>
          </Node>
          <Node Cut="0.0e+00" IVar="-1" NCoef="0" cType="1" depth="2" nType="-99" pos="r" purity="0.0e+00" res="0.0149427941" rms="0.0e+00"/>
        </Node>
        <Node Cut="0.0e+00" IVar="-1" NCoef="0" cType="1" depth="1" nType="-99" pos="r" purity="0.0e+00" res="-0.0122176083" rms="0.0e+00"/>
      </Node>
    </BinaryTree>
    <BinaryTree boostWeight="1.0e+00" itree="43" type="DecisionTree">
      <Node Cut="-0.417680234" IVar="0" NCoef="0" cType="1" depth="0" nType="0" pos="s" purity="0.0e+00" res="0.0e+00" rms="0.0e+00">
        <Node Cut="0.0e+00" IVar="-1" NCoef="0" cType="1" depth="1" nType="-99" pos="l" purity="0.0e+00" res="-0.00787199941" rms="0.0e+00"/>
        <Node Cut="0.393210709" IVar="4" NCoef="0" cType="1" depth="1" nType="0" pos="r" purity="0.0e+00" res="0.0e+00" rms="0.0e+00">
          <Node Cut="0.206817761" IVar="4" NCoef="0" cType="1" depth="2" nType="0" pos="l" purity="0.0e+00" res="0.0e+00" rms="0.0e+00">
            <Node Cut="-0.742235899" IVar="5" NCoef="0" cType="1" depth="3" nType="0" pos="l" purity="0.0e+00" res="0.0e+00" rms="0.0e+00">
              <Node Cut="0.0e+00" IVar="-1" NCoef="0" cType="1" depth="4" nType="-99" pos="l" purity="0.0e+00" res="0.00776988966" rms="0.0e+00"/>
              <Node Cut="0.0e+00" IVar="-1" NCoef="0" cType="1" depth="4" nType="-99" pos="r" purity="0.0e+00" res="-0.000599791238" rms="0.0e+00"/>
            </Node>
            <Node Cut="0.0e+00" IVar="-1" NCoef="0" cType="1" depth="3" nType="-99" pos="r" purity="0.0e+00" res="0.0186746847" rms="0.0e+00"/>
          </Node>
          <Node Cut="-0.179614037" IVar="1" NCoef="0" cType="1" depth="2" nType="0" pos="r" purity="0.0e+00" res="0.0e+00" rms="0.0e+00">
            <Node Cut="0.0e+00" IVar="-1" NCoef="0" cType="1" depth="3" nType="-99" pos="l" purity="0.0e+00" res="0.00518429652" rms="0.0e+00"/>
            <Node Cut="0.0e+00" IVar="-1" NCoef="0" cType="1" depth="3" nType="-99" pos="r" purity="0.0e+00" res="-0.0095976172" rms="0.0e+00"/>
          </Node>
        </Node>
      </Node>
    </BinaryTree>
    <BinaryTree boostWeight="1.0e+00" itree="44" type="DecisionTree">
      <Node Cut="0.191874117" IVar="5" NCoef="0" cType="1" depth="0" nType="0" pos="s" purity="0.0e+00" res="0.0e+00" rms="0.0e+00">
        <Node Cut="-0.492852807" IVar="5" NCoef="0" cType="1" depth="1" nType="0" pos="l" purity="0.0e+00" res="0.0e+00" rms="0.0e+00">
          <Node Cut="-0.352033257" IVar="1" NCoef="0" cType="1" depth="2" nType="0" pos="l" purity="0.0e+00" res="0.0e+00" rms="0.0e+00">
            <Node Cut="0.0e+00" IVar="-1" NCoef="0" cType="1" depth="3" nType="-99" pos="l" purity="0.0e+00" res="0.0138785886" rms="0.0e+00"/>
            <Node Cut="0.0530369133" IVar="0" NCoef="0" cType="1" depth="3" nType="0" pos="r" purity="0.0e+00" res="0.0e+00" rms="0.0e+00">
              <Node Cut="0.0e+00" IVar="-1" NCoef="0" cType="1" depth="4" nType="-99" pos="l" purity="0.0e+00" res="-0.00498903077" rms="0.0e+00"/>
              <Node Cut="0.0e+00" IVar="-1" NCoef="0" cType="1" depth="4" nType="-99" pos="r" purity="0.0e+00" res="0.00218685996" rms="0.0e+00"/>
            </Node>
          </Node>
          <Node Cut="0.0e+00" IVar="-1" NCoef="0" cType="1" depth="2" nType="-99" pos="r" purity="0.0e+00" res="-0.0260195974" rms="0.0e+00"/>
        </Node>
        <Node Cut="-0.419879407" IVar="1" NCoef="0" cType="1" depth="1" nType="0" pos="r" purity="0.0e+00" res="0.0e+00" rms="0.0e+00">
          <Node Cut="0.0e+00" IVar="-1" NCoef="0" cType="1" depth="2" nType="-99" pos="l" purity="0.0e+00" res="0.0146299554" rms="0.0e+00"/>
          <Node Cut="-0.0532096773" IVar="0" NCoef="0" cType="1" depth="2" nType="0" pos="r" purity="0.0e+00" res="0.0e+00" rms="0.0e+00">
            <Node Cut="0.0e+00" IVar="-1" NCoef="0" cType="1" depth="3" nType="-99" pos="l" purity="0.0e+00" res="-0.00509312609" rms="0.0e+00"/>
            <Node Cut="0.0e+00" IVar="-1" NCoef="0" cType="1" depth="3" nType="-99" pos="r" purity="0.0e+00" res="0.00886833295" rms="0.0e+00"/>
          </Node>
        </Node>
      </Node>
    </BinaryTree>
    <BinaryTree boostWeight="1.0e+00" itree="45" type="DecisionTree">
      <Node Cut="-0.449527621" IVar="0" NCoef="0" cType="1" depth="0" nType="0" pos="s" purity="0.0e+00" res="0.0e+00" rms="0.0e+00">
        <Node Cut="0.0e+00" IVar="-1" NCoef="0" cType="1" depth="1" nType="-99" pos="l" purity="0.0e+00" res="-0.00855923351" rms="0.0e+00"/>
        <Node Cut="0.190001518" IVar="1" NCoef="0" cType="1" depth="1" nType="0" pos="r" purity="0.0e+00" res="0.0e+00" rms="0.0e+00">
          <Node Cut="1.04036927" IVar="5" NCoef="0" cType="1" depth="2" nType="0" pos="l" purity="0.0e+00" res="0.0e+00" rms="0.0e+00">
            <Node Cut="-1.03400087" IVar="5" NCoef="0" cType="1" depth="3" nType="0" pos="l" purity="0.0e+00" res="0.0e+00" rms="0.0e+00">
              <Node Cut="0.0e+00" IVar="-1" NCoef="0" cType="1" depth="4" nType="-99" pos="l" purity="0.0e+00" res="0.0136807831" rms="0.0e+00"/>
              <Node Cut="-0.375267625" IVar="1" NCoef="0" cType="1" depth="4" nType="0" pos="r" purity="0.0e+00" res="0.0e+00" rms="0.0e+00">
                <Node Cut="0.0e+00" IVar="-1" NCoef="0" cType="1" depth="5" nType="-99" pos="l" purity="0.0e+00" res="0.00659122551" rms="0.0e+00"/>
                <Node Cut="0.0e+00" IVar="-1" NCoef="0" cType="1" depth="5" nType="-99" pos="r" purity="0.0e+00" res="-0.0124618439" rms="0.0e+00"/>
              </Node>
            </Node>
            <Node Cut="0.0e+00" IVar="-1" NCoef="0" cType="1" depth="3" nType="-99" pos="r" purity="0.0e+00" res="0.0141425757" rms="0.0e+00"/>
          </Node>
          <Node Cut="0.0e+00" IVar="-1" NCoef="0" cType="1" depth="2" nType="-99" pos="r" purity="0.0e+00" res="-0.00475490419" rms="0.0e+00"/>
        </Node>
      </Node>
    </BinaryTree>
    <BinaryTree boostWeight="1.0e+00" itree="46" type="DecisionTree">
      <Node Cut="0.539671421" IVar="1" NCoef="0" cType="1" depth="0" nType="0" pos="s" purity="0.0e+00" res="0.0e+00" rms="0.0e+00">
        <Node Cut="-0.143611342" IVar="2" NCoef="0" cType="1" depth="1" nType="0" pos="l" purity="0.0e+00" res="0.0e+00" rms="0.0e+00">
          <Node Cut="-0.0595598593" IVar="0" NCoef="0" cType="1" depth="2" nType="0" pos="l" purity="0.0e+00" res="0.0e+00" rms="0.0e+00">
            <Node Cut="-0.332918793" IVar="1" NCoef="0" cType="1" depth="3" nType="0" pos="l" purity="0.0e+00" res="0.0e+00" rms="0.0e+00">
              <Node Cut="-0.149308413" IVar="5" NCoef="0" cType="1" depth="4" nType="0" pos="l" purity="0.0e+00" res="0.0e+00" rms="0.0e+00">
                <Node Cut="0.0e+00" IVar="-1" NCoef="0" cType="1" depth="5" nType="-99" pos="l" purity="0.0e+00" res="0.0124517782" rms="0.0e+00"/>
                <Node Cut="0.0e+00" IVar="-1" NCoef="0" cType="1" depth="5" nType="-99" pos="r" purity="0.0e+00" res="-0.00473953784" rms="0.0e+00"/>
              </Node>
              <Node Cut="0.0e+00" IVar="-1" NCoef="0" cType="1" depth="4" nType="-99" pos="r" purity="0.0e+00" res="-0.0205036029" rms="0.0e+00"/>
            </Node>
            <Node Cut="0.0898489952" IVar="6" NCoef="0" cType="1" depth="3" nType="0" pos="r" purity="0.0e+00" res="0.0e+00" rms="0.0e+00">
              <Node Cut="0.0e+00" IVar="-1" NCoef="0" cType="1" depth="4" nType="-99" pos="l" purity="0.0e+00" res="0.0106447255" rms="0.0e+00"/>
              <Node Cut="0.0e+00" IVar="-1" NCoef="0" cType="1" depth="4" nType="-99" pos="r" purity="0.0e+00" res="0.00392776215" rms="0.0e+00"/>
            </Node>
          </Node>
          <Node Cut="0.0e+00" IVar="-1" NCoef="0" cType="1" depth="2" nType="-99" pos="r" purity="0.0e+00" res="0.0124687282" rms="0.0e+00"/>
        </Node>
        <Node Cut="0.0e+00" IVar="-1" NCoef="0" cType="1" depth="1" nType="-99" pos="r" purity="0.0e+00" res="-0.0114980889" rms="0.0e+00"/>
      </Node>
    </BinaryTree>
    <BinaryTree boostWeight="1.0e+00" itree="47" type="DecisionTree">
      <Node Cut="-0.585633516" IVar="1" NCoef="0" cType="1" depth="0" nType="0" pos="s" purity="0.0e+00" res="0.0e+00" rms="0.0e+00">
        <Node Cut="0.0e+00" IVar="-1" NCoef="0" cType="1" depth="1" nType="-99" pos="l" purity="0.0e+00" res="0.0114035932" rms="0.0e+00"/>
        <Node Cut="-0.274159104" IVar="2" NCoef="0" cType="1" depth="1" nType="0" pos="r" purity="0.0e+00" res="0.0e+00" rms="0.0e+00">
          <Node Cut="0.0e+00" IVar="-1" NCoef="0" cType="1" depth="2" nType="-99" pos="l" purity="0.0e+00" res="-0.0132527919" rms="0.0e+00"/>
          <Node Cut="0.229046211" IVar="1" NCoef="0" cType="1" depth="2" nType="0" pos="r" purity="0.0e+00" res="0.0e+00" rms="0.0e+00">
            <Node Cut="-1.03424048" IVar="5" NCoef="0" cType="1" depth="3" nType="0" pos="l" purity="0.0e+00" res="0.0e+00" rms="0.0e+00">
              <Node Cut="0.0e+00" IVar="-1" NCoef="0" cType="1" depth="4" nType="-99" pos="l" purity="0.0e+00" res="0.0107300682" rms="0.0e+00"/>
              <Node Cut="0.820952058" IVar="5" NCoef="0" cType="1" depth="4" nType="0" pos="r" purity="0.0e+00" res="0.0e+00" rms="0.0e+00">
                <Node Cut="0.0e+00" IVar="-1" NCoef="0" cType="1" depth="5" nType="-99" pos="l" purity="0.0e+00" res="-0.00673249224" rms="0.0e+00"/>
                <Node Cut="0.0e+00" IVar="-1" NCoef="0" cType="1" depth="5" nType="-99" pos="r" purity="0.0e+00" res="0.00813825987" rms="0.0e+00"/>
              </Node>
            </Node>
            <Node Cut="0.0e+00" IVar="-1" NCoef="0" cType="1" depth="3" nType="-99" pos="r" purity="0.0e+00" res="-0.00510025304" rms="0.0e+00"/>
          </Node>
        </Node>
      </Node>
    </BinaryTree>
    <BinaryTree boostWeight="1.0e+00" itree="48" type="DecisionTree">
      <Node Cut="0.279385954" IVar="5" NCoef="0" cType="1" depth="0" nType="0" pos="s" purity="0.0e+00" res="0.0e+00" rms="0.0e+00">
        <Node Cut="-0.481050193" IVar="5" NCoef="0" cType="1" depth="1" nType="0" pos="l" purity="0.0e+00" res="0.0e+00" rms="0.0e+00">
          <Node Cut="-0.218058914" IVar="7" NCoef="0" cType="1" depth="2" nType="0" pos="l" purity="0.0e+00" res="0.0e+00" rms="0.0e+00">
            <Node Cut="0.0e+00" IVar="-1" NCoef="0" cType="1" depth="3" nType="-99" pos="l" purity="0.0e+00" res="0.00739161251" rms="0.0e+00"/>
            <Node Cut="0.0e+00" IVar="-1" NCoef="0" cType="1" depth="3" nType="-99" pos="r" purity="0.0e+00" res="-0.00229662354" rms="0.0e+00"/>
          </Node>
          <Node Cut="0.0e+00" IVar="-1" NCoef="0" cType="1" depth="2" nType="-99" pos="r" purity="0.0e+00" res="-0.0243736878" rms="0.0e+00"/>
        </Node>
        <Node Cut="-0.239401832" IVar="1" NCoef="0" cType="1" depth="1" nType="0" pos="r" purity="0.0e+00" res="0.0e+00" rms="0.0e+00">
          <Node Cut="0.0e+00" IVar="-1" NCoef="0" cType="1" depth="2" nType="-99" pos="l" purity="0.0e+00" res="0.00875714887" rms="0.0e+00"/>
          <Node Cut="0.0e+00" IVar="-1" NCoef="0" cType="1" depth="2" nType="-99" pos="r" purity="0.0e+00" res="-0.00091747148" rms="0.0e+00"/>
        </Node>
      </Node>
    </BinaryTree>
    <BinaryTree boostWeight="1.0e+00" itree="49" type="DecisionTree">
      <Node Cut="-0.585834622" IVar="1" NCoef="0" cType="1" depth="0" nType="0" pos="s" purity="0.0e+00" res="0.0e+00" rms="0.0e+00">
        <Node Cut="0.0e+00" IVar="-1" NCoef="0" cType="1" depth="1" nType="-99" pos="l" purity="0.0e+00" res="0.0122735417" rms="0.0e+00"/>
        <Node Cut="-0.27305007" IVar="2" NCoef="0" cType="1" depth="1" nType="0" pos="r" purity="0.0e+00" res="0.0e+00" rms="0.0e+00">
          <Node Cut="0.0e+00" IVar="-1" NCoef="0" cType="1" depth="2" nType="-99" pos="l" purity="0.0e+00" res="-0.0130192013" rms="0.0e+00"/>
          <Node Cut="0.0616931766" IVar="1" NCoef="0" cType="1" depth="2" nType="0" pos="r" purity="0.0e+00" res="0.0e+00" rms="0.0e+00">
            <Node Cut="-0.200075224" IVar="2" NCoef="0" cType="1" depth="3" nType="0" pos="l" purity="0.0e+00" res="0.0e+00" rms="0.0e+00">
              <Node Cut="0.756297112" IVar="5" NCoef="0" cType="1" depth="4" nType="0" pos="l" purity="0.0e+00" res="0.0e+00" rms="0.0e+00">
                <Node Cut="0.0e+00" IVar="-1" NCoef="0" cType="1" depth="5" nType="-99" pos="l" purity="0.0e+00" res="-0.00270928629" rms="0.0e+00"/>
                <Node Cut="0.0e+00" IVar="-1" NCoef="0" cType="1" depth="5" nType="-99" pos="r" purity="0.0e+00" res="0.00889015011" rms="0.0e+00"/>
              </Node>
